<?xml version="1.0"?>
<opencv_storage>
<my_svm type_id="opencv-ml-svm">
  <svm_type>C_SVC</svm_type>
  <kernel><type>LINEAR</type></kernel>
  <C>1.0000000000000001e-01</C>
  <term_criteria><epsilon>9.9999999747524271e-07</epsilon>
    <iterations>1000</iterations></term_criteria>
  <var_all>4096</var_all>
  <var_count>4096</var_count>
  <class_count>10</class_count>
  <class_labels type_id="opencv-matrix">
    <rows>1</rows>
    <cols>10</cols>
    <dt>i</dt>
    <data>
      0 1 2 3 4 5 6 7 8 9</data></class_labels>
  <sv_total>45</sv_total>
  <support_vectors>
    <_>
      0. -2.15905588e-04 -1.46344432e-03 -4.30336408e-03 1.28530487e-02
      2.52678897e-03 7.65196327e-03 0. 0. 0. 0. 2.42582615e-03
      -2.40552635e-03 -2.05783828e-04 3.10885906e-03 4.53535886e-03
      9.68067627e-03 4.75375331e-04 -1.01501094e-02 3.78280785e-03
      -8.62066343e-04 0. 4.79263533e-03 -1.24974083e-02 4.89068974e-04
      -5.59863285e-04 0. -6.20628381e-03 0. 2.87969422e-04
      1.00137247e-02 -1.43692270e-02 0. 4.52995911e-04 -1.09694544e-02
      4.32763062e-03 -4.77453868e-04 1.18774096e-05 1.19460123e-02
      -7.26919482e-03 0. -4.92705591e-03 0. 9.03213746e-04 0.
      4.26488044e-03 0. 9.27706342e-03 8.96454789e-03 5.30207809e-03
      1.15864712e-03 -8.24573170e-03 0. 7.61453900e-03 -2.38925125e-03
      3.79470439e-04 1.26616552e-03 -2.04592641e-03 -1.32294383e-03 0.
      0. 0. 0. 7.12543959e-03 -1.88519177e-03 -4.73368214e-03
      1.22017504e-04 -3.92672373e-03 5.83977671e-03 1.23794004e-02 0.
      1.24796377e-02 1.35563011e-03 0. -7.26142572e-03 -3.21936910e-03
      7.04439683e-03 2.02985983e-02 -1.85480865e-03 -6.88608550e-03
      3.90041084e-03 1.95171416e-03 -9.59293637e-03 0. 1.07064554e-02
      -2.42537513e-04 -5.50891273e-03 -6.97961636e-03 -1.06446410e-03
      -5.24692563e-03 -4.92806721e-04 -7.99529534e-03 7.10019656e-03 0.
      0. -1.24217512e-03 -4.52769967e-03 0. 0. -2.08978020e-02 0.
      -2.88678822e-03 -1.81839650e-03 -2.74336874e-03 -6.00489881e-03
      -7.44041521e-03 4.53088339e-03 0. -6.30428083e-03 0.
      5.14720520e-03 0. 1.47301620e-02 7.06140138e-03 0. 0.
      -6.40713726e-04 -2.83242040e-03 0. 0. -4.10097837e-03 0. 0. 0. 0.
      -1.29485615e-02 -4.45090758e-04 0. 1.27661682e-03 -1.20044881e-02
      2.22109794e-03 -4.93783876e-03 -1.79294380e-03 0. 0.
      -6.01380365e-03 -1.95174683e-02 -2.99881049e-03 4.17174445e-03
      6.27024053e-03 9.06564668e-03 0. 0. 0. -6.03463210e-04
      2.78387452e-03 6.81924773e-03 -5.66238232e-05 0. -6.16610982e-03
      -1.18259422e-03 -2.32571634e-04 0. 0. 1.63705647e-02
      -1.80207228e-03 8.40945449e-03 2.99093197e-03 0. 1.42811323e-02
      5.76813007e-03 -1.29761212e-02 -3.33302375e-03 7.99325667e-03
      3.16819502e-03 -7.01725599e-04 0. 0. -5.27006814e-05 0.
      2.27421033e-03 0. -3.44279106e-03 0. -1.03224523e-03 0. 0. 0.
      -9.32801922e-04 0. -1.19818924e-02 -8.96717422e-04 0. 0. 0. 0.
      2.23745010e-03 -9.26230568e-04 -2.74131051e-03 -3.93185997e-03 0.
      2.17883219e-03 -2.01766230e-02 1.08360284e-04 -6.86616462e-04 0.
      8.08658369e-04 0. -6.14944875e-05 1.38554992e-02 -3.55866156e-03
      2.85164337e-03 -1.69748164e-04 1.75901936e-04 1.03712257e-04
      -1.42335305e-02 -1.88752997e-03 0. 1.29239904e-02 1.01099070e-03
      -4.72721207e-04 -2.35915510e-03 0. 0. -1.84151612e-03 0. 0.
      3.58719262e-03 -4.26727440e-03 2.13407129e-02 2.34731109e-04
      3.63076360e-05 6.74239453e-03 -1.17236543e-02 2.26294316e-04
      1.75645873e-02 3.41286650e-03 3.24718712e-04 0. 0. 0.
      -3.61035299e-03 1.32010849e-02 0. -2.67324829e-03 -3.91590828e-03
      1.41765252e-02 0. 1.29741663e-02 2.07085465e-03 -2.00790837e-02
      -1.02475064e-03 -5.68753714e-03 0. -5.28603268e-05 -5.37692511e-04
      -1.42963724e-02 0. 0. 1.97186600e-03 -7.74681615e-03
      -5.90274530e-03 -5.85666159e-03 3.23830609e-04 0. -7.99502712e-03
      -3.33210407e-03 -3.59131070e-03 0. -1.58426352e-02 0.
      2.98153353e-03 3.20711313e-03 -2.30626692e-03 0. -1.18505852e-02
      -3.35995501e-05 2.64904345e-04 0. 1.50247049e-02 -3.77488718e-03
      0. 1.75099855e-03 0. 3.70894745e-03 0. 0. 0. 0. -2.88489461e-03
      2.44135829e-03 -3.34179634e-03 0. 7.73632491e-04 -4.07903746e-04
      8.74447578e-04 6.86618686e-03 -3.99095425e-03 0. -2.09077797e-03
      -9.96694621e-03 0. 0. 0. 0. 0. -1.94631075e-03 1.31666497e-03
      -1.13953673e-03 0. 0. 0. -2.78717466e-03 0. -8.45824950e-04
      -8.50426778e-03 0. 3.24200118e-05 0. 0. 5.18123816e-05 0.
      1.68876082e-03 1.00446523e-04 0. 1.39531046e-02 -1.85934582e-03 0.
      0. 0. 3.47014097e-03 8.21505091e-04 0. -2.97379610e-03
      8.24206916e-04 0. 0. 1.26146374e-03 1.17437579e-02 -8.44418257e-03
      -2.79092067e-03 -5.84219676e-03 -4.39433730e-04 0. 5.14471391e-03
      1.28995976e-04 0. -8.26446776e-05 0. 1.77981555e-02
      -9.56698414e-03 -1.28012802e-02 0. 0. 0. 0. 0. 2.24921145e-02 0.
      0. -2.75261863e-03 2.27597523e-02 -6.16912544e-03 0.
      1.93268919e-04 0. 0. 0. -2.39736796e-03 -1.17149763e-03
      -4.74175997e-03 0. -1.04937926e-02 2.43095751e-03 2.33625690e-03
      1.91845640e-03 -1.42580513e-02 0. -3.96797201e-03 -4.71047650e-04
      0. 3.89248226e-03 -3.28771188e-03 0. -1.95541536e-03 0.
      -1.16342946e-03 0. -5.55373321e-04 0. 0. 2.17732880e-02
      2.54684035e-03 0. 0. 0. -5.05074451e-04 -7.06004212e-03
      -2.48587294e-03 3.83895542e-03 0. 0. 0. 0. 4.86497348e-03
      1.58527065e-02 2.11581774e-02 0. 7.28647341e-04 0. 2.65780836e-04
      8.90179072e-04 0. 2.52328394e-03 -1.12820487e-03 -6.24632603e-03
      0. 0. -7.60852080e-03 4.01400495e-03 9.10858531e-03
      -7.36396178e-04 0. 1.14943855e-03 0. 3.96920694e-03 0. 0.
      1.17113562e-02 2.42421316e-04 -5.89609286e-03 -6.57755882e-04
      1.73542704e-02 1.23629102e-03 7.59494212e-03 -4.49898827e-04
      4.07781731e-03 0. -1.36928717e-02 5.30799851e-03 2.96691107e-03
      -1.76645489e-03 -8.27768585e-04 -4.88551159e-04 -2.45284871e-03 0.
      0. -5.82340988e-04 -6.44398993e-03 0. -4.33390541e-03 0. 0.
      1.35152228e-02 4.58945334e-03 -9.91464313e-03 -2.89444695e-04 0.
      -1.22390706e-02 -4.67375387e-03 0. -1.39429690e-02 0.
      8.76581855e-03 0. 0. 4.37007565e-03 0. -6.24259794e-03
      9.23330151e-03 1.18237557e-02 -1.90867705e-03 3.31200054e-03
      7.45129725e-03 5.49001992e-03 0. 0. 2.14191503e-03 -7.14372436e-05
      0. 0. 0. 0. 0. 0. 0. 2.36656088e-02 0. 0. -6.82116253e-04 0. 0.
      -3.20418202e-03 2.30607966e-05 -1.31043559e-02 -2.11009290e-03
      5.78806394e-05 0. 0. -2.98146764e-03 0. -9.50918440e-03
      1.56553998e-03 3.05374525e-03 -1.94014574e-03 -2.84331804e-03
      7.84186274e-03 7.04345200e-03 0. 3.73761589e-03 0. 0. 0.
      -1.82493811e-03 0. 8.00206698e-03 -7.04411743e-03 0.
      7.12904474e-03 -5.19596413e-03 -1.11179380e-03 3.37448576e-03
      1.27409794e-03 0. -3.82282509e-04 0. 0. 0. -1.67534570e-04 0. 0.
      0. -8.67828075e-03 0. -2.33849254e-03 0. 0. 1.06715653e-02
      -1.54733928e-02 7.19027885e-04 -7.70682353e-04 2.87177414e-03
      -4.22735186e-03 -3.32527998e-05 0. 0. -7.23907305e-03 0.
      -5.56061091e-03 0. -2.58846354e-04 0. 0. -2.56903877e-04
      -1.28276355e-03 0. 0. 0. 0. 1.49300520e-03 -1.09136221e-03 0. 0.
      5.37029188e-03 0. -5.61235379e-03 -2.63623334e-03 -9.03007574e-03
      0. 0. 0. 0. 0. 0. 2.91127199e-03 7.55680120e-03 0. 0.
      -4.38753795e-03 -7.30202813e-03 0. 3.47732333e-03 3.28915572e-04
      5.79894707e-03 0. -5.05460473e-03 1.12596946e-03 -1.09598320e-03
      -3.08841141e-03 0. 1.16084870e-04 -5.09352377e-03 0.
      6.42512646e-03 -2.79893109e-04 0. 9.23431013e-03 -1.26824679e-03
      -9.99954063e-03 -3.10681388e-03 -2.17815791e-03 -1.33838132e-03 0.
      9.84487197e-05 2.73821335e-02 0. 0. 2.09657941e-04 4.80675464e-03
      4.34118230e-03 -9.40881029e-04 0. -7.13094743e-03 0. 0.
      -1.74576402e-04 1.74958892e-02 0. 0. 0. 5.68952318e-03
      -4.73431032e-03 0. -3.09760566e-04 -1.40335271e-03 -2.03847466e-03
      0. -9.04917065e-03 -9.08954025e-05 -1.30403182e-02 -2.46902015e-02
      -3.09566548e-03 0. 0. 0. 0. 0. 0. -2.62724585e-03 6.20728169e-05
      0. 0. 6.61809044e-03 1.34085037e-03 3.39704752e-03 0. 0. 0.
      7.39210332e-03 -8.59066844e-04 0. -7.97274755e-04 0.
      4.29260166e-04 -3.45673616e-04 1.94969885e-02 0. 6.92066271e-03
      4.59754094e-03 0. 9.01166524e-04 0. 1.33871203e-04 -2.44009076e-03
      0. -1.16100209e-02 -2.49361061e-02 -6.27055671e-03 -5.00849739e-04
      0. 0. 6.35543512e-03 2.96964165e-04 2.91570742e-03 1.96481799e-03
      0. -1.19987503e-02 1.85705707e-04 -1.28745101e-03 2.23279581e-03
      3.50640411e-03 -4.88582533e-04 7.50715286e-03 1.75018772e-03 0.
      -9.62164439e-03 5.23450784e-03 0. 5.97650185e-04 -4.95050289e-03
      -1.01436600e-02 1.26626603e-02 8.92640185e-03 0. 0.
      -5.52505488e-03 0. 0. 1.70820970e-02 1.45381447e-02 8.30016192e-03
      -6.69625495e-03 0. -2.20083576e-02 0. 5.48328832e-03
      4.58479673e-03 -1.64952700e-03 -1.76963732e-02 0. 1.67204894e-03
      0. 8.26437026e-03 4.01338562e-04 1.04015889e-02 0. -9.83625837e-03
      1.84100552e-03 -2.58679327e-04 -1.65786332e-04 0. 0. 0.
      1.24620041e-03 5.96745056e-04 -2.29086517e-03 0. 1.10181468e-03
      1.45707158e-02 2.10218620e-03 0. 0. -1.03093451e-02 1.11753168e-03
      9.53472510e-04 -2.08308315e-03 1.24369876e-03 -4.68821591e-03 0.
      9.53584258e-03 9.21498053e-03 -1.15400618e-02 -5.33704273e-03
      -2.80103734e-04 -2.60478957e-03 -1.95333529e-02 1.08952373e-02
      9.51716769e-03 -3.18604521e-03 1.47964933e-03 -1.24168992e-02
      2.61834916e-03 0. -1.55438145e-03 0. 0. 0. 2.55438988e-03
      5.92231190e-05 5.60334977e-03 -7.56431418e-03 2.03279633e-04
      -3.81341181e-03 7.00765057e-03 5.51010855e-03 -3.00839264e-03 0.
      4.98413388e-03 -1.85564428e-03 0. 0. 0. -5.16175933e-04
      -1.11137651e-05 0. 3.37686390e-03 0. 0. 0. 0. 0. -4.63065132e-03
      1.99072640e-02 0. 0. 0. 0. 0. 3.64605943e-03 -2.62962276e-04 0.
      -2.41063623e-04 3.12821614e-03 -1.47281867e-03 2.41160411e-02
      1.11633809e-02 0. -2.82545807e-03 0. 6.48582238e-04 4.07907786e-03
      1.32604514e-03 -7.30424374e-03 0. 4.06989921e-03 0. 5.11612324e-03
      -6.86990097e-03 0. -4.27868508e-04 -3.33879609e-03 -5.68657368e-03
      0. 0. -8.65457766e-03 9.46071930e-03 -3.39694507e-03 0.
      2.16308725e-03 -6.17284677e-04 -1.69259461e-03 0. 2.30007153e-03
      2.69407150e-03 3.02641350e-03 -8.03458039e-03 0. 9.79791977e-04
      -1.03171810e-03 1.12162968e-02 6.95494050e-03 2.55389628e-03
      -6.61410764e-03 -8.34549428e-04 0. 5.21735800e-03 -9.98610267e-05
      3.14692478e-03 0. 0. -1.14140082e-02 0. 0. 0. -1.09613547e-02
      1.34484256e-02 0. -6.93982141e-03 -8.75073206e-03 0.
      6.70714118e-03 2.24706461e-03 0. 0. 0. 2.00248230e-03 0.
      -2.99338554e-03 -2.68244534e-04 0. 1.00424339e-03 5.16449451e-04
      0. 5.88006200e-03 -1.70720574e-02 0. 4.01066092e-04 1.63823627e-02
      0. -8.59131943e-03 5.13487915e-03 1.50424079e-03 1.84472166e-02
      1.41565343e-02 2.89355929e-04 2.95566185e-03 1.93369680e-03
      3.22719425e-04 0. -4.06641862e-04 0. 0. 0. 8.36765487e-03
      1.42419609e-04 0. -1.12939463e-03 7.21552584e-04 -6.67908811e-04
      -3.42006516e-03 0. 2.03925669e-02 0. 0. 6.82350656e-05 0. 0.
      -3.44417477e-03 0. -4.90195816e-03 -2.23825639e-03 -4.24353697e-04
      0. -1.56113223e-04 0. -5.46872756e-03 6.67243684e-03 0.
      2.00417899e-02 0. 0. -1.15781836e-02 -2.26428290e-03
      -1.73528527e-03 0. 0. 8.42243060e-03 2.23959261e-03 3.13121662e-03
      -5.53801609e-03 -1.19744698e-02 -2.20890846e-02 4.94250422e-03
      -1.09520983e-02 5.42359613e-03 0. 0. -1.65552978e-04 0.
      9.56585645e-05 -1.27041033e-02 6.23259868e-04 0. 0. 4.46282933e-03
      0. 1.98187842e-03 0. -1.77714080e-02 1.76886923e-03
      -7.17805652e-03 8.60640872e-03 1.98536296e-03 1.82235765e-03
      3.38411448e-03 1.59709161e-04 0. 6.11422118e-03 0. 4.16016765e-03
      -8.81255473e-05 -1.04540046e-02 0. 0. 0. 0. 0. 0. 4.50535584e-03
      5.45611046e-03 -8.05325434e-03 0. 7.16645690e-03 0.
      -4.91017941e-04 0. 0. 2.30312344e-05 -5.29799378e-03 0.
      1.16081943e-03 5.18231047e-03 2.86973901e-02 -4.58004093e-03 0.
      1.39502343e-03 4.53980314e-03 -3.45866405e-03 -2.89698597e-03
      6.44805608e-04 -4.05675313e-03 0. -1.44056324e-02 1.01380143e-03
      3.40755773e-03 -5.28827729e-03 0. 1.07587893e-02 7.22177885e-03 0.
      0. -2.18264479e-03 -2.42977822e-03 0. 0. 0. 5.42326306e-05
      -1.86003675e-03 1.51744224e-02 0. 1.70870796e-02 5.44303912e-04
      -3.18526727e-04 1.41946890e-03 0. 2.59006722e-03 -9.89763252e-03
      8.03518202e-03 2.96661188e-03 -3.56701436e-03 6.82833546e-04
      -1.04313693e-03 -3.97704821e-03 1.24855002e-03 0. 6.49502873e-03
      0. -4.72326210e-04 5.82643598e-03 2.53234780e-03 0.
      -4.97344742e-03 1.13987206e-02 -4.61751875e-03 -2.10476946e-03
      3.36069660e-03 1.95329804e-02 0. -1.62923025e-05 -9.56572476e-04
      0. 0. -3.10244686e-05 -4.78765924e-06 8.86758382e-04
      -2.23171141e-04 0. 0. 0. -6.15107361e-03 0. -2.53368029e-03 0.
      -1.51438667e-02 0. -7.76730245e-04 5.09849098e-03 0.
      4.19198163e-03 -1.09203276e-03 2.03777454e-03 4.66597546e-03 0.
      5.08697052e-03 -1.21291191e-03 0. 2.67880008e-04 0.
      -9.21419077e-03 0. 0. -6.04026578e-03 -1.01229385e-03
      -7.39389285e-03 0. -3.71787435e-04 1.21338386e-02 -4.26324084e-03
      0. 0. 0. 0. 1.93837099e-02 -1.34023586e-02 -6.16597128e-04
      -3.77263583e-04 0. -1.82288676e-03 0. 0. 0. -6.13758666e-03
      4.70961895e-05 -1.47855922e-03 -5.75597538e-03 3.67794698e-03 0.
      -6.44696970e-03 7.52366427e-03 8.38779844e-03 2.21539140e-02
      -6.13115635e-03 0. 0. 0. 2.45840959e-02 -4.59102885e-05 0.
      -1.11887616e-03 0. 2.43380223e-03 0. -4.62372508e-03 0. 0.
      -2.17677262e-02 0. 0. 1.87660125e-03 -6.06256304e-04
      4.44478283e-05 0. 0. 7.34681671e-05 -5.72100864e-04 0. 0.
      -1.40925602e-03 -1.20541314e-02 1.20120673e-02 -1.41464127e-02
      3.52941058e-03 9.92814676e-05 0. -1.00064639e-03 6.71859962e-05 0.
      0. -7.44440919e-03 -5.97154908e-03 9.64795239e-03 -8.19776906e-04
      0. 0. -8.64947122e-03 0. 0. -2.46823591e-04 0. 1.61712512e-03
      -3.50715918e-03 -3.22931889e-03 -1.19965104e-02 2.17201723e-05 0.
      2.39688586e-02 2.12086947e-03 0. 2.23908760e-03 1.44285848e-03
      -5.74014662e-03 1.95505098e-03 0. 1.75774645e-03 0.
      -5.90011431e-03 0. 0. 0. 1.15518561e-02 0. 7.52964290e-03
      -4.17968258e-03 0. 0. 4.03750455e-04 -9.76321389e-05 0.
      -3.74978944e-03 6.18278165e-04 0. 3.11592454e-03 -2.76591489e-03
      0. 8.79658945e-03 -6.93531838e-05 0. -2.80097988e-03
      -9.66233294e-03 -6.58742269e-04 -3.79162165e-03 0. -2.58990651e-04
      -9.77124181e-03 -1.50984479e-03 -1.61064472e-02 -6.26611104e-03 0.
      0. -9.00859013e-03 7.29596894e-03 9.58382618e-03 -9.86083411e-03
      -1.39189204e-02 -1.07264474e-04 -1.78812596e-03 1.58037264e-02
      -4.89508966e-04 -8.28693993e-03 1.64035067e-04 -5.83850022e-04
      1.10864255e-03 0. 0. -1.05094907e-04 1.37442090e-02
      -1.03525689e-03 -1.23217022e-02 -3.35494149e-03 0. 7.79048540e-04
      0. 0. -3.57971154e-03 4.75740945e-03 1.08103137e-02
      -1.47354137e-02 1.45345284e-02 0. 6.79841684e-03 2.10202150e-02
      2.41737114e-03 0. -5.05624665e-03 0. 4.38647927e-04 7.45807774e-03
      -9.54222109e-04 0. 0. -3.25275608e-03 -1.01842266e-02 0. 0. 0.
      1.26328757e-02 1.69192683e-02 -3.29856155e-03 -4.08249383e-04
      1.55035248e-02 -1.70001201e-03 0. -5.26967039e-03 -3.53356055e-03
      -3.81376967e-03 2.65384908e-03 3.69336549e-03 3.03936121e-03 0. 0.
      -1.98571989e-03 7.32077798e-03 0. -3.01544112e-03 -3.82486475e-03
      0. 1.64931882e-02 0. 7.04147341e-03 0. 0. 0. 3.55904782e-03
      -8.28131102e-03 0. 1.78541876e-02 7.05299387e-03 0.
      -7.78663857e-03 1.51224644e-03 -8.92102998e-03 1.04320208e-02
      2.79470137e-03 1.39028942e-02 0. 4.12592385e-03 3.41315405e-03 0.
      0. 0. 0. 0. 0. 0. 0. 9.63251293e-03 0. 0. 0. 9.64235328e-03
      1.65757968e-03 1.79755036e-03 0. 0. 3.24566057e-03 1.76961441e-02
      -3.44114029e-03 0. 0. 1.99462585e-02 0. 6.14015944e-03
      -1.51489032e-02 0. -6.96088793e-03 -1.58282667e-02 0.
      8.82171269e-04 2.92958692e-03 0. 0. 0. 0. 4.44254046e-03
      1.16876829e-04 -5.91447297e-03 3.98970260e-05 0. 0. 0.
      8.39981064e-03 -2.41428595e-02 0. -2.44156457e-02 1.04933679e-02
      -5.58678817e-04 -6.08612597e-03 0. 1.01805851e-02 3.88334924e-03
      2.66197254e-04 0. -3.71315563e-03 -3.28906230e-03 0. 0.
      2.10928526e-02 -2.28716643e-03 -2.05942872e-03 1.58417709e-02
      1.23828407e-02 9.40084166e-04 8.49492103e-03 0. 0. 2.02660922e-05
      3.57759977e-03 -1.58257689e-02 0. -4.33092238e-03 0.
      -3.35756573e-03 0. 0. 0. 0. 1.20053273e-02 2.50755833e-03
      5.86782489e-03 -2.02287808e-02 5.06866816e-03 5.19717392e-03 0.
      1.15655095e-03 0. -6.07482216e-04 3.03919963e-03 0.
      -2.09377671e-04 2.64567113e-03 1.11239846e-03 8.76427453e-04
      5.53885661e-03 2.20268331e-02 1.02070430e-02 -9.80157056e-04
      -2.55044946e-03 -1.32397094e-04 5.08596480e-04 5.58107067e-03
      2.14974585e-04 6.95934705e-03 -4.91462136e-03 0. 0. 0.
      3.39298090e-03 1.84597122e-03 -9.81938280e-03 5.31083392e-03 0.
      -7.00524822e-03 1.96854654e-03 0. -5.12423040e-03 -3.67413217e-04
      -1.22917872e-02 -4.90819244e-03 6.90163020e-03 -2.08403115e-04 0.
      5.55556687e-03 0. -2.28550914e-03 -5.41963568e-03 0.
      -5.43018430e-03 2.29986705e-04 8.23668743e-05 6.53453218e-03
      1.87600745e-04 1.31856243e-03 2.29568919e-03 0. -9.09653585e-03
      4.22280660e-04 2.69396286e-02 -1.42921472e-03 0. -2.71259458e-03
      -3.20294895e-03 2.37818065e-04 0. 1.19285728e-03 0. 0.
      -8.21532667e-05 7.91120902e-03 -2.01496412e-03 0. 0.
      -1.71115296e-03 -1.22450758e-02 0. -1.19513390e-03 1.12308329e-03
      0. 0. 0. 0. 0. 1.59601886e-02 9.66616441e-03 0. 0. 0.
      -1.64492875e-02 0. 2.52253585e-03 0. 0. 0. -1.17484271e-03
      -6.85121911e-03 2.13681068e-03 6.66097039e-04 -8.91416203e-05
      -4.72556148e-03 1.47167395e-03 0. -5.85676031e-03 -4.26424158e-05
      -1.70399981e-05 -9.76065826e-03 -4.71033715e-03 8.43181089e-03
      9.88941407e-04 6.44299202e-03 3.03822708e-06 -1.45258114e-03
      5.66128409e-04 1.91629417e-02 4.79265209e-03 3.67346662e-03 0.
      -4.01229970e-03 8.89599510e-03 0. 0. 5.06877620e-03 9.95066075e-05
      0. -8.27272609e-03 0. -1.34439645e-02 0. -3.91388685e-03
      3.26583954e-03 -5.37762744e-03 -2.05053389e-03 9.13325232e-03
      -1.40561089e-02 4.69196297e-04 7.74262054e-03 0. -9.48671295e-05
      2.66849156e-03 -4.41085966e-03 0. -7.38179078e-03 0.
      -1.00530647e-02 0. 0. 0. 0. -1.23611419e-03 0. 1.56098353e-02
      6.74312469e-03 -1.18025776e-03 1.72744377e-03 0. -1.35620742e-03
      3.76087637e-03 0. 0. 1.02149267e-02 0. 0. -4.62790905e-03
      5.17317373e-03 -3.25858896e-03 -4.45559388e-04 0. 0.
      -6.83966465e-03 0. 0. 7.52934534e-03 -5.07190649e-04
      4.46244562e-03 0. -5.71530219e-03 -1.21160163e-04 0.
      -3.66855855e-03 7.65369413e-03 0. 4.80436115e-03 -7.44743226e-03
      0. 2.42980942e-02 0. 0. 0. 0. 1.39876548e-02 0. 0. 1.50513672e-03
      5.08625119e-04 0. 1.53383845e-03 0. 0. 0. 2.06207088e-03
      5.40140783e-03 0. 0. 0. 0. 0. 0. -7.42932688e-03 4.54627723e-03
      -1.76148443e-03 -8.20254721e-03 -3.54294246e-03 -4.12617903e-03
      8.91458883e-04 2.32656112e-05 0. -1.07621355e-03 0. 9.83729144e-04
      -2.30667810e-03 -9.41155478e-03 2.94818706e-03 0. -7.93851260e-03
      2.86928471e-03 4.44869744e-03 -1.61625966e-02 7.48526363e-05 0.
      2.34275428e-03 9.02907830e-03 -4.09876788e-03 3.02772387e-03 0. 0.
      -3.38261918e-04 0. -1.18837983e-03 0. 8.64968169e-04
      -7.44085805e-03 -2.82495096e-03 0. -1.66026298e-02 0.
      4.76717437e-03 5.22597507e-03 -6.07458549e-03 -1.35289482e-03 0.
      0. 2.29257029e-02 0. 8.89806822e-03 7.83313811e-03 -7.66178186e-04
      0. 5.61355567e-03 7.70063512e-03 8.64911452e-03 1.56975184e-02
      -4.82183881e-04 -5.85650653e-03 0. 5.69315394e-03 0. 0.
      -3.32855224e-03 2.40559177e-03 1.40263233e-02 -2.41007446e-03
      1.77990012e-02 0. 5.47606684e-03 0. 4.82571311e-03 -8.58363564e-05
      0. 0. 9.49358917e-04 0. 0. 1.01047875e-02 0. 2.68311094e-04
      -1.06030377e-02 0. 0. 0. 1.18907560e-02 1.82893872e-02 0. 0.
      7.69945979e-03 6.31623250e-03 1.66306067e-02 2.62669986e-04 0.
      1.06352689e-02 -8.31927825e-03 -5.22749731e-03 6.45963755e-03 0.
      0. -2.22552083e-02 0. -1.03888067e-03 0. 2.61714263e-03 0.
      1.85605437e-02 0. -1.37728415e-02 0. -2.01851944e-04
      -1.65479840e-03 4.62898694e-04 -1.32080319e-03 0. 0. 0.
      1.23388739e-02 0. 0. 2.47748476e-03 0. 1.05776133e-04 0.
      -1.03858002e-02 0. -2.47792667e-03 -7.32869795e-03 -3.71765974e-03
      -9.27237421e-03 -1.42159290e-03 -9.60488105e-04 7.20035192e-03 0.
      0. 0. 0. -6.36248251e-06 -8.55024555e-04 1.74644776e-02
      7.32543599e-03 -2.90476764e-03 7.70088192e-03 0. -4.86525334e-03
      -1.79119164e-03 6.46516588e-03 -5.70752006e-03 5.80119377e-04
      4.90800245e-03 2.94894446e-03 -2.31263470e-02 0. 2.82219076e-03
      -4.77644941e-03 -2.62242649e-03 1.16486140e-02 -1.30064478e-02 0.
      0. -2.88797193e-03 0. -1.26832966e-02 0. 0. 6.43586973e-03
      1.90090463e-02 4.94217966e-03 6.60014898e-03 7.52531264e-07
      -7.06638442e-03 -5.05275559e-04 -5.62315155e-03 6.08594902e-03 0.
      0. 4.64093209e-05 -1.32141472e-03 0. 0. -3.37843434e-03 0.
      1.01890555e-02 -1.35052279e-02 0. -4.91897576e-03 0.
      1.73657760e-03 0. 2.14590236e-05 1.66724417e-02 -5.41938143e-03 0.
      -3.42831947e-03 4.51632775e-03 2.58426910e-04 0. 1.16371759e-03
      2.29650573e-03 -5.80578391e-03 0. -6.02221815e-03 4.52354783e-03
      6.30445918e-03 0. 0. 9.43453610e-03 -1.45227008e-03
      -9.41088982e-03 4.67729056e-03 5.11454418e-03 1.90544818e-02
      -2.37381272e-03 0. 7.25127291e-03 1.44216837e-03 5.33403736e-03
      2.18081186e-04 4.74424288e-03 3.07656918e-02 -6.22547697e-04 0.
      6.80838784e-05 0. 0. 0. 0. -5.17332321e-03 1.31932534e-02 0.
      1.20356260e-02 1.32905561e-02 7.46882334e-03 0. 0. 0. 0.
      -1.69075924e-04 0. 3.38398712e-03 0. 3.90983094e-03 4.49758349e-03
      0. -7.65626319e-04 0. -9.84117202e-03 0. 2.68739153e-04 0.
      -2.85896007e-03 0. -2.62577343e-03 -6.33648038e-03 -4.24309541e-03
      1.77778347e-04 -1.62175871e-04 -1.15902477e-03 1.08922482e-03 0.
      0. 1.87239647e-02 9.30302311e-03 0. 2.02387758e-02 -1.38711257e-05
      -3.06092622e-03 1.08413650e-02 -4.66529420e-03 0. 1.59962717e-02
      2.36656261e-03 0. 0. 0. 6.13741018e-03 0. 0. 0. -1.82513557e-02
      2.70309451e-04 -5.74508595e-05 0. 0. 0. 0. 1.22608179e-02
      -5.44587104e-03 0. 0. 2.53407494e-03 0. 6.98973984e-03
      -1.88816828e-03 0. 0. 2.70687509e-03 -9.39664198e-04
      1.71613356e-03 -5.43238083e-03 -1.98358786e-03 4.31556441e-03
      -7.37442356e-03 -6.81272103e-03 0. 0. 0. 0. -3.89633188e-03
      1.25022349e-03 0. 0. 0. 0. 0. 0. 1.10118492e-02 -7.34719308e-03
      -6.85362751e-03 1.63369859e-03 1.49486819e-04 0. 7.79000577e-04 0.
      0. 1.47401169e-02 -4.34882613e-03 0. 4.91309154e-04 0. 0.
      1.62058359e-03 1.07227266e-03 -9.49417800e-03 2.25757179e-03 0.
      1.57266334e-02 5.43085625e-03 -5.21181319e-05 -1.88171573e-03 0.
      -2.43086671e-03 5.62048703e-03 1.15492998e-03 -1.29589252e-03
      3.29906004e-03 6.82789134e-03 2.31202077e-02 -1.79393555e-03
      -3.52998904e-04 0. 1.25466252e-03 0. 8.96926876e-03
      -2.38609919e-05 1.34163070e-02 0. 0. -1.70148525e-03 0. 0. 0.
      5.37702674e-03 0. 0. 1.63134057e-02 6.47976901e-03 0.
      -1.20713536e-04 0. -1.15708103e-02 5.93264122e-03 1.55144560e-04
      -4.75781562e-04 0. 6.37737685e-06 -6.95416471e-03 0. 0. 0.
      8.65891390e-03 0. 0. 2.49050237e-04 5.13921399e-03 0.
      -2.82239472e-03 0. 6.34507684e-04 0. 1.10825170e-02 0. 0.
      4.06871317e-04 2.43401337e-05 2.49586650e-04 -2.23575480e-05 0. 0.
      1.78738814e-02 0. 4.26840670e-05 0. -4.03227098e-03 0.
      -1.82412317e-04 7.65463198e-03 7.82756018e-04 0. -1.12563907e-03
      1.55311348e-02 0. 0. 0. 5.89858973e-03 -2.92283861e-04 0.
      -3.45356367e-03 -6.07263390e-03 1.48025975e-02 6.10048464e-03 0.
      0. -1.69854949e-03 -5.40521881e-03 -2.62088212e-03 -7.31297443e-03
      0. 0. -5.01630874e-03 -3.12421191e-03 0. -1.01434384e-02
      2.35489942e-03 5.02180374e-05 -2.90032895e-03 5.69010573e-03
      -3.08175548e-03 0. -2.41052615e-03 -3.80618055e-03 1.44021716e-02
      -2.98412121e-03 0. 0. 0. 0. 0. -1.12939929e-03 0. 1.10457307e-02
      2.45456165e-03 -1.19946087e-02 0. 1.54762371e-02 0. 0.
      2.22786665e-02 0. -7.70006271e-04 3.28027760e-03 -7.38166086e-03
      3.15700611e-03 0. 4.59415372e-03 -1.02513318e-03 -8.65510199e-03
      2.06535682e-03 0. -4.97757876e-03 0. 1.74396373e-02 0.
      -1.15921004e-02 -1.08724385e-02 0. -1.61172007e-03 -5.02615329e-03
      5.62429614e-03 0. 0. 0. 5.01879025e-03 4.43432992e-03
      -4.97425033e-04 -1.20174525e-04 0. 0. 3.91810713e-03 0. 0. 0.
      3.00102285e-03 5.39354689e-04 0. 0. 0. -1.80818106e-03
      9.06304177e-03 -2.28230981e-03 0. 0. 0. 7.67436670e-03 0.
      -1.51863908e-02 -1.89405847e-02 0. -1.66814402e-02 -5.49440132e-03
      -6.04462475e-05 1.69079995e-03 4.89052292e-03 0. -2.02739815e-04
      7.79877882e-03 9.11949296e-03 1.91706014e-04 0. -3.26807681e-03
      -3.29243368e-03 0. 0. 1.14960885e-02 -4.62226708e-05 0.
      -7.89501052e-03 -6.89001987e-04 -2.38785928e-04 0. 0.
      2.59334198e-03 0. 6.96724560e-03 -3.51719297e-02 0. 1.24170845e-02
      4.23478428e-03 5.83011610e-03 -4.00155969e-03 2.08104937e-03
      4.95726801e-03 0. -3.64030013e-04 -1.51249319e-02 2.64002825e-04
      0. 0. 1.11803841e-02 -7.83653371e-03 0. 0. -3.20476713e-03 0. 0.
      -4.25726036e-03 0. -3.58304754e-03 1.24638686e-02 0. 0.
      -4.11574350e-04 1.67388923e-03 1.46660488e-02 0. 8.73575173e-03
      -1.43522341e-02 -2.91464312e-05 5.79723448e-04 0. 9.22257954e-04
      -1.68897357e-04 -1.15985814e-02 -2.99578370e-03 0. 7.25695211e-03
      2.48022447e-03 0. 6.38643745e-03 -1.50707439e-02 2.39973725e-03
      -7.67331664e-03 0. 9.03949048e-03 -3.93352192e-03 0. 0. 0.
      5.39832562e-03 8.37940024e-04 0. -5.53846499e-03 1.16475038e-02
      -1.37571583e-03 0. -1.31992139e-02 -6.75070239e-03 -1.08599002e-02
      4.69375867e-04 0. 0. 8.77202209e-03 0. 7.39387760e-04
      -2.80517042e-02 1.33880284e-02 7.67971040e-04 4.73128073e-03 0. 0.
      4.94449213e-03 -1.16645154e-02 -8.06413518e-05 0. 9.73712944e-04
      3.13405506e-03 0. 9.22417821e-05 0. 0. 0. 1.57583281e-02
      -5.25508588e-03 2.23101880e-02 3.50510678e-03 2.07496388e-03 0.
      -1.71507103e-03 1.62452983e-03 4.42015917e-05 -3.75391380e-03
      1.65919252e-02 0. 0. 0. -8.75669881e-04 1.42867742e-02
      4.65809833e-03 -2.75532994e-03 -7.33390916e-03 4.60125413e-03
      7.34579051e-03 -9.20624472e-03 0. -9.24164709e-03 0.
      4.10950510e-03 1.60565656e-02 2.30395701e-03 0. 0. 0.
      -3.74666881e-04 5.43170096e-03 0. 1.10660931e-02 3.19416332e-03 0.
      -5.84289059e-03 2.30634422e-03 0. -1.69519684e-04 -5.98927122e-03
      -1.28283435e-02 0. 0. 1.58781733e-03 -1.28408763e-04 0.
      -1.96183589e-03 -1.46659864e-02 -5.80921827e-04 -5.69379376e-03 0.
      0. 0. -8.49049818e-03 1.45517010e-02 -2.15867141e-04
      -5.80810104e-03 -2.22000177e-03 -3.83756473e-03 0. -1.80614041e-03
      4.26943786e-03 0. 0. 1.81699693e-02 0. 0. 0. 0. -1.37859955e-02
      -4.03749431e-03 -9.76150157e-04 0. -7.59725692e-03 -8.16066386e-05
      0. 0. 1.04832426e-02 -4.67945356e-03 -1.32642221e-04 0. 0.
      1.10890518e-03 0. 2.31392169e-03 0. -3.86447832e-03 8.01145681e-04
      0. -8.14859290e-03 -6.42946828e-03 1.92744040e-03 1.66838185e-03
      -2.41896370e-03 -1.00833713e-04 1.21056978e-02 1.23637402e-02 0.
      0. 2.39120573e-02 0. 0. 0. 0. -2.60125077e-03 0. 0. 1.20691005e-02
      -1.51230616e-03 1.45952906e-02 9.05312411e-03 0. 0.
      -4.97302623e-04 0. 5.33135049e-03 2.63634510e-03 -1.56291717e-04
      -1.14326635e-02 1.81813091e-02 0. 2.03471398e-03 -1.12844317e-03
      -8.53820296e-04 0. 0. 0. 2.25718977e-04 -1.07212365e-02
      5.06723067e-03 -4.86677652e-03 1.75933493e-03 -7.01754063e-04 0.
      0. 0. -1.92449056e-03 0. -6.38874527e-03 0. 0. 0. 0.
      -1.46229519e-02 0. 4.93598229e-04 -1.16599957e-02 -7.73121254e-04
      0. 0. -2.73458101e-03 0. 0. -3.01378808e-04 0. 4.04170575e-03
      -1.26510815e-04 4.01668670e-03 -8.81346967e-03 0. -4.97259619e-03
      0. 4.17023757e-03 -1.74524914e-02 0. 0. 1.23190077e-03
      3.74889979e-03 -6.32168399e-03 0. 0. 0. -1.77288122e-04
      2.09820997e-02 -1.73270367e-02 -8.97943915e-04 1.11924419e-02
      -5.17896697e-05 -1.10033918e-02 0. 8.01857468e-03 0.
      3.51346610e-03 0. 0. 3.56230349e-03 -5.70367649e-03 0.
      1.03261578e-03 -2.30519261e-04 1.65321175e-02 8.58469214e-03
      -2.14278279e-03 0. -7.35584088e-03 0. 2.34058760e-02 0. 0.
      -2.26216362e-04 0. 3.56292003e-03 -1.17433688e-03 8.33754370e-04
      -2.29141864e-04 6.12307480e-03 -1.52980862e-03 1.67263299e-02 0.
      0. 0. 0. 0. 0. 0. 1.25015862e-02 7.87902449e-04 -6.90213731e-03 0.
      0. 1.64352183e-03 3.16499127e-03 -7.00140698e-03 -2.23249022e-04
      1.55956894e-02 -5.30085480e-03 -4.44469415e-03 7.79965892e-03
      3.09381518e-03 0. 1.33423507e-03 -2.16659446e-05 0.
      -2.84291059e-03 8.05845112e-03 0. 0. -2.69478242e-05 0. 0.
      6.32655050e-04 1.09710672e-03 -8.00255686e-04 1.64647572e-04
      5.21759875e-03 0. 0. -3.67547764e-04 -2.57905796e-02
      -1.96293680e-04 -1.36509107e-03 0. -2.27693911e-03 -2.78854812e-03
      0. -3.08288634e-03 0. -1.06001738e-03 0. -3.27103026e-03
      -1.81173242e-03 -1.08617672e-03 -3.48909572e-03 -2.79568974e-03
      2.59692990e-03 0. -4.80938703e-04 9.51215066e-03 1.30881509e-03
      -7.66890123e-04 2.30299961e-02 3.56236752e-03 -5.14817284e-03
      -5.40956296e-03 4.59226733e-03 -2.69988901e-03 2.27749813e-04 0.
      0. 3.63912503e-03 -3.12272622e-03 0. 0. 0. 0. -1.25122322e-02 0.
      0. -1.71043258e-02 -3.55355674e-03 0. -5.67410199e-04 0. 0.
      -9.07594076e-05 0. 9.18208435e-03 -4.63272627e-05 0. 0.
      -2.93442816e-03 -7.06103674e-05 9.85987671e-03 0. 0. 0. 0. 0.
      -4.96781524e-03 -6.56284741e-04 -8.62428546e-03 2.21763682e-02 0.
      8.84877238e-03 0. 1.40777469e-04 3.39407939e-03 0. 2.02027615e-03
      -1.91298667e-02 0. -1.47453393e-03 0. 4.30306047e-03
      -1.48484511e-02 -7.73699430e-05 0. -1.31189069e-02 2.04108749e-03
      6.00423478e-03 0. -8.18066823e-04 0. -5.40063158e-03 0.
      7.87206180e-03 -1.66142657e-02 0. 0. -5.84945409e-03
      -2.01792214e-02 -4.07984247e-04 9.75114480e-03 1.09214056e-02
      -6.14605751e-03 7.35246297e-03 0. 3.89565085e-03 -2.56861770e-03
      1.02924847e-03 0. -4.96058166e-03 3.20531847e-03 0. 0.
      9.86438710e-03 0. 0. 0. 0. 0. -1.18049132e-02 -1.43930791e-02
      2.58174376e-03 1.58743244e-02 0. -1.78053393e-03 1.23642581e-02
      1.22325514e-02 -1.21898565e-03 0. -1.07077956e-02 0. 0.
      5.09571400e-04 -6.47075009e-03 -1.73970647e-02 0. -6.73755165e-03
      2.71991885e-04 0. -2.49827805e-04 -4.53011598e-04 0.
      1.74751226e-02 0. 0. 0. 4.57136339e-05 -5.63702686e-03
      -5.06768050e-03 4.16194182e-03 1.36074163e-02 -9.66842286e-03
      -3.48534365e-03 1.58631038e-02 2.69026845e-03 0. 0. 0.
      -5.06060722e-04 0. 0. 0. 0. 1.97322085e-03 -1.06621836e-03 0.
      -3.01115269e-05 0. -1.37386681e-03 0. -5.20482007e-03
      2.45350413e-02 -2.13856623e-03 0. -5.83682582e-03 5.74869569e-03
      0. 0. -1.08268007e-03 0. -1.11017853e-03 0. 2.04257723e-02
      2.72752764e-03 0. -4.27437713e-03 1.83803122e-02 0.
      -1.33903399e-02 3.66919814e-03 1.61707774e-03 2.25826283e-03 0. 0.
      0. 2.53965799e-03 -3.57121695e-03 0. 4.33167163e-03 0. 0. 0. 0. 0.
      0. -3.16081638e-03 6.37250720e-03 3.36625706e-03 -3.62090417e-03
      1.59811345e-03 -7.14898226e-04 0. -6.75118587e-04 0.
      -1.38304550e-02 -6.40372885e-03 -7.74203753e-03 -2.38502841e-03 0.
      0. -5.61161712e-03 1.12052204e-03 -3.15737654e-03 0.
      5.03175240e-03 1.82679540e-03 1.22557590e-02 0. -2.50232755e-03
      6.95112976e-04 6.12190197e-05 7.20240921e-03 1.71476835e-03
      3.10714357e-03 0. -7.19995005e-03 3.26834153e-03 1.15867155e-02
      -4.18738602e-03 -7.07397761e-04 -1.11148441e-02 -6.45194144e-04 0.
      3.61177581e-03 -4.74799518e-03 5.34282671e-03 0. -4.18529060e-04
      -9.10098851e-03 0. 0. -2.71087792e-03 -2.28908355e-03 0. 0.
      7.16234135e-05 0. 1.15612485e-02 4.41184128e-03 0. -3.51142325e-03
      -7.04963319e-03 0. 1.99024137e-02 1.07660927e-02 0.
      -9.87163652e-03 0. 0. -7.94631243e-03 2.11826358e-02 0.
      6.40283944e-03 1.40015064e-02 0. 0. 0. -6.40035002e-03 0.
      1.45542789e-02 0. 0. -1.40137956e-04 0. 0. 0. -1.80228334e-03 0.
      2.60586920e-03 1.68489385e-02 0. -2.46515672e-04 0. 0. 0.
      -1.44649409e-02 0. 0. 0. 0. 1.72817241e-02 0. 0. -9.96732246e-03
      2.19856016e-03 0. 1.30626960e-02 1.06875747e-02 9.38270474e-04 0.
      0. -1.40370168e-02 -4.90899524e-03 0. -3.14999226e-04
      -4.14446183e-03 -4.60296124e-03 -5.40818507e-03 1.37097407e-02
      4.59800567e-03 -1.75189314e-04 0. 1.49375023e-02 4.00912177e-05
      6.03649952e-03 -4.70483489e-03 0. 2.44696368e-03 7.06512947e-03 0.
      8.05258937e-03 -5.67801064e-03 0. 1.28755835e-03 -5.09533752e-03
      0. 3.55600123e-03 0. 1.43256243e-02 1.79163441e-02 5.75439226e-05
      -8.85356963e-03 5.49611822e-03 0. 1.40435146e-02 0. 5.58893848e-03
      0. 1.20305959e-02 0. 2.05583591e-03 -2.07377179e-03 0.
      -2.76621268e-03 0. 6.48964755e-03 -7.53769325e-03 0.
      -1.11560081e-03 -1.35160079e-02 -1.98091439e-04 -9.13116895e-03
      -1.61762703e-02 -1.96841988e-03 0. 0. -9.29960050e-03
      9.02899264e-05 5.93139557e-03 0. 0. 0. 1.96333905e-03 0.
      1.82411913e-02 0. 0. 0. -2.78093386e-03 4.30656690e-03
      -1.34184479e-03 -2.79490696e-03 5.79723809e-03 1.19304180e-03 0.
      9.83090955e-04 0. 5.33162802e-03 0. 0. 0. 0. -2.60724360e-03 0.
      3.97380645e-05 0. 0. 4.55635076e-04 -9.49325785e-03
      -9.38191079e-04 -6.24116557e-03 4.69266111e-03 0. -7.26610597e-04
      0. 1.58752198e-04 0. 5.49146486e-03 0. -2.90089101e-03 0.
      9.74576361e-03 -1.10459841e-04 6.37299847e-03 -2.69791647e-03 0.
      -1.24316048e-02 9.71652288e-03 4.64644516e-03 0. -1.42443122e-03
      -2.68436410e-03 0. 0. -1.02958491e-03 0. -3.96976466e-05 0.
      -8.68394226e-03 4.82815289e-04 1.55393127e-02 2.17696943e-04
      -1.17316877e-03 8.32957588e-03 -3.12182959e-03 0. 6.92626508e-03
      1.07582770e-02 0. 0. 0. -4.86945128e-03 4.49889200e-03
      -1.32583678e-04 7.14662883e-06 0. 2.22257199e-03 -9.26484936e-05
      0. -4.29130299e-03 0. 9.97315656e-05 0. 0. -1.08192116e-02
      1.09256862e-05 2.20060945e-02 1.13292029e-02 3.12322262e-03
      6.65138196e-03 -1.32623864e-02 0. -1.16118055e-03 4.08731314e-04
      0. 0. 1.01965424e-02 5.59235225e-04 6.15684176e-03 0.
      -9.76119284e-03 -1.12134474e-03 0. 0. 0. 3.62070464e-03
      2.69384682e-03 0. -2.83169240e-04 2.49179057e-03 -3.75240739e-03
      -2.43091881e-02 -6.94343774e-03 1.89990344e-04 5.86166652e-03
      1.31501481e-02 -3.97202279e-03 7.52895279e-03 0. 0. 0.
      2.77206796e-04 -1.70830525e-02 -1.45008776e-03 6.33364776e-04
      2.46976949e-02 1.01994164e-02 -2.21830257e-03 0. 9.47959663e-04
      1.74635109e-02 0. 7.81821273e-03 -7.12248357e-03 -7.90559629e-04
      9.21873562e-03 0. -3.75316432e-03 0. -4.04972536e-03
      -3.44233587e-04 4.15720418e-03 0. 8.23482219e-03 6.31338742e-04 0.
      0. 0. 0. -6.18730020e-03 0. 0. -5.96969249e-03 0. 1.00974021e-02
      0. 1.91874255e-03 0. 0. -5.53992519e-04 -3.36864917e-03
      7.01542757e-03 -4.73389635e-03 -8.16530734e-03 1.48925360e-03
      5.56635112e-03 1.15366354e-04 -9.71800555e-03 1.15637397e-02
      -1.83544384e-04 6.43317122e-04 0. 0. 0. 6.33807899e-03
      -3.15605523e-03 0. 0. 5.68127143e-04 -1.02387583e-02 0. 0. 0. 0.
      0. 1.09528080e-02 -1.37393884e-02 9.25736531e-05 0. 4.00744565e-03
      1.09369112e-02 4.79667494e-03 5.25993411e-04 0. 0. 0. 0.
      7.58116250e-04 -4.22839075e-03 0. 0. 0. -3.21745465e-04
      5.08597633e-03 2.37707654e-03 0. -1.53140891e-02 -1.81876146e-03
      1.60244192e-04 0. -2.06147395e-02 1.07588719e-04 0.
      -2.47236434e-03 0. 8.98107130e-04 0. -1.52559290e-02 0. 0. 0.
      1.31711469e-03 0. 1.10788632e-03 5.34537867e-05 3.37127340e-03 0.
      -8.53454880e-03 0. 9.76718729e-05 0. -9.54308722e-04 0.
      -3.60407052e-03 0. 0. 1.13993743e-02 0. 1.61222508e-03
      2.94406479e-03 -3.21163121e-03 0. 2.17115553e-03 0. 1.14490523e-03
      0. -1.35319991e-04 0. -7.38584343e-03 0. -2.49385721e-05 0.
      3.71783832e-03 0. 0. 0. 5.40569541e-04 7.26262620e-03 0.
      1.24959843e-02 -6.44124905e-03 6.36873068e-03 0. 0. 0.
      4.59795725e-03 3.77423246e-04 -6.01545675e-03 7.17838807e-03 0. 0.
      0. 0. 0. 0. -1.46958139e-03 0. 2.25565411e-04 -4.07557609e-03 0.
      -3.75650544e-03 0. 7.63030199e-04 9.53428389e-04 0. 3.37744388e-03
      0. 0. 3.73794395e-03 -2.00401017e-04 -2.29889527e-03
      3.55062145e-03 0. -2.04236436e-04 -6.32451242e-03 0.
      1.66317355e-02 -2.08664103e-03 1.11675486e-02 -8.39905161e-03
      1.74466353e-02 0. 0. 1.54659059e-02 0. 0. 7.51470739e-04 0.
      -3.89615493e-03 0. 2.66418466e-03 4.59273200e-04 9.94303846e-05 0.
      -4.17469582e-03 0. 0. -1.82842882e-03 0. 1.86654599e-03 0. 0. 0.
      0. 7.19530275e-03 1.04109421e-02 0. -3.05631501e-03 0.
      -1.53150654e-03 0. 1.20784659e-02 -3.82475671e-04 2.42595207e-02
      -1.07765915e-02 -9.02683896e-05 2.41333528e-05 0. 0.
      2.56833178e-03 2.42130295e-03 9.22649488e-05 0. -1.37047423e-03 0.
      -1.28462091e-02 -1.31091652e-02 -2.98389146e-04 1.84903829e-03 0.
      0. 0. 0. 5.41201420e-03 6.96004694e-03 0. -2.37236614e-04
      -2.39217049e-03 -5.42065082e-03 -6.81680534e-03 1.11708796e-04
      8.36250465e-03 -4.78455331e-03 -3.66112217e-03 4.10396280e-03
      6.64852839e-03 -5.62130706e-03 9.84174549e-04 1.96497608e-02
      -3.62813735e-04 -4.73811850e-03 -5.60588378e-04 0. -7.90364202e-03
      0. -2.97685759e-03 -3.73902917e-03 0. 0. 0. 0. 0. -1.02296518e-03
      0. 0. -9.93863493e-03 1.16965920e-02 1.83040640e-04 0.
      1.72597505e-02 0. -1.13576150e-03 -2.24023266e-03 1.45544094e-04
      0. 0. 0. -5.17783966e-03 0. 0. 0. 0. -2.06766723e-04
      1.01158200e-02 -2.12814732e-04 -6.30573323e-03 -2.47175293e-03
      1.99239212e-03 0. 0. 1.09070737e-03 -7.88897928e-03 4.52987663e-03
      0. -8.61172657e-03 0. 0. 6.64549414e-03 2.38101929e-03 0. 0. 0.
      2.86377966e-03 0. 1.06713418e-02 0. -7.08600413e-03 3.11701372e-03
      -1.22500853e-06 0. 1.01236748e-02 0. -5.09853382e-03
      -1.59261841e-03 0. -4.46595438e-03 0. -2.24968675e-03 0.
      -4.85562596e-05 0. 1.57871400e-04 -4.30775248e-03 -1.05751576e-02
      0. 0. 1.14662116e-02 8.88414867e-03 -1.06932716e-02 1.50461737e-02
      1.05062546e-03 6.92699896e-03 6.86673261e-03 1.56972148e-02
      5.09070279e-03 5.19331137e-04 -7.13010505e-03 -3.23847518e-03 0.
      -2.41216109e-03 0. 9.94216278e-03 0. 6.51746243e-03 8.07048474e-03
      -7.40463939e-03 0. -6.77712075e-03 0. 0. 1.73068990e-03
      -1.00747787e-03 0. 0. 0. 0. 0. 0. -4.88882698e-03 -3.03832558e-03
      9.92587861e-03 -7.55751738e-03 -1.41414872e-03 8.14783666e-03
      -2.48610904e-03 4.91111632e-03 5.24297648e-04 -1.45908067e-04
      1.22495764e-03 4.53593908e-03 -1.28499167e-02 -3.76297953e-03 0.
      -4.80881613e-03 0. 1.90179236e-02 -1.07493959e-02 0.
      -2.29891064e-03 7.21480974e-05 5.88423293e-03 5.87129407e-03 0. 0.
      2.32867571e-03 0. -4.96644480e-03 -1.76481681e-05 -1.71971775e-03
      4.94229002e-03 8.63184687e-03 0. -3.33323958e-04 0. 0.
      1.19692711e-02 -4.41137177e-04 -5.85585227e-03 0. -2.66761100e-03
      -1.43561373e-03 0. 0. 0. 5.76806068e-03 -8.56208242e-03 0. 0.
      3.77475750e-03 -2.27923226e-02 7.36275979e-04 6.82434067e-04
      -5.17279259e-04 -3.50403097e-05 2.19912734e-03 -1.61455042e-04
      -1.39637142e-02 -7.28230318e-03 0. 0. 0. 2.79923691e-03 0.
      -8.12585372e-03 0. 0. -1.42439399e-02 5.03936782e-04 0. 0. 0. 0.
      -2.69924616e-03 0. 5.75651531e-04 1.78530288e-03 -1.10865207e-02
      0. -4.07829910e-04 0. 1.30824894e-02 0. 3.06074420e-04 0. 0.
      -1.60548359e-03 0. 0. 0. -7.87673460e-04 0. 0. 0. 0.
      3.09643190e-04 -4.31594718e-03 5.17948647e-04 -4.74906899e-03 0.
      -5.76963089e-03 -1.02395136e-02 2.65933177e-03 0. 1.11847874e-02
      -6.65944954e-03 0. 6.38313266e-03 3.20848398e-04 5.34044157e-05 0.
      0. 0. 1.06800729e-02 0. -1.23283404e-04 5.81262924e-04 0.
      1.14109286e-03 -1.07252104e-02 1.06793165e-03 -1.14454823e-02
      -5.75554266e-04 0. 0. 1.57810450e-02 -2.04478434e-04 0.
      -5.93327871e-03 1.21190557e-02 0. -8.72333813e-03 1.04201061e-03
      8.56530271e-04 -9.78062674e-03 0. 0. 0. 7.52345938e-03
      1.35771930e-02 -1.04056334e-03 0. -1.14065559e-04 -1.00600757e-02
      9.85531509e-03 6.57000986e-04 4.26814705e-03 -1.07137574e-04
      1.78880673e-02 0. 4.15250222e-04 2.92126834e-02 5.08821278e-04
      -1.07005956e-02 2.92443112e-03 -7.04673526e-04 3.43602756e-03
      5.86648518e-03 2.17503053e-04 -2.46774266e-03 1.17731392e-02
      -1.74155436e-03 -7.16093113e-04 2.52820808e-03 -4.51288302e-04
      3.14729251e-02 0. 0. 8.02112930e-03 1.46527169e-02 1.68498680e-02
      0. 0. 3.21678526e-04 0. 0. 0. 9.94085986e-03 -5.61199058e-03 0.
      -5.06060896e-03 0. 0. 0. 0. -6.34090230e-03 2.16897968e-02 0. 0.
      2.36993260e-03 -7.20032956e-03 0. -5.46482252e-03 -3.99635173e-03
      -2.64448184e-03 0. -2.34350469e-03 -3.64627969e-03 0. 0.
      -1.15916179e-03 1.28373550e-03 2.38304818e-03 4.79395781e-03
      4.64467891e-03 -8.69839278e-05 0. 5.93552738e-03 -1.15830975e-03
      -7.63993198e-03 0. 0. -2.54662801e-03 0. 0. -1.32504920e-03 0.
      2.79308739e-03 -8.63069843e-04 0. 0. -2.05484289e-03
      2.15379684e-03 1.44131957e-02 -9.59369063e-04 1.66901888e-03
      -1.32045840e-04 -1.15410937e-02 1.24415744e-03 0. -3.12981603e-04
      -2.05495176e-04 0. -8.57241335e-04 1.62061062e-02 -4.79517598e-03
      -3.78488866e-03 7.98842497e-03 1.77512900e-03 6.34127413e-04 0.
      -3.10919684e-04 0. -2.23202747e-03 2.54772343e-02 0.
      -1.09140965e-04 0. 3.27205606e-04 1.45381462e-04 0. 0.
      -8.09372775e-03 0. 2.35352782e-04 1.28791807e-02 4.90071950e-04
      -2.65276269e-03 0. 0. -1.13310050e-02 -9.61714983e-03
      1.38062388e-02 0. 6.26842631e-03 0. 0. 5.23010828e-03
      -6.57025026e-04 6.52725343e-03 9.49617382e-03 2.28743331e-04
      4.36858187e-04 0. -1.00833504e-02 0. 0. 1.48862705e-03
      3.66351404e-03 0. 2.02631741e-03 2.92398548e-03 9.63758864e-03
      1.78858154e-02 -4.68820159e-04 0. 0. -2.90090358e-03 0.
      9.40165855e-03 0. 0. -8.60239670e-05 0. 8.52768030e-03
      -9.83873475e-03 6.21898426e-03 6.26277598e-03 0. 4.61140741e-03
      4.00368543e-03 -3.96203995e-03 0. -1.62737141e-03 1.17684323e-02
      1.34606762e-02 6.05616905e-03 4.76322556e-03 0. -3.45170987e-03 0.
      0. -1.49494130e-02 1.23271979e-02 -4.55878489e-03 0. 0.
      -2.83092406e-04 -2.90590595e-03 1.73453521e-02 0. 4.55113547e-03
      1.65894057e-03 -2.40590447e-03 0. 0. 0. 1.37696937e-02
      1.30824838e-03 0. 0. 0. 0. 0. 0. -1.34941256e-02 -3.29048350e-03
      5.12692379e-04 8.30734498e-04 0. 6.80155493e-03 0. 5.07044513e-03
      5.69246127e-04 0. 0. 2.12740246e-03 1.91822916e-03 0.
      1.24086253e-02 0. -9.20574879e-04 -6.26646448e-03 0. 0.
      5.49730938e-03 8.11995764e-04 2.39993017e-02 0. -2.11293437e-03 0.
      0. 0. -3.29568895e-04 0. 0. -1.11271925e-02 0. 0. 0.
      -8.14686436e-03 0. 0. 4.38424759e-03 0. 0. 0. 4.80424054e-03
      1.92655921e-02 0. 0. 0. -2.62016593e-03 4.81816614e-03 0.
      -8.00875388e-03 -5.48083289e-03 0. 1.85289830e-02 0.
      -2.79946229e-03 0. 0. -4.66097088e-04 6.96061412e-04 0.
      1.08689778e-02 0. -3.40736378e-03 -4.06072754e-03 0. 0.
      6.50190283e-04 -2.21046130e-03 0. 0. 0. -5.34980884e-03 0. 0. 0.
      1.24252699e-02 8.65712645e-04 -1.41093810e-03 0. 6.03126071e-04
      -3.54667602e-04 0. 0. -1.49884471e-03 1.86972204e-03
      7.84223899e-03 0. -1.22725405e-03 4.67893993e-03 0. 2.73219286e-03
      0. 2.84158881e-03 -5.59632754e-05 2.94381217e-03 1.11276116e-02
      -1.24285026e-02 7.23013409e-06 -4.35297639e-04 0. 4.52307373e-04
      5.43953967e-04 0. -6.90099841e-05 0. 1.43119162e-02 0.
      7.19949789e-03 0. 0. 6.28746254e-03 -7.75361992e-03 3.63488309e-03
      0. -8.82727187e-03 0. 0. -5.47670806e-03 1.23500694e-02 0. 0.
      -1.27713254e-03 -4.32056934e-03 0. 5.38612437e-03 0.
      -4.98598069e-03 4.81230527e-04 1.31037878e-02 0. 1.31195923e-03
      -5.86790312e-03 -2.18541114e-04 -1.43140769e-02 1.80774438e-03 0.
      0. 0. 8.23821221e-03 2.53237644e-03 -5.27967187e-03 4.34992462e-03
      -6.28730166e-04 1.28026342e-03 -1.94216846e-03 0. -3.03079491e-04
      0. 0. 0. 1.60876960e-02 0. 2.95942766e-03 2.66273622e-03
      1.18265732e-03 0. 0. 0. -5.96004422e-04 0. 0. 7.40713673e-04
      -1.06627252e-02 0. 8.63054767e-03 0. 1.15843760e-02
      -6.29752828e-03 0. 0. 1.23973545e-02 0. -2.45797099e-03
      -4.41599218e-03 -6.62003737e-03 1.65259410e-02 7.04844622e-03
      -2.43225414e-03 7.82493223e-03 5.51312277e-03 0. 8.44362192e-03
      -4.16048497e-05 0. 4.55049984e-03 0. 0. 0. 3.21796699e-03
      -1.49425818e-02 -7.67148705e-03 -3.54641117e-03 0. 5.09224134e-03
      -5.78834163e-03 9.18810780e-04 7.79757916e-04 -1.80618162e-03
      -3.37119820e-03 -7.48315267e-03 0. -4.93169250e-03 0. 0.
      7.79774473e-06 7.07954215e-03 -4.46424383e-04 -9.68930405e-03
      1.43047597e-03 0. 0. 1.00052832e-02 3.35995713e-03 0.
      2.40946095e-03 3.54899024e-03 0. 5.62651362e-03 0. 0.
      3.35190824e-04 3.47040966e-03 -7.02310004e-04 1.33390464e-02
      -1.26238435e-03 0. -7.56317563e-03 0. 8.15173704e-03 0. 0.
      2.84150301e-04 -8.46934877e-03 0. 1.27005344e-03 -2.58020079e-03
      2.16379352e-02 -5.75036975e-03 -4.14433453e-04 0. 0.
      1.78914599e-03 -1.21976295e-02 0. -8.33543390e-03 0. 0. 0. 0.
      -3.09509635e-02 2.94703222e-03 -4.03639191e-04 1.29697816e-02
      1.62729266e-04 0. 0. -1.05327917e-02 9.95900296e-03
      -4.80413437e-04 2.48003635e-03 1.87162787e-03 0. 3.15709249e-03
      1.41416211e-03 -1.01114169e-03 0. 3.81402671e-03 -1.48577077e-04
      7.39312358e-03 -6.54373597e-03 -1.86342731e-04 -2.89208605e-03 0.
      0. 2.54758075e-03 -3.86446179e-03 0. 0. 0. -3.29387025e-03
      6.61545375e-04 0. 0. 5.86852315e-04 -5.94076188e-03 0. 0.
      -1.25969211e-02 0. -9.67833796e-04 0. -5.01369173e-03
      -3.35796154e-03 1.29361392e-03 3.79324378e-03 -1.55097973e-02
      1.32379187e-02 0. 2.30184511e-07 2.51254532e-04 0. -6.98681735e-03
      3.12333141e-04 2.93821865e-03 0. 7.34674465e-03 -1.54472969e-03
      -8.79216287e-03 3.65488254e-03 -2.40197318e-04 -9.60364268e-05
      -2.80119944e-03 2.75781285e-03 0. -6.44068839e-03 0.
      2.22741728e-04 0. -1.92858721e-03 8.46779381e-04 -2.67403270e-03
      0. 0. 5.62580675e-03 0. 0. 2.27860105e-03 4.80932416e-03 0.
      4.43112105e-04 1.37250824e-03 -1.99295555e-05 0. 0.
      -1.34202826e-03 0. 0. 0. 0. -8.97742063e-03 1.58287294e-03
      -3.32068210e-03 0. 8.79205856e-03 -5.13289217e-03 0.
      -5.02151903e-03 1.24902027e-02 7.71296537e-03 -3.24462750e-03 0.
      2.51301136e-02 5.87821996e-04 -9.69512854e-03 1.45224351e-02
      -5.49857272e-03 -2.34060045e-02 -1.32414540e-02 7.19127106e-03
      5.85287460e-04 0. 1.50208632e-02 1.98236462e-02 -1.25083020e-02
      -8.35524220e-03 -1.76416198e-03 -1.63910072e-03 4.47806949e-03
      -9.72965639e-03 4.03673947e-03 -7.88941234e-03 0. 2.33390951e-03
      0. -1.86408730e-03 -7.63893040e-05 3.11062788e-03 1.17722775e-04
      0. 1.65565033e-02 0. 0. -1.96977976e-06 -1.08780274e-02 0.
      1.81727775e-03 -1.29769876e-04 -1.17355986e-02 4.60518386e-05 0.
      1.29475596e-03 -1.33053385e-04 0. 0. 2.48565944e-03 0. 0.
      -7.63256149e-03 -2.00863637e-04 9.27255210e-03 0. -3.81705631e-03
      -2.58982473e-04 0. 0. 0. -5.28418692e-04 0. 1.55093032e-03
      4.06278111e-03 1.49133080e-03 -2.09563365e-03 -3.49485944e-03 0.
      -4.49985266e-03 0. 0. 6.96192402e-03 0. 6.27652975e-03
      -2.76533538e-03 0. 7.06186052e-03 0. 1.20365061e-02 0.
      -9.45680868e-03 -1.04912382e-03 -6.43823529e-04 3.27725569e-03 0.
      0. 0. -2.73820339e-03 -6.47035427e-03 -3.04110465e-03 0.
      -1.31607417e-03 0. 0. 0. 0. -1.81518011e-02 -5.51433011e-04
      1.43694750e-03 1.92161165e-02 0. 1.76809658e-03 -2.31001541e-05 0.
      -7.56512908e-03 6.73584989e-04 4.12666379e-03 -3.57461115e-03
      -1.23119273e-03 2.30166654e-04 0. 0. 0. -1.39167678e-05 0. 0.
      -2.97196046e-03 -1.68167971e-04 2.06136215e-03 0. 0. 0.
      1.39542622e-02 0. 6.18440658e-03 0. 0. 3.09660705e-03
      1.50466748e-02 -3.14643327e-03 3.04172194e-04 2.26514111e-03
      -1.27302401e-03 0. 0. 3.20595643e-03 5.71105024e-03 6.65844744e-03
      5.63242065e-04 -2.75278231e-04 -1.41607812e-02 -4.60286997e-03
      4.01390763e-03 0. 0. 1.65002178e-02 0. 1.00949674e-03</_>
    <_>
      0. 5.92925027e-03 -2.26954231e-04 1.99684873e-03 -1.34340837e-03
      -1.40855333e-03 8.44332855e-03 0. 0. 0. 0. 3.92464397e-04
      4.24395967e-03 -9.02470842e-04 -6.38198014e-03 -7.71692581e-03
      1.06283333e-02 -8.71211383e-03 1.22847952e-04 -1.69731136e-02
      5.76830562e-03 0. 1.51382046e-04 -3.10475715e-02 8.08106852e-04
      -1.66251156e-02 0. -1.34592801e-02 0. -1.02397436e-02
      -1.60905272e-02 -1.75138202e-03 0. -1.30483406e-02 7.72883417e-03
      -5.04493900e-03 -6.38238853e-03 -9.49664973e-03 -3.49590415e-03
      -2.20624954e-02 0. -2.29362119e-02 0. 9.56062786e-03 0.
      2.18801722e-02 0. -1.35377445e-03 1.70759223e-02 1.80744417e-02
      -1.60321302e-03 -1.57099944e-02 0. 2.45765527e-03 -3.37526668e-03
      -7.20290758e-04 0. -1.87972619e-03 -1.74420513e-02 0.
      -3.28540889e-04 0. 0. -6.59273099e-03 1.19386632e-02
      -1.73359923e-02 7.15977419e-03 3.18444148e-03 -8.73149000e-03
      3.36964708e-03 0. 2.91838441e-02 -1.52165182e-02 0. 4.72198648e-04
      -2.06439290e-03 1.26081817e-02 1.67062432e-02 0. 7.81721144e-04
      5.60612464e-03 -9.25757980e-04 1.12333204e-04 0. 1.14296451e-02
      -2.55658097e-06 4.96352033e-04 -1.61364768e-02 -5.02054021e-03
      4.30363696e-04 -2.04979889e-02 -7.73345726e-03 2.69595161e-03 0.
      0. 0. -4.96085813e-05 0. 0. -2.23996788e-02 0. -1.86514091e-02
      -1.10462913e-02 8.76802672e-03 -2.24134582e-03 -2.62130313e-02
      -2.24007852e-02 0. -2.02613720e-03 0. 1.13738480e-03 0.
      1.85659882e-02 1.00034298e-02 0. -1.40092918e-04 2.78421561e-03
      -2.67736753e-03 0. 0. -7.10394001e-03 0. 0. 0. 0. -2.60222033e-02
      -3.18528066e-04 0. 2.26238510e-03 1.36676626e-02 -9.62361321e-03
      -1.33836037e-02 -6.61765749e-04 0. 0. -1.63104646e-02
      -1.28010400e-02 1.49972141e-02 -2.26009786e-02 -6.93801325e-04
      -3.23058804e-03 0. 0. 0. -7.76807894e-04 1.30961249e-02
      -6.80166486e-05 0. -3.24686611e-04 -4.51641763e-03 -8.22354760e-03
      0. 1.20413734e-03 0. 4.58909310e-02 -1.17317832e-03
      -2.80662514e-02 -4.41513536e-03 0. 3.60141695e-03 2.37486027e-02
      -9.46052559e-03 -6.53856248e-03 1.08436658e-03 6.47729542e-03
      1.56818336e-04 0. 0. 0. 0. -1.17067641e-04 0. -2.03055050e-03 0.
      9.84296389e-03 0. 0. 1.63077365e-03 4.63218719e-04 0.
      -1.99159756e-02 9.56979301e-03 0. 0. 0. 0. -6.32398669e-03 0.
      1.50650309e-03 -7.75897875e-03 -4.43117169e-04 -1.11262985e-02
      -1.03716189e-02 7.89434765e-04 -7.99512584e-03 0. 1.23230284e-02
      0. 2.18136003e-04 -4.50535491e-03 1.14494832e-02 -1.15647158e-02
      -1.56162598e-03 2.89851771e-04 2.47206626e-04 2.93006771e-04
      -2.18360405e-03 0. -1.29226642e-02 -1.83188915e-03 0.
      1.89511627e-02 0. 0. -3.98058537e-03 -2.25710479e-04 0.
      9.43710282e-03 2.27075443e-03 1.69599336e-02 -3.51880048e-03
      7.01361801e-03 6.15003891e-03 5.33671770e-03 -2.16812664e-03
      2.72176247e-02 5.73751563e-03 -1.34359123e-02 0. 0. 0.
      -1.44259771e-02 3.53956893e-02 0. -3.58908027e-02 9.92366951e-03
      -4.25770041e-03 0. 1.39214611e-02 9.56314709e-03 -1.53781381e-02
      -1.47140585e-03 -6.20983448e-03 0. 4.64236131e-03 -1.37587357e-02
      -9.84233618e-03 0. 0. -1.67257793e-03 -2.12630280e-03 0.
      -5.17885946e-03 2.10091844e-03 0. -9.40974988e-03 -2.35441029e-02
      -7.51347048e-03 0. -5.58934454e-03 0. -2.95124715e-03 0.
      1.12605272e-02 0. -5.93515020e-03 0. -6.77429198e-04 0.
      2.47695409e-02 1.35795842e-03 0. -1.81899057e-03 0.
      -2.59841746e-03 0. 0. 0. -2.46744748e-04 -4.49918763e-04
      1.07642589e-02 5.93014341e-03 0. -3.71997547e-03 0. 1.14145863e-03
      1.84323417e-03 1.04130013e-02 0. 2.11878971e-04 9.28361434e-03 0.
      0. 0. 0. -4.67876853e-05 -4.08236898e-04 6.10572970e-05
      1.32228555e-02 0. 0. 0. -6.81966729e-03 0. 0. -6.64645759e-03 0.
      5.07958583e-04 0. 0. -7.59218028e-03 0. 6.05005492e-03 0. 0.
      1.56591125e-02 -2.58081709e-03 0. 0. 0. -1.17120259e-02
      -1.67231653e-02 0. -4.81263408e-03 8.50540400e-03 -1.13428093e-03
      0. 1.49327097e-03 6.35601813e-03 -2.73462974e-05 -1.62034936e-03
      -1.34411808e-02 0. 0. -1.99298702e-05 1.69041727e-04 0.
      1.41025316e-02 0. 5.60749555e-03 -6.12220448e-03 -2.20165253e-02
      0. 0. 0. 0. 0. 2.68759541e-02 0. 0. 1.45546196e-03 1.32345222e-02
      3.46565880e-02 0. 0. 0. 0. 0. -2.22596480e-03 -2.69399844e-02
      5.51602757e-03 0. 1.39126333e-03 8.19677953e-03 -2.26010539e-04
      5.42338425e-03 -9.84637998e-03 0. -2.53690348e-04 -1.41699165e-02
      0. -1.14849256e-03 -1.40491985e-02 0. -5.56924962e-04 0. 0. 0.
      1.67572051e-02 0. 0. 6.09903457e-03 -8.03934969e-03 0. 0. 0. 0.
      -1.56575721e-02 4.68295394e-03 -9.77945235e-03 0. 0. 0. 0.
      5.55011164e-03 1.81380995e-02 1.61984470e-02 2.13974528e-03
      8.14083556e-04 0. 3.51141160e-03 4.05729329e-03 0. -9.28029534e-04
      -4.15964378e-03 -5.89703536e-03 0. 0. 4.72619059e-03
      1.10299559e-03 1.82243213e-02 2.94128503e-03 0. 1.02547659e-02 0.
      -6.27411238e-04 0. 0. 1.24841100e-02 -2.88102077e-03
      -4.36339527e-03 2.27987673e-03 2.13022027e-02 -1.12873204e-02
      -4.01433899e-05 2.13939277e-03 -7.83816911e-03 0. -1.52630815e-02
      1.16410097e-02 -4.82800446e-04 0. 3.92033486e-04 -9.21809347e-04
      -2.33776625e-02 0. -1.74736266e-03 4.30096081e-03 2.45214906e-03
      0. 2.54629157e-03 0. 0. 1.62372421e-02 9.27535072e-03
      -2.72689224e-03 -5.62659814e-04 0. -1.35506373e-02 0. 0.
      -7.96823110e-03 0. 1.54976938e-02 9.57240409e-04 0.
      -2.18301509e-02 0. 2.74241669e-03 1.08684588e-03 1.92948151e-02
      -1.43695120e-02 -2.00386858e-03 -5.07837348e-03 1.09969620e-02 0.
      0. 9.94402263e-03 -2.34562648e-03 0. 0. 0. 0. 0. 0. 0.
      2.36487901e-03 0. -3.89404275e-04 4.13504895e-03 0. 0.
      -1.30950371e-02 -8.89981072e-03 -2.69131176e-02 -7.73529569e-03
      5.73300058e-04 5.73754776e-04 0. 4.12975578e-03 0. 5.41546801e-03
      0. 1.53715094e-03 -9.43623204e-03 1.71501073e-03 -6.65089767e-03
      1.44092711e-02 0. 1.98571756e-03 0. 0. 0. -3.47418454e-03 0.
      2.95443321e-03 6.89771585e-03 0. 1.24442913e-02 -3.05088979e-05
      -1.93518214e-03 6.84888102e-03 2.85782618e-03 0. 0. 0.
      -8.87508912e-04 0. -7.40030082e-04 0. 0. 0. -7.75029371e-03 0.
      1.44986305e-02 0. 0. 3.63461295e-04 -2.60327980e-02 1.72887612e-02
      -4.30359086e-03 9.13516618e-03 -2.33957134e-02 -1.83134922e-03 0.
      3.95419355e-03 7.95432087e-03 0. -4.05005459e-03 0. 0. 0. 0.
      1.45685486e-03 1.07734501e-02 0. 0. 0. 0. 5.06574754e-03
      5.18661411e-03 1.74969609e-03 0. 1.46614145e-02 0. -8.32465291e-03
      1.64378900e-02 -6.22089393e-03 0. 1.00411719e-03 0. 0. 0. 0.
      1.12631842e-02 2.22098902e-02 0. 0. 2.17938144e-03 -8.37212056e-03
      0. 1.84978347e-03 -2.02755234e-03 -4.84792190e-03 0.
      2.92509655e-03 -2.16267072e-03 -7.48144789e-03 1.02263168e-02 0.
      1.08234584e-02 -1.74402632e-02 0. -1.53535344e-02 9.43517778e-03
      0. 2.33948827e-02 1.48139149e-03 -1.39316078e-02 -6.65120501e-03
      -8.33274145e-03 -1.05357142e-02 0. -1.30330294e-03 3.51834446e-02
      0. 0. 0. -3.16926365e-04 -2.68167593e-02 1.75471313e-03 0.
      -1.36724636e-02 -8.18711333e-03 0. 5.22766146e-04 2.57327855e-02
      0. 0. 0. 2.46939473e-02 1.55264942e-03 0. 7.05305836e-04
      3.81677807e-03 -3.22895008e-03 0. 2.43065692e-03 1.59590750e-03
      5.36757463e-04 1.82735603e-02 -5.26845176e-03 -7.71052553e-04 0.
      0. 0. 0. 0. 1.40857659e-02 -1.31873321e-02 0. 0. 1.54490788e-02
      9.94640496e-03 -7.55785091e-04 0. 0. 4.25296108e-04 1.33820157e-02
      0. 0. -2.44611781e-03 -7.60440773e-04 3.99845373e-03
      -4.96044406e-04 3.42679359e-02 0. 1.13277910e-02 -7.30934599e-03
      0. 8.19904357e-03 0. 2.26586504e-04 6.60794601e-03 1.39951904e-03
      -4.74192528e-03 -1.04898401e-02 -2.49589304e-03 -1.83237856e-03 0.
      0. 3.53083829e-03 1.44421903e-03 6.13347103e-04 -4.51871892e-03 0.
      -6.26706751e-03 -4.84657066e-04 1.66833831e-03 7.17493007e-03
      4.61319275e-02 0. 1.05025806e-03 -4.12375247e-03 -8.18572764e-04
      -2.00432516e-03 2.16956586e-02 2.81226443e-04 2.37003108e-03
      -1.00304363e-02 -1.63177459e-03 1.89478658e-02 -1.01212261e-03 0.
      0. -2.03544516e-02 0. 0. -3.90254776e-04 -1.29370694e-03
      4.54367045e-03 -2.23559164e-03 0. -4.22956981e-02 0.
      -8.29930301e-04 -4.09304863e-03 1.39348134e-02 -8.53565056e-03 0.
      -9.04279668e-03 -2.65025010e-04 1.66653953e-02 -2.31674616e-03
      -4.38683806e-03 -1.15214125e-03 -5.96363610e-03 3.38791846e-03
      -1.48955523e-03 0. 0. 0. 0. 3.91408103e-03 -1.66199915e-02
      9.90810525e-03 0. 4.36528958e-03 1.42555609e-02 1.03197200e-03 0.
      0. -2.37628333e-02 0. -1.95449902e-04 3.70656908e-03
      -6.20502839e-03 -1.21975942e-02 0. -1.71481948e-02 -7.75043911e-04
      -8.69779382e-03 3.69767402e-03 0. -1.06339797e-03 -3.05977520e-02
      -7.64930621e-03 7.17857061e-03 -7.24758953e-04 -7.72532355e-03
      -2.46511567e-02 -8.96057393e-03 0. 1.94453113e-02 0. 0. 0.
      7.41624826e-05 7.66236801e-03 -1.68938357e-02 -2.51131114e-02
      -8.32891456e-05 4.74002474e-04 5.80471428e-03 -4.68243705e-03
      3.69464571e-04 0. 5.91904670e-03 -1.88438315e-03 0. 0. 0.
      4.64875903e-03 -2.05063639e-04 0. -9.15084034e-03 0. 0. 0. 0. 0.
      -2.22936850e-02 -5.66580473e-03 0. 0. 0. 0. 0. 8.08299333e-03
      1.73137512e-03 0. -1.06843864e-03 5.72088221e-03 -3.94104794e-03
      1.79876685e-02 -1.70005746e-02 -7.80258735e-04 -1.64741196e-03 0.
      -1.77154856e-04 1.05564669e-02 2.53285351e-03 -6.39317092e-04 0.
      -1.09977284e-02 0. 2.48858612e-03 -1.75727662e-02 0. 0. 0.
      -3.28189251e-03 0. 0. -8.96485616e-03 -4.39119060e-03
      -9.29721911e-03 0. -2.23180931e-02 -1.10008218e-03 -4.75483388e-03
      0. 1.25537943e-02 3.46667431e-02 -3.39155458e-03 8.77876300e-03 0.
      -5.99451480e-04 -1.76569622e-03 7.10574724e-03 2.30035186e-03
      2.48973025e-03 1.11564593e-02 9.82199889e-03 0. 1.80768408e-02 0.
      1.64721685e-03 0. 0. 8.38260259e-03 0. -5.54426224e-05 0.
      -1.21159013e-02 1.50710940e-02 0. 1.55745586e-03 8.16285392e-05 0.
      5.30902063e-03 -1.06682023e-03 0. 0. 0. -1.14973020e-02 0.
      -4.56011668e-03 -1.87647156e-03 -1.24425418e-03 -7.67593924e-03
      -2.85637868e-03 0. 4.49898595e-04 -1.74025132e-03 0.
      -1.85021083e-04 2.96626706e-02 0. -1.79098342e-02 -9.37566999e-03
      4.34624916e-03 3.04144509e-02 9.84130334e-03 0. 1.46642290e-02
      8.66629533e-04 2.36069597e-03 0. -1.25705590e-03 0. 0. 0.
      -1.80546939e-02 3.35459103e-04 0. 2.56282953e-03 6.64613815e-03
      -5.75309714e-05 -1.08208060e-02 0. -2.56398018e-03 0. 0. 0.
      1.38611838e-04 0. -8.50111712e-03 0. 3.04792798e-03 1.43690419e-03
      0. 0. 7.61392119e-04 0. 2.04374385e-03 3.63272987e-03 0.
      1.80855729e-02 0. 0. 6.67208689e-04 5.36152674e-03 4.25896235e-03
      0. 0. 6.68522203e-03 -6.75494550e-04 1.46812163e-02 8.04728922e-03
      -2.04365905e-02 -1.84820890e-02 -1.88524313e-02 -5.36159566e-03
      -3.15661496e-03 0. 0. 0. 0. 1.00538123e-03 4.36586281e-03
      -5.00189187e-03 0. 0. -1.66726355e-02 0. -9.76513047e-03 0.
      -3.29866051e-03 -1.24320539e-03 -1.34373578e-04 -1.01314476e-02
      3.81516037e-03 8.88277020e-04 -1.01997366e-03 -1.47729600e-03 0.
      1.81501638e-02 0. -6.23850897e-03 -6.50773570e-03 -2.89544277e-02
      3.11601034e-04 0. 0. 0. 0. 0. -2.11682674e-02 2.32359804e-02
      -5.45255234e-03 0. 5.42787323e-03 0. 1.41487671e-02
      -1.17573258e-03 6.36512588e-04 6.52799523e-03 -2.81254016e-03 0.
      -8.00208654e-03 -1.00134807e-02 7.19748856e-03 1.03461258e-02 0.
      1.43761812e-02 1.46958360e-03 -2.38142186e-03 -2.07987446e-02
      -2.65658740e-03 0. 0. -1.41047742e-02 3.23316990e-03
      7.77790416e-03 -5.51829766e-03 0. -2.17261189e-03 -3.15739284e-03
      0. 0. -8.08336772e-04 0. 0. 0. 0. 6.72529778e-03 0. 3.44272587e-03
      3.59101663e-03 1.40206562e-02 -6.56075717e-04 4.10163688e-04
      1.58542336e-03 0. 1.25107798e-03 -1.95443388e-02 6.87436294e-03
      -2.01533621e-05 -7.35519143e-06 0. 2.82141776e-03 9.33325104e-03
      1.71938009e-04 0. 4.04303335e-03 0. -1.39250671e-02 9.20315972e-04
      3.32166860e-03 0. 4.61436715e-03 -3.36705614e-03 -3.68188950e-03
      4.83387010e-03 -6.05360465e-03 -3.52514046e-03 0. -1.16844587e-02
      3.01577908e-04 0. 0. -1.42873017e-04 -1.20493711e-03
      2.43253587e-03 0. 0. 0. 0. 2.65210215e-03 0. -1.14923175e-02 0.
      -2.13574828e-03 0. -2.82366411e-03 -1.64036546e-02 0.
      -5.55226998e-03 -4.39424580e-03 4.93604131e-03 2.00813590e-03 0.
      -6.24749390e-03 -9.07607004e-03 0. -8.01473670e-03 0.
      -2.24806857e-03 -1.36089493e-02 -3.54311592e-03 -1.43840152e-04
      -4.63667006e-04 -1.30211664e-02 0. 0. 2.97018141e-03
      1.74716394e-02 2.93933414e-03 0. 0. 0. 2.16973573e-02
      5.89071715e-04 0. 3.32862395e-03 0. 3.62269860e-03 0. 0. 0.
      3.18454974e-03 0. -2.22605467e-02 7.22002797e-03 5.11156442e-03 0.
      7.72932125e-03 1.01655228e-02 8.82499572e-03 2.97712497e-02
      2.25259969e-03 0. 0. 0. 3.84083912e-02 -9.33142472e-03 0.
      -2.57530669e-03 0. 9.23838746e-03 0. -1.30588710e-02 0. 0.
      -5.46540180e-03 0. 0. 1.31985396e-02 -5.79049671e-03 0. 0. 0.
      -5.96994127e-04 -4.86992067e-03 0. 0. 2.02799239e-03
      -2.80114729e-03 2.52842922e-02 7.75846699e-03 1.24466997e-02
      4.07766877e-03 0. -2.25781016e-02 -1.43768815e-02 0. 0.
      -4.78073867e-04 -3.09459190e-03 1.41438805e-02 -1.53818808e-03
      -7.96508859e-04 0. 1.05919940e-02 0. 0. -4.28483495e-03 0.
      6.53171027e-03 -4.40946221e-03 0. -1.00853480e-02 1.20572979e-03
      0. -1.02630975e-02 1.20418761e-02 0. 1.41825888e-03 3.03616701e-03
      -1.34419941e-03 -6.90403348e-03 0. 2.37766828e-04 0.
      1.67694446e-02 0. 0. 0. 1.09091150e-02 0. 5.20648528e-03
      -2.99788006e-02 0. 0. -1.00238959e-03 -1.37820418e-04 0.
      1.64167577e-05 0. 0. 1.54927475e-04 1.38441911e-02 3.80625279e-05
      -8.99254344e-03 0. 0. -3.39278427e-04 -1.92385390e-02
      2.02742100e-04 -8.97038262e-03 0. 0. -5.53661911e-03
      -5.56699559e-03 -1.76330563e-02 -1.32473353e-02 -3.20026738e-05 0.
      -9.25840402e-04 -8.44291784e-03 -2.08870061e-02 -4.95397719e-03
      3.36822751e-03 -6.70517969e-04 -1.44309606e-02 -4.35982924e-03
      -1.21589098e-03 -1.38467865e-03 -3.12222051e-03 5.77876670e-03
      -1.75486191e-03 0. 0. 1.42481271e-02 1.57825593e-02 0.
      -8.11228092e-05 0. 0. -3.76065471e-03 0. 0. -6.42639725e-03
      -1.68464589e-03 2.71347091e-02 -2.27281433e-02 1.10201249e-02 0.
      -1.07602607e-02 1.84603035e-02 1.47032167e-03 0. -1.79568958e-02
      0. 1.31723966e-04 1.18706366e-02 -5.63022634e-03 0. 0.
      1.65037671e-03 -2.35876418e-03 0. 0. 0. -2.13745106e-02
      -6.99189538e-03 1.50280194e-02 0. 1.20502049e-02 7.39980070e-03 0.
      -1.06040938e-02 3.56301107e-03 -1.88266225e-02 5.76945953e-03
      3.77797126e-03 2.97930860e-03 0. 0. -2.91018002e-03 2.51704752e-02
      0. -7.93137588e-03 6.27589924e-03 0. -2.03780793e-02 0.
      6.38274942e-03 0. 0. 0. 3.23098106e-03 -4.43326513e-04 0.
      1.55685991e-02 3.77386808e-03 0. 2.22114846e-02 2.81448662e-03
      1.33924372e-02 7.18459627e-03 1.18096452e-03 2.95433328e-02 0.
      -4.88411123e-03 -1.42178615e-03 0. 0. 0. 0. 0. 0. 0. 0.
      3.89039586e-03 0. 0. 0. 1.33244926e-02 1.04677854e-02
      6.16650330e-04 0. 0. -1.03494106e-02 1.84038635e-02 0. 0. 0.
      1.29353283e-02 0. -1.75205991e-02 -2.33974122e-02 0.
      6.46094652e-03 -2.13916898e-02 0. 1.00522246e-02 3.32573568e-03 0.
      0. 0. 0. 1.24179190e-02 -5.26664662e-04 8.53033364e-03
      2.51247245e-03 0. 0. 0. 1.05107774e-03 -3.26562785e-02 0.
      -1.03777731e-02 3.36285285e-03 9.71949939e-03 -3.13589536e-03 0.
      1.00851015e-04 1.12422919e-02 3.53033235e-03 0. 7.30525935e-04 0.
      0. -3.64387961e-04 1.49695361e-02 -3.84982117e-03 -9.59449855e-04
      1.73387434e-02 2.02587172e-02 6.82368455e-03 6.03964040e-03 0. 0.
      -3.84236523e-03 8.14747647e-04 -1.05416412e-02 0. -1.01347333e-02
      1.32878296e-04 -7.92595558e-03 0. 0. 0. 0. 9.96565446e-03
      7.87482690e-03 -3.00760963e-03 -2.64510084e-02 4.61999793e-04
      1.63487773e-02 -3.19231115e-03 2.34553008e-03 0. 1.79831125e-03
      -4.91335697e-04 0. -5.60990593e-04 1.59442723e-02 -2.14918405e-02
      -1.43987117e-02 2.98493251e-04 1.58287436e-02 1.19127594e-02
      2.04254990e-03 5.57260774e-03 -8.63399729e-03 -1.48395356e-03
      -7.34739238e-04 3.90548888e-03 1.47331338e-02 -3.61745921e-03 0.
      0. 0. 7.16142124e-04 -1.50922099e-02 1.80903450e-02 7.61780608e-03
      0. 1.09750126e-03 2.16880012e-02 0. -2.16353610e-02 0.
      -1.21871382e-02 9.25420411e-03 1.27308303e-02 4.34024213e-03 0.
      7.43717514e-03 0. -1.29897799e-03 -6.11731550e-03 0.
      -1.91750459e-03 -3.82464525e-04 -2.13892572e-03 1.72580276e-02
      -4.73016495e-04 4.42140503e-04 -1.60848140e-04 0. -2.47246269e-02
      4.96520137e-04 3.25287282e-02 3.26532801e-03 0. -6.67658448e-03
      3.68593051e-03 -1.28741225e-03 0. -4.68739681e-03 0. 0. 0.
      5.69277164e-03 -8.60390835e-04 0. 0. 0. 1.06386295e-04 0.
      -1.83125194e-02 -1.37290379e-04 0. 0. 0. 0. 0. 1.12477439e-02
      1.45706572e-02 0. 0. 0. -1.25246029e-02 0. -6.71732356e-04 0. 0.
      0. 0. -3.86136305e-03 -4.49839514e-03 5.59797883e-03
      7.44189747e-05 -3.78967216e-03 -2.00078171e-03 0. -1.86337307e-02
      0. 0. -1.53433401e-04 0. 4.48802020e-03 8.74475297e-03
      3.85410502e-03 0. 1.38330553e-02 -6.98185386e-03 3.15408930e-02
      2.24035680e-02 1.26868617e-02 0. -1.80696475e-03 9.40655824e-03 0.
      0. 6.87409192e-03 -1.71879970e-03 -6.62828912e-04 -1.91443674e-02
      0. -2.48822034e-04 0. -1.08632178e-03 2.15527322e-03
      -2.33313907e-02 1.26438253e-02 1.26547450e-02 -1.09409867e-02
      -3.80609010e-04 8.50726385e-03 0. 0. 1.95646379e-03
      -1.28154391e-02 0. -1.28384130e-02 0. -1.97009742e-03 0.
      -7.17528397e-04 0. 0. -2.50855293e-02 0. 4.94451122e-03
      8.99097603e-03 5.93026914e-03 -6.75702468e-03 0. 5.65829407e-03
      2.40782509e-04 0. 0. 2.32947953e-02 0. 0. 3.65937332e-04
      3.52130570e-02 1.07583636e-02 0. 1.60254232e-04 0. -2.46600807e-02
      0. -6.69458229e-03 -6.86158612e-03 0. -5.40914759e-03
      -8.62636152e-05 -8.79992172e-03 -8.26007221e-03 0. 9.73654259e-03
      7.27195991e-03 0. 1.82302727e-03 -1.87068358e-02 0.
      -2.91591859e-03 4.48390347e-04 0. 0. 0. -3.30071338e-03 0. 0.
      -9.57585406e-03 7.90749211e-03 -3.24901368e-04 -1.43967085e-02 0.
      0. 0. -8.97581130e-03 7.53825530e-03 0. -4.62858705e-04 0. 0. 0.
      0. -1.96035150e-02 -2.78385030e-03 -1.45661365e-02 5.33678278e-04
      -3.31791490e-02 0. 4.91811137e-04 0. 0. -1.27699715e-03 0. 0. 0.
      5.36363060e-03 -2.98691704e-03 0. 4.33528126e-04 -4.75367904e-03
      1.43007627e-02 1.24825379e-02 5.51843736e-03 0. 1.96062271e-02
      -1.96740776e-03 -1.16182072e-02 -4.36267303e-03 0. 0.
      -5.62161382e-04 0. -7.11972080e-03 0. 1.29426341e-03
      1.83097742e-04 3.56136123e-03 0. 4.05969750e-03 0. -7.25388341e-03
      2.27531958e-02 -2.14227308e-02 -3.94140261e-05 0. 0.
      2.51942929e-02 0. 1.74185541e-02 -1.61784030e-02 1.74512279e-05 0.
      -2.37751403e-03 -9.22695547e-03 -4.68835374e-03 4.70676227e-03 0.
      4.96454909e-03 0. 3.31155350e-03 0. 0. -1.03262896e-02
      -1.22445161e-02 -1.84695027e-03 -1.05751855e-02 3.18669379e-02 0.
      -1.36853205e-02 -2.36683569e-04 1.69901375e-03 0. 0. 0.
      -4.47862502e-03 3.41554661e-03 0. -1.55068878e-02 0.
      8.24672636e-03 1.39857102e-02 0. -1.11431244e-03 -2.66384654e-04
      1.10268546e-03 -4.83978819e-03 0. 0. 2.70704878e-03 6.40645809e-03
      7.57976761e-03 -4.93979314e-04 0. -9.79615841e-04 -1.02700358e-02
      1.85290177e-03 6.06139097e-03 2.58819840e-04 0. -3.30614373e-02 0.
      3.77317483e-04 0. -6.15683151e-03 0. 2.13956367e-02 0.
      -4.77424776e-03 0. 0. 2.05766652e-02 4.63363761e-03 4.72985907e-03
      0. 0. 0. 8.77376739e-03 0. 0. 1.66075956e-02 0. 1.07798597e-03 0.
      -2.41052266e-02 0. -1.68858154e-04 1.06549067e-02 -2.24949475e-02
      -2.27817823e-03 -1.32668880e-03 -3.01354984e-03 -8.45679361e-03 0.
      0. 0. 0. -5.24864299e-05 -2.39080843e-03 -3.18810926e-03
      1.47861028e-02 -1.74221041e-05 -1.15284305e-02 0. -7.98669818e-04
      -1.90386847e-02 5.13475446e-04 -3.98126105e-03 5.91901597e-04
      2.16425722e-03 2.05316283e-02 -2.44455617e-02 0. -1.81587471e-03
      2.14643832e-02 2.37760297e-03 1.41497143e-02 -1.12843222e-03 0. 0.
      -6.57632598e-04 0. -1.22765908e-02 0. 0. 3.21526895e-03
      1.62741076e-02 1.02251321e-02 2.14908365e-02 -1.03949271e-02
      4.15460393e-03 0. 1.71847157e-02 5.93789853e-04 0. -6.33107731e-04
      6.25095156e-04 -1.41569437e-03 0. 0. -7.28809973e-03 0.
      2.75173727e-02 -2.09398456e-02 0. 2.92836269e-03 0. 1.67113380e-04
      0. 4.81649477e-04 2.17471793e-02 -7.51340948e-03 0.
      -1.59213468e-02 3.07388342e-04 0. 0. 4.37369774e-04 3.52468598e-03
      -5.08177001e-03 0. -5.40800206e-03 2.37975903e-02 7.83042423e-03
      0. 0. 1.55976403e-03 -3.60632315e-04 6.80382131e-03
      -6.46110810e-03 1.98612455e-02 2.51432024e-02 6.57465495e-03 0.
      -6.48995687e-04 1.00479764e-03 4.75279381e-03 0. 2.99484860e-02
      3.69349234e-02 -3.22142587e-04 0. 2.67509907e-03 0. 0. 0. 0.
      -3.78045579e-03 2.51654536e-02 0. 4.04982194e-02 1.62192006e-02
      3.13746859e-03 0. 0. 0. 0. 9.53465118e-04 0. 3.15870420e-04
      3.11280717e-04 3.56494915e-03 1.41516840e-03 0. -2.20583879e-05 0.
      -1.81657281e-02 1.93395186e-02 2.03438178e-02 0. 1.16349407e-03 0.
      -1.73072703e-02 -2.43135244e-02 5.42391464e-03 -1.37504539e-04 0.
      0. -9.99210030e-03 0. 0. 8.47153552e-03 1.23266247e-04 0.
      1.27382316e-02 0. -1.94653473e-03 -1.51219219e-02 9.15142242e-03
      -1.56873546e-04 -9.41791513e-04 -1.27060413e-02 0. 0. 0.
      -1.77493191e-03 0. 0. 0. 1.28706079e-03 4.12951875e-03 0. 0. 0. 0.
      0. 2.16595568e-02 -5.75024076e-03 0. 0. 8.93186685e-03 0.
      5.75376349e-03 -1.17796157e-02 0. 0. -2.79436028e-03
      -1.07420385e-02 -2.93850806e-03 2.83349096e-03 -1.28799258e-03
      -3.66021902e-03 -1.99945271e-03 1.47530355e-03 0. 0. 0. 0.
      -1.28770119e-03 1.96520146e-03 0. 0. 0. 0. 0. 0. 4.21077572e-03
      -2.57251062e-03 4.95810481e-03 -4.74973954e-03 2.64347123e-04 0.
      -5.25646284e-03 0. 0. 2.80656423e-02 -2.47656135e-04 0.
      1.46402617e-03 0. 0. 1.87281873e-02 -4.06650361e-04 5.45278490e-05
      -1.97454151e-02 0. 1.42460037e-02 -3.43868189e-04 -4.01864818e-04
      2.04775388e-05 0. 1.33954672e-04 2.07739230e-03 2.02987269e-02
      -2.50440575e-02 -8.63630697e-03 -3.64154024e-04 2.88829729e-02
      -4.11050348e-03 -1.60565451e-02 0. -1.68168601e-02 0.
      -7.03238836e-03 0. 1.26667190e-02 0. 0. 1.73146091e-03 0. 0.
      -1.45466140e-04 -7.42521882e-03 0. 0. 6.91930996e-04
      -2.93083652e-03 0. 1.82436779e-03 0. 7.91160099e-04
      -5.97767113e-03 3.23879591e-04 1.06169353e-03 0. -3.88936751e-04
      7.49665732e-03 0. 0. 0. 2.95332987e-02 0. 0. 0. 2.42570625e-03 0.
      8.52897950e-03 0. -2.65274750e-04 -1.12201110e-03 1.49060841e-04
      0. 0. 0. 2.55363528e-03 -2.47891527e-03 2.28608726e-03 0.
      9.32957861e-04 2.15819534e-02 2.99180247e-04 4.53201908e-04 0.
      1.41113494e-02 0. 0. 1.42900550e-04 1.34759757e-03 0.
      9.24772939e-06 2.27469895e-02 0. 0. 0. -4.34724800e-03
      -6.69024838e-03 0. -1.31121150e-03 -6.52051589e-04 1.02596870e-02
      -9.83254868e-04 0. 0. 2.54390086e-03 7.08746724e-03 2.39909787e-04
      -5.58991777e-03 0. 0. 1.50575470e-02 0. 0. 5.99855557e-03
      6.99792989e-04 -1.49153246e-04 2.21962226e-04 -3.17784236e-03
      -8.94117914e-03 0. 1.23627775e-04 -1.01127324e-03 4.23092209e-03
      0. 0. 0. 8.34378297e-04 0. 0. -7.69177824e-03 0. 9.05202050e-03
      1.15790190e-02 2.08396697e-03 0. 3.34739662e-03 0. -4.06445237e-03
      4.02290234e-03 0. 1.37282219e-02 -4.75107785e-03 2.98139294e-05
      -6.92985952e-04 0. -2.14945115e-02 4.86426638e-04 -4.96003218e-03
      4.65362362e-04 4.25992999e-03 -1.28637685e-03 0. 1.92908272e-02 0.
      5.48670348e-03 -4.10491088e-03 0. 8.93319584e-03 0.
      -1.71176251e-02 0. -2.58099055e-04 0. 4.72023804e-03
      3.81674757e-03 -1.06615887e-03 0. 0. 0. 2.11155834e-03 0. 0. 0.
      1.13362563e-03 -1.41298352e-02 0. 0. 0. -2.43955548e-03
      1.36455977e-02 8.02388508e-03 0. 0. 0. 9.21211578e-03 0.
      -3.52935400e-03 1.02870343e-02 0. 3.67148942e-03 -1.55806439e-02
      0. 3.50544835e-03 1.07901904e-03 0. -3.12451972e-03 1.49881598e-02
      -1.18525736e-02 -2.48591439e-03 0. 0. -4.77079535e-04 0. 0.
      1.33416883e-03 0. 0. -1.14352871e-02 7.09750748e-05
      -4.09535645e-03 0. 0. -8.24594870e-03 0. -3.54370079e-03
      -3.24131660e-02 0. 7.50813726e-03 6.35064021e-03 1.94487651e-03
      -2.38333941e-02 -8.36530514e-03 -1.15797026e-02 0. 0.
      -7.99122499e-04 0. 0. 0. -1.68745650e-03 2.53456198e-02 0. 0.
      -3.26852314e-02 0. 0. 1.85869739e-03 2.64164148e-04
      -8.21710273e-04 -1.09734191e-02 0. 0. 2.45457049e-03
      3.02975811e-03 -8.90690926e-03 0. 1.49754584e-02 4.35422035e-03 0.
      -1.28697678e-02 0. -1.23305041e-02 2.11097226e-02 -1.88849010e-02
      -1.41894994e-02 0. -4.19423822e-03 1.05667673e-02 0.
      -3.02131986e-03 -1.02438219e-02 3.96797154e-03 1.36785186e-03
      1.61667340e-04 4.20398731e-03 -1.95466857e-02 0. 0. 0.
      1.17080193e-02 3.03276838e-03 0. -6.51208218e-04 3.78451589e-03
      -5.57241868e-03 0. -3.44213052e-03 -3.36327478e-02 -9.06282198e-03
      2.08996804e-04 0. 0. -1.27278063e-02 0. -2.65970896e-03
      -3.04449182e-02 -8.01085960e-04 -2.96988920e-03 3.22631449e-02 0.
      0. -2.10524839e-03 8.31264770e-04 0. 0. -4.19506151e-03
      1.50325213e-04 0. 4.26407997e-03 0. 0. 0. -7.61056785e-03
      -4.52024746e-04 7.18304701e-03 -9.21283010e-03 -5.78317465e-03 0.
      -3.93786188e-03 -1.26471976e-02 0. -1.22604556e-02 3.98177793e-03
      0. 0. 0. -1.80056249e-03 -6.11386448e-03 -6.95233420e-03
      -4.66988469e-03 -6.37630094e-03 -1.90751895e-03 7.88563024e-03
      -7.05802813e-03 0. 2.44414620e-03 0. 7.88065721e-04 1.05280494e-02
      9.27905669e-04 0. 0. 9.02308209e-04 1.42673124e-02 -1.83689152e-03
      0. -1.03215876e-04 1.58341713e-02 0. -2.59745424e-03
      2.05578413e-02 0. 0. -3.28368018e-03 -8.22002999e-03 0. 0.
      -1.86320191e-04 -3.66719003e-04 0. 6.05941704e-03 9.60221328e-03
      1.33534446e-02 -2.41762567e-02 0. -5.24837174e-04 -2.54544047e-05
      -2.17383890e-03 3.53672616e-02 0. -8.90876073e-03 2.00479338e-03
      0. 0. 1.57445946e-04 8.65302514e-03 0. 0. 8.36296659e-03 0. 0. 0.
      0. -1.05949827e-02 -1.67859590e-03 0. -5.23270923e-04
      2.00995803e-03 -7.67454854e-04 0. 0. 1.64055787e-02
      -5.57635305e-03 -1.43081462e-03 0. 0. -1.60191586e-04 0.
      -2.02846713e-02 0. -5.44776442e-04 -6.44878426e-04 0.
      3.63849290e-03 1.37088192e-03 9.82853770e-03 1.49456412e-02
      1.02281501e-03 0. 1.01092528e-03 1.85189873e-03 0. 0.
      1.63140651e-02 0. 0. 0. 0. -2.89973075e-04 0. 0. -1.18358955e-02
      2.49072351e-02 4.96973097e-03 4.70649713e-04 0. 0. 1.54134119e-02
      2.93147605e-04 2.60170996e-02 1.42963994e-02 -2.07795878e-03
      -9.79976729e-03 1.00474413e-02 0. -1.93173334e-03 1.92250982e-02
      -8.21606349e-03 0. 0. 1.41385675e-03 5.68065479e-05
      -2.30613425e-02 4.63765487e-03 -4.86034900e-03 -1.10225461e-03 0.
      0. 0. 0. -1.66384075e-02 0. 6.41471567e-03 0. 0. 2.32498487e-03 0.
      -1.82583537e-02 0. -1.76519112e-04 1.58197582e-02 -6.79508434e-04
      0. -1.83168813e-04 2.70812330e-03 0. 0. 0. 0. 1.37812505e-02
      1.18415733e-03 2.98642311e-02 -2.59307232e-02 0. 2.10568891e-03 0.
      -8.79125297e-03 1.57043443e-03 0. -1.97368441e-03 1.83672123e-02
      -5.70370676e-03 0. 0. 0. 0. 0. 1.89274531e-02 1.61635410e-03 0.
      -8.03074334e-03 1.46200787e-03 -1.40937418e-02 0. 2.17432552e-03
      0. 1.69411913e-04 0. 0. -5.89779997e-03 -2.41839234e-03 0.
      9.23416010e-05 -4.59807343e-05 2.11129542e-02 9.08471271e-03
      1.67240147e-02 0. 4.37248452e-03 0. 2.34336220e-02 0. 0.
      -3.78276804e-03 0. 2.93394066e-02 -2.59530470e-02 -1.49998190e-02
      3.38882528e-04 9.24338121e-03 0. 5.58079779e-03 0. 0. 0.
      -2.23774878e-05 0. 0. 0. -5.13872690e-03 2.74007069e-03
      -2.95693334e-02 0. 0. 6.25119917e-03 -2.34653950e-02
      -1.63211967e-04 0. 4.52508172e-03 -1.58938169e-02 0.
      -1.36386361e-02 -1.23865958e-02 0. 7.72123411e-03 -1.96987221e-05
      0. 4.57288045e-03 1.09153036e-02 0. -3.06782924e-04 0. 0. 0.
      -3.23330355e-03 9.74555558e-04 -1.91714743e-03 -4.72413725e-04
      2.88577341e-02 0. 1.21184275e-03 -1.27203492e-02 -1.75572094e-02
      0. 5.51764097e-04 0. -5.81942778e-03 1.99773740e-02 0.
      1.67142563e-02 0. 0. 0. 6.46218425e-03 -1.67988497e-03
      -4.73749405e-03 1.42911922e-05 3.22458218e-03 -4.62611392e-03 0.
      1.79798715e-02 8.33563798e-04 -8.49681790e-04 4.28280700e-03
      1.08816661e-02 7.00593181e-03 -3.34015640e-04 1.55418646e-02
      7.05350982e-03 -4.83325915e-03 -9.38737998e-04 0. 0.
      -1.06584467e-03 9.66556184e-03 0. 0. 0. 0. -3.26481392e-03 0. 0.
      -2.09165532e-02 0. 0. 0. 2.75039463e-03 0. -9.52806440e-04 0.
      -1.65207367e-02 -4.64652944e-03 0. -4.13028407e-04 -8.86141416e-03
      -1.20027538e-03 2.55469177e-02 0. 0. 0. 0. 0. -1.47685013e-03
      -1.25398552e-02 6.61165966e-03 2.37794053e-02 0. 2.75271852e-02
      -8.68158473e-04 0. -4.58639814e-03 6.12525269e-04 1.11379260e-02
      -2.20546033e-03 0. -1.12437801e-02 0. -1.49055496e-02
      -1.73000414e-02 -6.62322564e-04 0. -1.63251888e-02 -4.22041281e-04
      1.26172313e-02 0. 0. 1.71561129e-04 -2.46720877e-03 0.
      1.27144232e-02 -6.09058933e-03 0. 0. -1.89186633e-02
      -1.19197723e-02 -2.18618879e-04 1.13752615e-02 3.34898056e-03
      3.90506320e-04 1.79443527e-02 0. -1.22722681e-03 -1.76024565e-03
      -2.74298969e-03 0. -3.00823878e-02 5.88581897e-03 4.33854788e-04
      0. -1.49831222e-02 0. 0. 0. 0. -4.42505378e-04 2.56202999e-03
      -2.24038344e-02 -3.06363124e-03 4.08450663e-02 -5.23117720e-04 0.
      3.98266129e-04 1.40152248e-02 -1.37862172e-02 0. 1.38284592e-03 0.
      0. 1.81807889e-04 -4.69960133e-03 -6.57346146e-03 0.
      -5.33983344e-03 0. 0. -8.10684357e-03 0. 0. 3.29863243e-02 0. 0.
      0. -4.64092800e-03 -8.31384584e-03 -1.96376313e-02 -1.85595767e-04
      5.65965055e-03 -1.59202970e-03 -3.91052896e-03 1.80095285e-02
      5.17283101e-03 0. 0. 0. 0. 0. 0. 0. 0. -8.61485768e-03
      -1.60041833e-04 0. 0. 0. -1.73451006e-02 0. 1.36034470e-02
      5.63800428e-03 -5.78157417e-03 0. -2.57781497e-03 2.23399140e-03
      0. 0. -1.88364374e-05 1.00216642e-03 -2.87779141e-03
      -1.45482959e-03 1.49900392e-02 4.50493582e-03 0. -3.88405006e-03
      2.06430648e-02 0. -1.95815396e-02 1.89499545e-03 -2.99662864e-03
      6.77177357e-03 0. 0. 2.80716247e-03 1.12090968e-02 -7.26446975e-03
      0. 4.43141069e-03 0. 0. 0. 0. 0. 0. -2.38948073e-02
      -4.95467149e-03 6.26956066e-03 9.37829551e-04 2.56259646e-03
      -1.54804307e-04 0. -2.63004145e-03 0. 1.29305839e-03
      3.64892976e-03 9.29258007e-04 1.09264124e-02 0. 0. -1.27480524e-02
      1.70112681e-02 -1.92649588e-02 0. 6.26182227e-05 6.40776800e-03
      -2.08225492e-02 0. -7.58628594e-04 2.04567648e-02 4.09223279e-03
      1.00428164e-02 -5.33202081e-04 9.73834598e-04 0. -3.94987379e-04
      3.37095535e-03 7.16970302e-03 -1.15683600e-02 7.32936547e-04
      -2.18160525e-02 -5.53464051e-04 0. -1.38659924e-02 1.56517625e-02
      1.58160385e-02 0. 9.33951931e-04 1.88801866e-02 0. 0.
      -7.85154570e-03 3.37123312e-03 0. -4.26891129e-05 2.38743424e-03
      0. -2.40900908e-02 4.42849909e-04 0. 1.08110476e-02 1.89971775e-02
      2.77550938e-03 8.10795464e-04 1.89105999e-02 0. -7.96907174e-04 0.
      0. 4.78802140e-05 6.10427512e-03 0. -3.31352395e-03 6.99614454e-03
      0. 0. 0. -5.61369350e-04 0. 6.41798507e-03 0. 0. 1.37314899e-03 0.
      0. 0. 0. 0. 1.00447651e-04 2.85977758e-02 0. 0. 0. 0. 0.
      7.09368428e-03 0. 0. 0. 0. -6.57773251e-03 0. 0. -1.15118939e-02
      -5.06096100e-03 0. 2.81250738e-02 2.56053661e-03 2.15007560e-04
      -3.23990898e-05 0. -4.12906669e-02 -1.43200660e-03 0.
      -4.90450439e-05 2.18806248e-02 -4.11777291e-04 -1.67613160e-02
      1.99266467e-02 2.07250728e-03 -7.63194961e-03 -1.13380716e-04
      -3.84806260e-03 4.72166052e-04 1.53106952e-03 -8.80848151e-03 0.
      7.74140062e-04 1.24897501e-02 0. 2.44197417e-02 -1.53520200e-02 0.
      -1.67699028e-02 -3.70790331e-05 0. 4.66443272e-03 0.
      1.86603963e-02 2.65174988e-03 0. -4.78852401e-03 2.12066583e-02
      6.05222245e-04 4.41631163e-03 0. 5.38059091e-03 0. -3.25562502e-03
      0. -3.85895721e-03 1.78079437e-02 0. -4.21618205e-03 0.
      1.43477535e-02 -3.35748866e-02 0. 2.04075389e-02 4.35351813e-03
      6.36072728e-05 -6.33113505e-03 -3.63869965e-03 -1.43561221e-03 0.
      0. 4.19933861e-03 9.58893262e-03 -1.49961139e-04 -7.42463220e-04
      0. 0. 9.01784841e-03 0. 1.13054914e-02 0. 0. 0. -1.25169307e-02
      1.69578695e-03 2.49863751e-02 2.96587336e-06 1.23961242e-02
      -2.11212518e-05 0. -8.10751040e-03 0. 2.19061878e-02 0.
      -2.82257766e-04 0. 0. 8.12049955e-03 -9.62804072e-04
      -5.96504193e-03 0. 0. -1.50129395e-02 -2.90641077e-02
      -7.79179251e-03 4.63161804e-03 -3.34903523e-02 0. -3.79072782e-03
      2.83229269e-07 0. 0. 1.22623483e-03 2.79147783e-03 -3.71675231e-02
      0. 1.76296588e-02 3.30207683e-02 1.56056765e-03 -1.69563544e-04 0.
      1.02180876e-02 5.79003384e-03 1.22355158e-02 0. -1.81403698e-03
      1.11444085e-03 0. 0. -2.04729172e-03 0. -5.11654140e-03 0.
      -1.33617036e-02 -8.16675462e-03 -6.62492169e-03 -2.42062248e-04
      -4.49832412e-04 -9.47768334e-03 7.04930909e-03 0. -1.69646833e-03
      -6.60106819e-03 0. 0. 0. 4.36977670e-03 2.54365779e-03
      -1.46697536e-02 -5.48525015e-03 0. 4.96717985e-04 0. 0.
      -1.23577146e-03 0. -1.25637557e-02 0. 0. -1.22013129e-02 0.
      3.81945050e-03 1.51215456e-02 -5.14850428e-04 1.81624163e-02
      -1.79364358e-03 0. 2.88164447e-04 2.25242577e-03 0. 0.
      4.42103948e-03 0. 2.23520282e-03 0. -1.70185529e-02 0.
      7.35704816e-05 0. 0. 5.38776442e-03 -6.64145872e-03 0.
      1.21328747e-02 -5.93184901e-04 -2.20587701e-02 -2.03531161e-02
      5.22340555e-03 -1.35545223e-03 -1.33602787e-02 1.22766616e-03
      -5.46564721e-03 7.42968451e-03 0. 0. 0. 0. -1.27226915e-02
      -2.10728366e-02 -1.25160688e-04 1.62535487e-03 2.06930470e-02
      -3.49375443e-03 0. 4.16898140e-04 3.39200012e-02 0.
      -8.54047388e-03 -3.17439204e-03 2.34881183e-03 1.30911283e-02 0.
      -9.37807187e-03 -3.20992433e-03 1.84896123e-03 -2.85560731e-03
      1.00367414e-02 0. 6.02128729e-03 1.04244065e-03 0. 0. 0. 0.
      -1.22895173e-03 0. 0. -9.16333310e-03 0. 1.03236940e-02 0.
      -2.42316946e-02 0. 0. -2.71471739e-02 -9.69727896e-03
      1.90442987e-02 -1.34833704e-03 -1.23889679e-02 -1.01309351e-03
      4.00750432e-03 2.54951621e-04 -4.31083888e-02 5.16284863e-03
      1.12637435e-03 -9.74297151e-03 0. 0. 0. 8.85594264e-03
      6.24211156e-04 0. 0. -2.36983318e-02 -3.42001133e-02 0. 0. 0. 0.
      0. 3.85524263e-03 -8.07534717e-03 -1.49691235e-02 -2.52201105e-04
      -3.85055761e-03 -1.23404514e-03 -4.87493398e-03 5.61378984e-05 0.
      0. 0. 0. -1.05721236e-03 -3.36593273e-03 0. 0. 0. -3.50292004e-03
      2.77223382e-02 8.31635902e-04 0. -1.61191709e-02 -1.47965187e-02
      -1.63784367e-04 0. -3.19128833e-03 0. 0. -1.00930687e-02 0.
      -2.80772289e-03 0. 5.71236247e-03 1.11697335e-03 0. 0.
      6.08090544e-03 0. -2.11319397e-03 0. -1.92775019e-02 0.
      -9.48877260e-03 0. -4.13117884e-03 0. -1.49780279e-03 0.
      8.65367008e-04 -3.57833633e-04 0. 1.89323593e-02 0. 2.01364793e-03
      -4.12437425e-04 -7.91403931e-04 0. 4.86787595e-03 0.
      2.21798220e-03 0. -4.63725301e-03 3.15742014e-04 -4.44544433e-03
      1.49538927e-03 -1.64513200e-04 0. -1.90938148e-03 -6.47276500e-03
      0. 0. 9.62372578e-04 1.70068350e-03 0. 2.02545477e-03
      -8.89581162e-03 9.19200387e-03 0. 0. 0. 4.71395953e-03
      1.61306728e-02 1.66426767e-02 1.06317941e-02 0. 0. 0. 0. 0. 0.
      2.92015309e-03 0. 2.24422850e-03 -8.67439527e-03 -4.61601623e-04
      1.37144215e-02 0. -1.73398887e-03 -1.45483972e-03 7.71854393e-05
      2.34815432e-03 0. 0. -8.44649912e-04 7.56448659e-04
      -4.31601284e-03 -1.18619145e-03 0. -6.86366635e-04 -2.08528675e-02
      0. -1.85511559e-02 -1.60822237e-03 6.75845705e-03 -1.06343981e-02
      -1.36177205e-02 0. 0. -6.07953640e-03 1.75733236e-03
      -2.45591480e-04 -2.60044634e-03 -5.61849389e-04 1.79139955e-03 0.
      -3.68228857e-03 3.58426338e-03 5.54658892e-03 0. 3.82101955e-03 0.
      0. 8.49476643e-03 0. -1.24485306e-02 0. 0. 0. 0. 3.11830896e-03
      1.52553432e-03 0. 2.32839976e-02 0. -1.03233790e-04 0.
      5.31614432e-03 0. 2.54997108e-02 1.06115602e-02 -7.63759483e-03
      1.06479356e-03 -2.01433362e-03 0. -2.04893819e-04 -3.23557365e-03
      4.72211465e-03 0. -3.81004508e-03 0. -1.91457779e-03
      -2.02913880e-02 9.33700358e-04 -3.20330169e-03 0. 0. 0. 0.
      -6.27096230e-03 -2.26663798e-03 0. -7.45101133e-04 -4.32375306e-03
      -1.33189289e-02 -1.66313648e-02 5.61748305e-03 -2.32760678e-03
      6.77942485e-03 -5.15965745e-04 6.49593258e-03 2.60827653e-02
      -5.77395270e-03 1.60545600e-03 2.58859470e-02 1.27318536e-03
      7.16590835e-03 -8.19434179e-04 0. -1.42988842e-03 0.
      1.89159520e-03 -2.22271048e-02 0. 0. -1.37073302e-03 0. 0.
      -2.13092917e-05 -5.85387321e-03 0. -6.05503388e-04 2.28070784e-02
      -9.40289069e-03 0. 2.12754179e-02 0. -6.86161453e-04
      1.22757247e-02 -5.43643907e-03 -1.71741506e-03 0. 0.
      5.66402497e-03 0. -3.14082208e-05 0. 0. -4.96491883e-03
      -2.16224347e-03 0. -4.60246904e-03 -1.37517182e-02 2.05864385e-03
      0. 0. 4.73086955e-03 1.09470729e-03 1.55634517e-02 0.
      -1.61248874e-02 0. 0. -4.79364971e-04 1.55859413e-02 0.
      -8.20328388e-03 0. 1.86374355e-02 0. 6.51035551e-03 0.
      -8.18660110e-03 9.40036122e-03 0. 0. 2.00557616e-02 0.
      -4.00335854e-03 -5.81409317e-03 0. -2.04898953e-03 0.
      -1.51654063e-02 -5.35768981e-04 2.44670257e-04 0. 4.62725759e-03
      -1.97906222e-04 -2.43478292e-03 0. 0. -8.09174590e-03
      1.74741755e-04 -5.33357495e-03 8.89009237e-03 -1.21751390e-02
      -1.50320760e-03 3.74224060e-03 2.32183151e-02 -2.19470486e-02 0.
      -7.54815713e-03 -1.72133762e-02 0. -4.11135406e-04 0.
      1.61654670e-02 0. -4.04644699e-04 -8.02803435e-04 1.08303195e-02
      0. 7.31851906e-03 0. 6.53073424e-04 1.05855564e-04 0. 0. 0. 0. 0.
      0. 0. -1.06783183e-02 1.29058128e-02 3.96054937e-03
      -3.48873883e-02 1.64261088e-02 -5.53247239e-03 -1.15466747e-03
      1.86516438e-02 2.24110641e-04 0. 2.19214219e-03 5.14274184e-03
      -1.80750005e-02 4.22646012e-03 0. 2.47000065e-02 0. 2.63261446e-03
      -2.09376239e-03 0. -5.56774577e-03 0. -8.00621696e-03
      1.09026302e-03 0. 0. 1.41619965e-02 0. -2.34376057e-03 0.
      6.14034338e-03 5.08245453e-03 9.20248218e-03 -1.18482020e-03
      2.20685489e-02 0. 0. 2.07598750e-02 0. 9.42910323e-04 0.
      -9.82309226e-04 -1.05981261e-03 0. 0. 0. -2.17988808e-03
      -8.29901360e-03 0. 0. 1.18335504e-02 -6.02460140e-03
      -4.97306581e-04 1.03775235e-02 4.72720094e-05 -1.28242606e-03
      -5.31025324e-03 -7.32519373e-04 -3.07842181e-03 -6.86779898e-03
      -1.59129349e-03 0. 0. -3.10278847e-03 0. -7.96729606e-03 0. 0.
      -1.21240159e-02 1.26757938e-03 0. 0. -2.52661528e-03 0.
      2.31038709e-03 0. 2.07449266e-05 1.43129600e-03 -5.23024704e-03 0.
      0. 0. 6.05399394e-03 0. 5.50584542e-03 0. 0. 1.09646213e-03 0. 0.
      0. -1.05490098e-02 0. 0. 0. 0. -5.87493135e-03 -4.89808200e-03
      -2.40921904e-03 1.21600658e-03 0. 6.67907670e-03 2.24298376e-04 0.
      0. 5.64422971e-03 -2.14521848e-02 0. 1.99709833e-03 7.42670032e-04
      0. 0. 0. 0. -1.98808452e-03 0. 0. 4.12581163e-03 0. 3.19291838e-03
      -5.48724644e-03 1.97909884e-02 -2.16308720e-02 -2.82653677e-03 0.
      0. 3.39635718e-03 -1.17138273e-03 0. 3.25943157e-03 3.24101001e-03
      0. -6.69329800e-03 -1.02670509e-02 -7.83613138e-03 1.54275401e-03
      0. 0. 0. 1.48428408e-02 1.34299444e-02 2.35147847e-04
      -1.14093977e-03 0. -1.04530333e-02 7.39731034e-03 -3.19052860e-03
      1.43371075e-02 2.86410027e-03 1.48615697e-02 0. -1.64415094e-03
      7.54268281e-03 1.63144563e-04 -2.02428978e-02 3.30149452e-03 0.
      9.91407875e-03 2.86566149e-02 0. 1.13559132e-02 4.42097383e-03
      2.16475921e-03 8.31769503e-05 -1.61635596e-02 1.33938680e-03
      2.79958826e-02 -1.50228105e-03 0. -1.75160810e-03 3.92356841e-03
      1.75132677e-02 0. 0. 0. 0. 0. 0. 1.36643008e-03 6.79586665e-05 0.
      -6.07105019e-03 0. 0. 0. 0. 1.99695933e-03 3.10001057e-02 0. 0.
      -4.76302300e-03 7.29038054e-03 0. -1.44625443e-03 -1.12954862e-02
      1.62079539e-02 0. -2.41865814e-02 -1.02449430e-03 1.06878695e-03
      0. 9.92517173e-03 -6.44120621e-03 -3.59908142e-03 5.06351329e-03
      1.36342132e-02 0. 0. 2.55695637e-02 1.43022863e-02 -8.89789779e-03
      0. 0. -1.26215853e-02 0. 0. -1.24008721e-02 0. -1.77804437e-02 0.
      0. 0. 0. 7.19922408e-03 1.00078275e-02 -1.88709659e-04
      -1.14747125e-03 0. 2.48302110e-02 -2.12046993e-03 0.
      -1.36562139e-02 -4.54970606e-04 0. -2.41688383e-03 7.28921313e-03
      -1.11337309e-03 7.31860800e-03 4.87397611e-03 -2.38049403e-02
      -2.92326268e-02 0. -4.03302303e-03 0. 5.93750831e-03
      4.07224754e-03 0. -8.36837199e-03 0. -2.14498083e-04
      3.79147660e-03 0. 0. 2.13054795e-04 0. -4.16014995e-03
      1.58887636e-02 -2.96610482e-02 0. 0. 0. -1.62049960e-02
      -2.48469878e-04 1.41893122e-02 0. -2.33714608e-03 0. 0.
      2.51197107e-02 5.18692308e-04 2.55784635e-02 5.01049589e-03
      2.45145801e-03 4.82623982e-05 0. 1.00206770e-02 0. 0.
      5.75991999e-03 1.92162860e-02 0. -2.19610729e-03 -9.32274852e-03
      3.92211787e-02 -4.87429649e-03 0. 0. 7.74167929e-05
      -4.91895946e-03 0. -2.94469250e-03 0. 0. 0. 0. 1.01696569e-02
      3.48884682e-03 1.58503316e-02 -8.18974711e-03 0. -2.79946066e-03
      5.66215720e-03 3.95810651e-03 0. 1.39742168e-02 2.19280291e-02
      -3.49254627e-03 -1.16515458e-02 -7.13270251e-03 0. 5.62944042e-04
      0. 0. 7.15100579e-03 7.13160867e-03 -8.68148729e-03 0. 0. 0.
      -1.18784323e-04 1.13218706e-02 0. -4.80571704e-04 -1.67631339e-02
      1.72726199e-04 0. 0. 0. 5.43921115e-03 -5.95274707e-03 0.
      -1.06005312e-03 0. 0. 0. 0. -4.82280739e-03 -1.24114370e-02
      -3.60940071e-03 -6.87459018e-04 0. -1.59083195e-02 -8.53551828e-05
      1.35043003e-02 7.50806974e-03 0. 0. -2.72187241e-03 4.70838929e-03
      0. 1.54205905e-02 0. 1.92270134e-04 -2.98105031e-02 0. 0.
      4.04730486e-03 5.50299883e-03 1.06329666e-02 0. -2.11381540e-03
      -2.44119228e-03 0. 0. -4.47583916e-05 0. 0. -1.37407901e-02 0. 0.
      0. 2.10960527e-04 0. 0. 1.92671502e-03 0. 0. 0. -2.96292570e-03
      -5.82330686e-04 0. 0. 0. -1.20169930e-02 -1.40261799e-02 0.
      3.56774614e-03 1.59909413e-03 0. 9.53398645e-03 0. -1.73584949e-02
      0. 0. 0. -1.53064297e-03 0. 2.52202135e-02 0. 9.47851149e-05
      6.54798292e-04 0. 0. 2.49771099e-03 -1.22168683e-03 0. 0. 0.
      -3.69766611e-03 3.00485198e-03 0. 0. 7.02599855e-03
      -1.47493202e-02 1.14901341e-03 -1.41747505e-03 5.88953320e-04
      -1.61962621e-02 0. 0. 8.84624751e-05 -6.02835370e-03
      -1.48453587e-03 0. 0. 2.80136871e-03 0. 3.17251496e-03 0.
      -9.54867806e-03 2.79198121e-03 1.58052314e-02 1.25928391e-02
      -2.96012107e-02 0. 0. 0. -1.23939000e-03 -7.94128980e-03 0. 0. 0.
      2.58623660e-02 0. -1.93079710e-02 0. 0. 2.06162632e-02
      5.21879783e-03 -9.59331868e-04 0. 1.33386289e-03 0. 0.
      -2.01776698e-02 3.61285289e-03 0. 0. 0. 1.33518931e-02 0.
      -1.58032011e-02 0. -4.40617697e-03 -1.70350764e-02 -6.08754717e-03
      0. 2.01561186e-03 -1.52685947e-03 -7.94418884e-06 4.36547212e-03
      -7.16258632e-03 0. 4.71273932e-04 0. 9.18292254e-03 9.85374209e-03
      5.46417292e-03 2.07036035e-03 -8.44976283e-04 2.81845429e-03
      -8.80159624e-03 0. 0. 0. -6.72300885e-05 0. 2.32795272e-02 0.
      1.85608361e-02 9.10588261e-03 4.66807309e-04 0. 0. 0. 0. 0. 0.
      -2.03901622e-02 3.58342822e-03 0. 6.39786245e-03 0. 1.67713109e-02
      1.21707087e-02 -1.16483061e-05 0. 9.99747217e-03 0.
      -1.94604006e-02 -1.56179687e-03 4.93062381e-03 2.74814218e-02
      -1.05138794e-02 -1.37577706e-03 -3.49906203e-03 1.04996124e-02 0.
      7.97293987e-03 -1.36394473e-03 0. 1.23311942e-02 0. 0. 0.
      1.10277953e-02 -2.07163915e-02 5.96630014e-03 2.29521259e-03 0.
      -2.63728369e-02 1.95943359e-02 -6.11016946e-03 4.52781300e-04
      1.34542119e-02 -1.23366034e-02 1.23422118e-02 0. -1.95736066e-04
      0. 0. 2.10703583e-03 1.84741411e-02 0. -1.63110369e-03
      5.65325283e-03 0. 0. 1.07532535e-02 1.14194863e-02 0.
      -1.23807406e-02 -1.73723046e-02 0. -4.67805797e-03 3.19430314e-04
      -5.80331485e-04 2.38675275e-03 2.21240968e-02 0. 1.41049316e-02
      1.36762275e-03 0. 1.01435895e-03 0. 1.08675426e-03 0. 0.
      1.48499953e-02 -1.37281290e-03 3.30927642e-03 1.62218791e-02
      -4.79737343e-03 1.68423019e-02 -7.39543233e-03 0. 0. 0.
      7.34880217e-04 -1.60665270e-02 0. -4.34286456e-04 0. 0. 0. 0.
      -2.02504843e-02 5.60557563e-03 7.15345610e-04 2.21810285e-02
      1.91087689e-04 0. 0. 9.50112939e-03 -8.64685513e-03 0.
      1.01220505e-02 0. 0. -4.63473098e-03 -1.06675718e-02 0. 0.
      3.17539263e-04 2.44266237e-03 -7.61962775e-03 -3.10038729e-03
      -6.34813495e-03 -1.05487590e-03 0. 0. -1.32399192e-02
      1.81821510e-02 0. 0. 0. -8.98683618e-04 4.88372706e-03 0. 0.
      3.74932098e-03 -1.59536011e-03 0. 1.10298384e-03 -1.66114420e-02
      0. 3.72457289e-05 0. 1.42229744e-03 -1.84929427e-02 3.01342877e-03
      -1.29604368e-02 -8.25155247e-03 -3.56043130e-03 0. 2.36755674e-04
      0. 0. -1.65041629e-02 1.27977994e-03 2.21939944e-02 0.
      1.14191985e-02 -6.30129268e-03 6.54859003e-03 8.02742690e-03
      -9.29403977e-05 3.97312659e-04 -8.05738848e-03 -1.04610901e-02 0.
      -1.07570570e-02 0. 5.14377723e-04 0. -4.61806543e-03
      -3.16987955e-03 1.63380828e-04 0. 0. 1.62330624e-02 0.
      7.51708460e-04 4.12535015e-03 2.78651901e-02 0. -8.68239906e-04
      4.73114615e-03 0. 0. 0. 4.44205711e-03 0. 0. 0. 1.01820873e-02
      -1.50961580e-03 -3.36910319e-03 -1.60647519e-02 0. 2.33680829e-02
      -4.24763421e-03 0. -7.28613418e-03 -1.59893360e-03 1.32800285e-02
      -3.57329613e-04 -3.03941808e-04 -7.43376929e-03 2.61514768e-04
      2.50112382e-03 1.32617410e-02 0. -4.22393298e-03 -5.96660364e-04
      -9.96989012e-03 0. 0. 5.55428956e-03 6.72492140e-04
      -3.37009178e-03 -2.19141878e-02 -1.70316687e-03 -1.64958369e-02
      2.43537733e-03 -1.74211748e-02 -1.15186600e-02 -8.78130086e-03 0.
      5.31779043e-03 0. 1.47227794e-02 -1.43103744e-03 7.70097773e-04
      -3.89575935e-03 -1.96804665e-03 2.13110745e-02 4.39316453e-03 0.
      5.24889398e-03 -9.13491007e-03 0. -1.62717261e-04 0.
      -1.59308314e-03 2.58520595e-04 0. 8.54333557e-05 2.03072466e-03 0.
      0. 3.21228951e-02 -2.65070796e-03 0. -2.77307387e-02 0.
      6.68862369e-03 0. -1.95873994e-03 5.22134267e-03 0. 0. 0.
      2.17806926e-04 0. 1.94279396e-03 -4.73212637e-03 2.29007266e-02
      -1.21680424e-02 6.90907909e-05 -1.21637822e-04 -8.17001890e-03 0.
      0. 1.05675776e-02 0. -5.44205774e-03 0. 0. -1.07359579e-02 0.
      1.11099435e-02 0. -3.23215127e-02 1.28149586e-02 0. 4.52690700e-04
      0. 0. 0. -1.04033074e-03 -7.44928839e-03 -1.43230511e-02 0.
      2.86498480e-03 0. 0. 0. 0. -2.35373080e-02 -3.22837173e-03
      -1.52844246e-02 7.87888654e-03 0. -6.38025347e-03 0. 0.
      -2.10579466e-02 2.21044850e-02 6.75410032e-03 -8.14281870e-03
      -2.89886165e-03 1.63838919e-03 0. 0. 0. 0. -3.40562779e-04 0.
      -2.64903461e-03 0. 4.17903066e-03 0. 0. 0. 2.85330471e-02 0.
      3.90150258e-03 0. 0. -4.13167756e-04 5.56698907e-03
      -1.37863704e-03 6.36677432e-04 -8.47100932e-03 -2.46573682e-03 0.
      0. 8.45018122e-03 2.47584772e-03 -7.63323274e-04 -8.28166772e-03
      1.68931947e-04 -1.55216586e-02 7.79045513e-04 -2.13298537e-02
      6.92791131e-04 0. 6.16793940e-03 0. -1.78746022e-02</_>
    <_>
      0. 6.94677792e-03 -1.07221340e-03 -8.35994666e-04 -7.10132346e-03
      4.26062848e-03 2.00975016e-02 0. 0. 0. 0. 1.56424032e-03
      -5.25245070e-03 0. -6.68047555e-03 -8.88252724e-03 1.34463832e-02
      5.40302019e-04 1.67762057e-03 -4.34125308e-03 -4.65902209e-04 0.
      1.61239540e-03 4.14063176e-03 1.13797619e-03 -2.61201640e-03 0.
      -1.00944722e-02 0. -4.30660835e-03 2.87386798e-03 -7.39354582e-04
      0. -5.26242564e-03 1.30913302e-03 -8.01084898e-05 -9.93408542e-03
      -1.98262674e-03 1.85764115e-03 -2.13044900e-02 0. -7.07582617e-03
      0. 7.22574536e-03 0. 4.28918563e-03 0. -1.34164123e-02
      1.65228993e-02 1.12907998e-02 -8.49438272e-03 -9.64042172e-03 0.
      -7.84534903e-04 -6.61670743e-03 1.07491959e-03 -8.46156254e-05
      5.99647348e-04 -1.91191863e-02 0. 0. 0. 0. -9.89855826e-03
      5.04909223e-03 -1.29628060e-02 3.90962372e-03 1.68871789e-04
      -1.12680951e-03 1.67021854e-03 0. 2.49144845e-02 -1.88124389e-03
      0. -8.52196291e-03 -1.00603448e-02 1.14777135e-02 1.23709412e-02
      0. 9.42674815e-04 -3.75961955e-03 -3.34516494e-03 -2.49666739e-02
      0. 1.16278110e-02 0. 1.54208774e-02 -1.33021371e-02 7.94656458e-04
      3.86041938e-03 -1.39484731e-02 -9.91456676e-03 2.47837696e-03 0.
      0. 0. 1.77801051e-03 0. 0. -1.42199481e-02 0. -3.13373841e-02
      4.41231648e-04 -4.33456805e-03 -4.81835939e-03 -1.71529539e-02
      -1.82810705e-02 0. 2.42748560e-04 0. 1.00852950e-02 0.
      1.33508183e-02 2.05924502e-03 0. 0. 3.44785955e-03 2.92817876e-03
      0. 0. -1.36374859e-02 0. 0. 0. 0. -2.70713009e-02 4.57761250e-03
      0. 1.82921235e-02 1.48636661e-02 -1.63142011e-02 9.57722403e-03
      -1.15660699e-02 0. 0. 1.77946710e-03 -2.18416397e-02
      1.20771630e-02 -1.90399960e-02 -6.65370794e-03 9.45005566e-03 0.
      0. 0. -5.28500136e-03 -3.76673834e-03 -1.51863899e-02 0.
      -6.87086198e-04 3.56276263e-03 -5.02905401e-04 0. 2.85269838e-04
      0. 2.41678488e-02 -1.75849046e-03 6.18013879e-03 8.47170246e-04 0.
      7.46769924e-03 1.48753310e-02 -1.30201755e-02 -6.14643795e-05
      -1.81069486e-02 7.79934169e-04 8.99521809e-04 0. 0. 0. 0.
      2.72825896e-03 0. 9.45055299e-03 0. -1.10891648e-03 0. 0.
      1.53215090e-03 5.18643938e-04 0. -1.35200405e-02 1.01136258e-02 0.
      0. 0. 0. 6.19412516e-04 9.16493445e-05 1.01991957e-02
      -1.82074811e-02 0. -7.56440498e-03 -1.35065324e-03 1.83625511e-04
      -1.23337395e-02 -6.34873140e-06 4.93384525e-03 0. 1.95670873e-03
      -4.21151333e-03 1.22073747e-03 -3.52299446e-03 8.58732383e-04
      3.32182343e-03 0. -2.17561722e-02 1.37998452e-02 0.
      -1.82821341e-02 6.53178315e-04 0. 1.65464841e-02 0. 0.
