<?xml version="1.0"?>
<opencv_storage>
<my_svm type_id="opencv-ml-svm">
  <svm_type>C_SVC</svm_type>
  <kernel><type>LINEAR</type></kernel>
  <C>1.0000000000000001e-01</C>
  <term_criteria><epsilon>9.9999997473787516e-05</epsilon>
    <iterations>100</iterations></term_criteria>
  <var_all>4096</var_all>
  <var_count>4096</var_count>
  <class_count>10</class_count>
  <class_labels type_id="opencv-matrix">
    <rows>1</rows>
    <cols>10</cols>
    <dt>i</dt>
    <data>
      0 1 2 3 4 5 6 7 8 9</data></class_labels>
  <sv_total>45</sv_total>
  <support_vectors>
    <_>
      0. -6.52943505e-04 -9.35367192e-04 -3.08681838e-03 1.32454028e-02
      3.24978982e-03 7.87335541e-03 0. 0. 0. 0. 2.29295460e-03
      -3.27376695e-03 -2.60089757e-04 3.78626143e-03 5.93040511e-03
      8.81775562e-03 2.40457099e-04 -9.32672340e-03 3.08132102e-03
      -1.11672962e-04 0. 6.19225157e-03 -1.21398503e-02 1.06912106e-03
      -5.82654211e-05 0. -7.32770702e-03 0. 7.53171626e-05
      9.96002182e-03 -1.28073329e-02 0. -7.81432143e-04 -9.86327976e-03
      4.36461857e-03 8.02339229e-04 5.49794466e-04 1.06858918e-02
      -6.20505866e-03 0. -4.77288803e-03 0. 1.45237776e-03 0.
      2.83521693e-03 0. 1.01033682e-02 7.11931661e-03 6.32249471e-03
      4.86275705e-04 -8.07928108e-03 0. 6.54475437e-03 -2.12329649e-03
      4.13425529e-04 6.98783668e-04 -2.44813273e-03 -3.53973184e-04 0.
      0. 0. 0. 6.50902046e-03 2.31367114e-04 -6.27508201e-03
      3.33686185e-04 -3.72382230e-03 6.78808056e-03 1.17875384e-02 0.
      1.19292838e-02 1.95973902e-03 0. -5.93250711e-03 -3.12349643e-03
      6.75167330e-03 1.81035548e-02 -1.55525736e-03 -6.03248039e-03
      4.64906450e-03 1.41503697e-03 -9.13549680e-03 0. 1.20211216e-02
      -3.14700912e-04 -4.92734835e-03 -7.04967417e-03 -1.33978738e-03
      -5.14064683e-03 -1.38420239e-03 -6.35009678e-03 8.44756234e-03 0.
      0. -1.13219139e-03 -5.00771403e-03 0. 0. -2.01461799e-02 0.
      -2.75216880e-03 -2.07345234e-03 -2.56100507e-03 -5.47956536e-03
      -8.45731143e-03 4.78570582e-03 0. -5.75009082e-03 0.
      6.09635236e-03 0. 1.39915617e-02 8.22142325e-03 0. 0.
      -6.02028507e-04 -2.05739331e-03 0. 0. -2.86870892e-03 0. 0. 0. 0.
      -1.20617328e-02 -2.28310208e-04 0. 1.39850585e-04 -1.14484942e-02
      1.52481813e-03 -7.02300901e-03 -1.59802637e-03 0. 0.
      -6.15614234e-03 -1.93726625e-02 -3.83682013e-03 3.98151809e-03
      6.25568209e-03 8.65191035e-03 0. 0. 0. -1.01943768e-03
      3.81026184e-03 6.60224631e-03 -5.32049744e-05 0. -6.23438647e-03
      -2.99175503e-03 -2.71986064e-04 0. -2.44639494e-04 1.31589118e-02
      -1.55927800e-03 7.97833130e-03 2.34388979e-03 0. 1.38864638e-02
      5.02297236e-03 -1.12370374e-02 -2.97927018e-03 7.88025092e-03
      2.53119902e-03 -5.23697992e-04 0. 0. -5.45907787e-05 0.
      1.99637818e-03 0. -2.32642214e-03 0. -1.79935456e-03 0. 0. 0.
      -1.03265827e-03 0. -1.02715520e-02 -1.72396516e-03 0. 0. 0. 0.
      1.86819711e-03 -9.59449622e-04 -2.78467429e-03 -4.38146386e-03 0.
      2.05293996e-03 -1.86238457e-02 1.44462392e-04 2.03314048e-05 0.
      1.21557096e-03 0. -3.13021301e-04 1.45262284e-02 -3.92544596e-03
      2.05817190e-03 -3.27096292e-04 3.09485331e-04 1.03055470e-04
      -1.22955367e-02 -1.23329251e-03 0. 1.32913198e-02 8.30288263e-05
      -4.89985046e-04 -1.41594408e-03 0. 0. -8.26997973e-04 0. 0.
      3.65920179e-03 -4.81987093e-03 2.07099337e-02 3.27145099e-04
      2.23830339e-05 5.69700683e-03 -9.88118071e-03 1.24020415e-04
      1.70296710e-02 3.26202530e-03 1.35573244e-03 0. 0. 0.
      -2.90013198e-03 1.12775797e-02 0. -2.82338192e-03 -3.68551724e-03
      1.20529784e-02 0. 1.26585532e-02 3.44688608e-03 -1.80443991e-02
      -9.95719922e-04 -6.00322895e-03 0. -2.82037130e-04 -8.01992370e-04
      -1.39254816e-02 0. 0. 3.25489417e-03 -6.48401678e-03
      -5.44195203e-03 -4.06778371e-03 7.82349729e-04 0. -7.24096922e-03
      -2.34877993e-03 -3.81255010e-03 0. -1.45383077e-02 0.
      3.20039806e-03 2.76635657e-03 -2.00656941e-03 0. -1.03103267e-02
      3.49342299e-05 2.52166967e-04 0. 1.44530628e-02 -2.63037253e-03 0.
      9.30561742e-04 0. 2.93636788e-03 0. 0. 0. 0. -2.40138196e-03
      2.84919166e-03 -2.65580788e-03 0. 6.69892703e-04 -3.83275212e-04
      4.01227211e-04 6.35157572e-03 -5.14655653e-03 0. -2.42563849e-03
      -1.03466818e-02 0. 0. 0. 0. 0. -1.99357001e-03 1.58237002e-03
      -1.12848461e-03 0. 0. 0. -2.32286612e-03 0. -8.49118282e-04
      -7.28294812e-03 0. 1.68266997e-05 0. 0. 2.00808223e-04 0.
      1.27033249e-03 1.16015966e-04 0. 1.44684445e-02 -3.00443103e-03 0.
      0. 0. 3.46684037e-03 2.81164725e-03 0. -3.39463563e-03
      6.71283051e-04 0. 0. 1.15007232e-03 1.13383709e-02 -7.88341090e-03
      -2.24348577e-03 -5.10897581e-03 -4.12901485e-04 0. 4.90810117e-03
      2.98687810e-04 0. -5.37246669e-05 0. 1.66679602e-02
      -9.82465409e-03 -1.22001236e-02 0. 0. 0. 0. 0. 2.15484854e-02 0.
      0. -2.81177065e-03 1.99674722e-02 -4.22122981e-03 0.
      1.81018942e-04 0. 0. 0. -2.20859353e-03 -1.90135650e-03
      -4.23964160e-03 0. -9.28470865e-03 4.58726799e-03 2.48539937e-03
      1.60871772e-03 -1.35251116e-02 0. -3.30262817e-03 1.41277433e-05
      0. 4.83622728e-03 -3.77979828e-03 0. -2.15453375e-03 0.
      -4.85671539e-04 0. -2.12419996e-04 0. 0. 2.02647597e-02
      2.28377618e-03 0. 0. 0. -4.27797611e-04 -4.99349181e-03
      -2.79746600e-03 5.06469607e-03 0. 0. 0. 0. 6.91752927e-03
      1.52129009e-02 2.10006293e-02 0. 4.59484378e-04 0. 6.15410623e-04
      2.29997886e-03 0. 2.26433272e-03 -3.19596991e-04 -6.17220346e-03
      0. 0. -7.22090341e-03 3.36424261e-03 7.79201789e-03
      -2.07986785e-04 0. 1.90012797e-03 0. 4.39557713e-03 0. 0.
      1.07017839e-02 1.49002892e-03 -5.57485223e-03 -1.20298530e-03
      1.51001941e-02 5.54405036e-04 6.82760030e-03 -2.27342374e-04
      3.57962982e-03 0. -1.25839254e-02 4.55196667e-03 2.29821471e-03
      -1.39051885e-03 -7.89110723e-04 -6.33984571e-04 -1.24659203e-03 0.
      0. -3.13579512e-05 -5.26468782e-03 0. -3.99091141e-03 0. 0.
      1.34732034e-02 3.89105408e-03 -8.59617908e-03 -2.77588930e-04 0.
      -1.14731016e-02 -4.23773285e-03 0. -1.36786494e-02 0.
      7.84558710e-03 0. 0. 3.85443680e-03 0. -5.67559246e-03
      7.55966548e-03 9.67487879e-03 -1.55443500e-03 3.00298422e-03
      6.27982197e-03 5.20493416e-03 0. 0. 2.92479037e-03 7.90514285e-04
      0. 0. 0. 0. 0. 0. 0. 2.11991388e-02 0. 0. -2.20539936e-04 0. 0.
      -3.22215189e-03 5.99931845e-05 -1.18587157e-02 -1.29348109e-03
      3.19660758e-04 0. 0. -2.16853200e-03 0. -8.43400881e-03
      1.36040489e-03 2.38329126e-03 -1.52173324e-03 -1.97626208e-03
      6.42409502e-03 6.69720164e-03 0. 3.93756526e-03 0. 0. 0.
      -2.17326218e-03 0. 6.94896188e-03 -5.86008048e-03 0.
      6.63193408e-03 -4.95912274e-03 -1.60546531e-03 3.37204151e-03
      1.10991986e-03 0. -3.43849591e-04 0. 0. 0. -1.57419126e-04 0. 0.
      0. -7.75292842e-03 0. -1.14755693e-03 0. 0. 1.10550299e-02
      -1.48460232e-02 1.00895052e-03 5.48803189e-04 3.57235549e-03
      -3.96989286e-03 -3.12450502e-05 0. 0. -6.19150465e-03 0.
      -5.06598549e-03 0. -2.51713995e-04 0. 0. -5.24671923e-05
      -1.26714725e-03 0. 0. 0. 0. 3.06643941e-03 -7.15544680e-04 0. 0.
      6.14901586e-03 0. -5.32218348e-03 -3.15385428e-03 -7.46064214e-03
      0. 0. 0. 0. 0. 0. 3.09811858e-03 7.15453271e-03 0. 0.
      -3.08242696e-03 -6.23455131e-03 0. 4.00081044e-03 9.06990026e-04
      5.14448341e-03 0. -4.59474325e-03 7.50829407e-04 -2.06319196e-03
      -2.48575746e-03 0. 4.96474677e-04 -5.00165345e-03 0.
      6.20131521e-03 -1.09454500e-03 0. 8.93671904e-03 -1.00839324e-03
      -9.87136643e-03 -2.70274258e-03 -2.21409439e-03 -1.32064591e-03 0.
      -2.13965250e-04 2.40610335e-02 0. 0. 4.85459110e-04 4.63867560e-03
      3.23233916e-03 -9.22705745e-04 0. -6.02371944e-03 0. 0.
      -1.24025231e-04 1.78252552e-02 0. 0. 0. 5.40224137e-03
      -3.08197085e-03 0. -2.70860415e-04 -1.06144615e-03 -1.68443983e-03
      0. -8.34203325e-03 -8.05692343e-06 -1.16927354e-02 -2.37230062e-02
      -2.83403392e-03 0. 0. 0. 0. 0. 0. -2.22304277e-03 2.83177214e-04
      0. 0. 5.88395167e-03 1.37299637e-03 3.18667735e-03 0. 0. 0.
      8.49202182e-03 -6.14586170e-04 0. -4.30317159e-04 0.
      -2.16208224e-04 -2.99306877e-04 1.82549227e-02 0. 7.34258816e-03
      3.46327573e-03 0. 1.52112253e-03 0. 3.29290633e-05 -1.75750465e-03
      2.20145856e-04 -1.15169911e-02 -2.44181361e-02 -4.57362365e-03
      -2.33568673e-04 0. 0. 4.92564775e-03 -9.65364336e-04
      2.06650305e-03 1.79049803e-03 0. -1.15538174e-02 2.46409327e-04
      -2.95846170e-04 3.17884330e-03 1.67629251e-03 -5.06105425e-04
      7.71611976e-03 2.34475918e-03 0. -9.06899851e-03 6.66951900e-03 0.
      2.97353545e-04 -4.53131599e-03 -1.03665143e-02 1.31723033e-02
      8.92437436e-03 0. 0. -4.40433761e-03 0. 0. 1.66335944e-02
      1.30176628e-02 8.08440335e-03 -7.09110452e-03 0. -2.18486786e-02
      0. 4.11042525e-03 5.31891873e-03 -1.40091125e-03 -1.55567154e-02
      0. 1.60009041e-03 0. 8.36914871e-03 7.99016911e-04 1.00995908e-02
      0. -8.42970330e-03 1.52899430e-03 -1.77480222e-04 -1.71732216e-04
      0. 0. 0. 6.62234670e-04 1.70628622e-03 -2.47647054e-03 0.
      1.76016183e-03 1.53215397e-02 2.43163435e-03 0. 0. -9.35863238e-03
      7.64570956e-04 9.36266733e-04 -3.04784835e-03 2.36810744e-03
      -7.92716257e-03 0. 8.53173807e-03 8.61381646e-03 -9.59511101e-03
      -4.96410904e-03 -3.01783060e-04 -2.81885359e-03 -1.87819246e-02
      9.54740774e-03 8.21331330e-03 -2.59468006e-03 1.47089560e-03
      -1.07371686e-02 1.82291097e-03 0. -2.23354739e-03 0. 0. 0.
      1.82962348e-03 6.49461290e-04 4.63940762e-03 -7.84046203e-03
      2.19819121e-04 -2.55081034e-03 5.71755413e-03 4.87568090e-03
      -2.22986937e-03 0. 6.75008725e-03 -1.96562870e-03 0. 0. 0.
      -7.93143292e-04 -1.77275524e-05 0. 2.55592261e-03 0. 0. 0. 0. 0.
      -3.38229560e-03 1.95684340e-02 0. 0. 0. 0. 0. 3.13040428e-03
      -1.83429118e-04 0. -3.66004475e-04 3.39811482e-03 -1.37879839e-03
      2.32067052e-02 1.11106867e-02 0. -2.75089825e-03 0. 7.34543195e-04
      6.49543060e-03 2.08154111e-03 -7.41580548e-03 0. 2.99407658e-03 0.
      5.88085083e-03 -8.47570784e-03 0. -3.03972891e-04 -3.02850688e-03
      -5.73096797e-03 0. 0. -7.08723161e-03 8.68544169e-03
      -4.00715740e-03 0. 1.83182477e-03 -1.42590981e-03 1.51432498e-04
      0. 1.88991486e-03 1.76069827e-03 3.49614210e-03 -7.37881800e-03 0.
      1.58602570e-03 -1.56013865e-03 1.19886193e-02 7.11383810e-03
      1.22064457e-03 -6.95989002e-03 6.96382311e-04 0. 4.75775078e-03
      -1.03442515e-04 1.95750245e-03 0. 0. -1.17694912e-02 0. 0. 0.
      -9.86136682e-03 1.17002204e-02 0. -5.60406782e-03 -6.72167493e-03
      0. 5.09669213e-03 2.29520001e-03 0. 0. 0. 3.41787050e-03 0.
      -3.63402092e-03 -7.39234732e-04 0. 2.04128120e-03 -9.56755423e-04
      0. 4.26912308e-03 -1.57904662e-02 0. 3.76993528e-04 1.49611253e-02
      0. -6.58166502e-03 5.36182057e-03 2.26305751e-03 1.79196857e-02
      1.31154340e-02 6.69998291e-04 4.44536097e-03 2.45301309e-03
      3.46318528e-04 0. -4.21225966e-04 0. 0. 0. 8.22126307e-03
      3.96977048e-05 0. 7.58654031e-04 1.37620675e-03 -8.44168593e-04
      -3.09779006e-03 0. 1.87193006e-02 0. 0. 1.57997027e-04 0. 0.
      -2.01504282e-03 0. -3.94138601e-03 -2.14248034e-03 -4.76009212e-04
      0. 2.23804367e-04 0. -5.50953858e-03 7.07919430e-03 0.
      1.89476181e-02 0. 0. -1.14881471e-02 -9.65639134e-04
      -2.49087787e-03 0. 0. 6.31467579e-03 2.98871542e-03 3.95867182e-03
      -4.86265216e-03 -1.14106992e-02 -2.09118668e-02 4.88601113e-03
      -9.26742423e-03 5.35283517e-03 0. 0. -2.09242062e-04 0.
      4.96489047e-05 -1.07382433e-02 -9.41815320e-04 0. 0.
      5.36230346e-03 0. 3.74921830e-03 0. -1.50195891e-02 2.53994251e-03
      -6.07501017e-03 7.68042170e-03 1.21228106e-03 1.71653100e-03
      3.29436595e-03 9.66237858e-05 0. 4.05346695e-03 0. 4.23332630e-03
      5.60491681e-05 -9.18540731e-03 0. 0. 0. 0. 0. 0. 3.04140151e-03
      4.85349307e-03 -6.01837877e-03 0. 7.31514255e-03 0. 4.72634943e-04
      0. 0. 1.41608500e-04 -6.04228908e-03 0. 7.37763650e-04
      6.23560883e-03 2.65031848e-02 -4.62930277e-03 0. 1.78790977e-03
      3.26332683e-03 -4.95613832e-03 -3.51781910e-03 9.86375264e-04
      -3.88714625e-03 0. -1.36478767e-02 1.59691263e-03 3.37370532e-03
      -3.16955685e-03 0. 1.04856659e-02 6.31109625e-03 0. 0.
      -2.16309959e-03 -3.88018391e-03 0. 0. 0. 1.07115158e-03
      -1.05784775e-03 1.48194451e-02 0. 1.46966353e-02 -5.24810806e-04
      7.20685348e-04 1.32114242e-03 0. 2.68944749e-03 -1.01035247e-02
      8.33567325e-03 3.63329402e-03 -3.63109168e-03 6.30633731e-04
      -6.32987067e-04 -4.66990517e-03 1.26544782e-03 0. 5.44220489e-03
      0. -2.11385515e-04 4.60048160e-03 4.01042402e-03 0.
      -4.03891085e-03 9.86122433e-03 -3.40288389e-03 -2.27820361e-03
      2.96031008e-03 1.74240787e-02 0. 3.19046056e-04 -2.90894532e-04 0.
      0. -2.91512624e-05 -6.05111290e-06 6.71706453e-04 -2.09696445e-04
      0. 0. 0. -6.89842412e-03 0. -8.33790284e-04 0. -1.40433442e-02 0.
      -9.87341511e-04 3.37933865e-03 0. 4.97761928e-03 -8.34473933e-04
      1.57823996e-03 2.16162205e-03 0. 6.10650517e-03 -1.47491146e-03 0.
      8.69117095e-04 0. -8.08115490e-03 0. 0. -4.98192478e-03
      -8.85567861e-04 -8.15711450e-03 0. -3.14959878e-04 1.16751790e-02
      -5.06108580e-03 0. 0. 0. 0. 1.72932521e-02 -1.24148224e-02
      -6.39938924e-04 7.35303038e-05 0. -1.56317675e-03 0. 0. 0.
      -4.56191134e-03 1.09050365e-04 -1.55576912e-03 -4.14956640e-03
      2.16655130e-03 0. -4.68778051e-03 6.34555984e-03 7.59655703e-03
      2.08814219e-02 -5.10714017e-03 0. 0. 0. 2.24831086e-02
      1.53643230e-03 0. -1.16273912e-03 0. 3.92618636e-03 0.
      -3.25345807e-03 0. 0. -2.06853859e-02 0. 0. 2.02864571e-03
      3.46603891e-04 8.44155002e-05 0. 0. 4.05746890e-04 -9.18725622e-04
      0. 0. -1.69622072e-03 -1.19865825e-02 1.10084005e-02
      -1.19238812e-02 4.63035284e-03 8.49507851e-05 0. -1.24733744e-03
      9.02462984e-04 0. 0. -7.25053810e-03 -5.39469952e-03
      7.91022554e-03 -8.03376257e-04 0. 0. -7.66094029e-03 0. 0.
      3.10792006e-04 0. 3.34445061e-03 -3.28382221e-03 -2.86756014e-03
      -1.06192520e-02 5.02926596e-05 0. 2.19648071e-02 2.49300315e-03 0.
      3.50892940e-03 1.75256981e-03 -5.67350304e-03 2.74253194e-03 0.
      2.13746144e-03 0. -6.71977317e-03 0. 0. 0. 1.12382397e-02 0.
      6.10382389e-03 -4.69660200e-03 0. 0. 3.47573892e-04
      -9.17372745e-05 0. -3.25290347e-03 1.53848168e-03 0.
      3.15885083e-03 -2.81103142e-03 0. 8.59895535e-03 1.64245575e-05 0.
      -2.38904846e-03 -8.08007456e-03 -1.44851522e-03 -3.66619555e-03 0.
      -2.21957525e-04 -8.66516959e-03 -1.37168274e-03 -1.45639013e-02
      -6.43884717e-03 -1.51835426e-04 0. -8.46465956e-03 7.11505860e-03
      9.03886370e-03 -9.62899718e-03 -1.18827140e-02 -1.11111491e-04
      -1.42346602e-03 1.53693808e-02 -4.59186733e-04 -7.89052062e-03
      2.78522639e-04 -4.38595627e-04 1.60289241e-03 0. 0.
      -5.04340678e-05 1.04343370e-02 -1.14195934e-03 -1.07062636e-02
      -3.00168502e-03 0. 7.79284164e-04 0. 0. -2.66264216e-03
      3.17011261e-03 8.54868721e-03 -1.37025714e-02 1.36425309e-02 0.
      5.75790834e-03 1.91979166e-02 2.04955274e-03 0. -5.96755417e-03 0.
      -1.63135992e-04 8.80572014e-03 -1.08878780e-03 0. 0.
      -3.33713507e-03 -9.62355919e-03 0. 0. 0. 1.20013710e-02
      1.55062666e-02 -2.75646802e-03 -4.22891142e-04 1.49215413e-02
      -1.40842295e-03 0. -5.01781330e-03 -3.38416500e-03 -2.02935352e-03
      2.82666786e-03 5.13391616e-03 4.64177271e-03 0. 0. -1.52290799e-03
      7.73732085e-03 0. -4.41688998e-03 -3.81901511e-03 0.
      1.38872163e-02 0. 5.96766267e-03 -1.82226286e-04 0. 0.
      3.39796557e-03 -8.64420086e-03 0. 1.76920276e-02 5.88339614e-03 0.
      -8.78365897e-03 1.66854251e-03 -6.68731425e-03 1.02213668e-02
      2.70279939e-03 1.17218969e-02 0. 5.13002044e-03 3.55311576e-03 0.
      0. 0. 0. 0. 0. 0. 0. 9.79461428e-03 0. 0. 0. 9.44176596e-03
      2.35287298e-04 3.27919470e-03 0. 0. 3.39281838e-03 1.42587116e-02
      -2.98521901e-03 0. 0. 2.08262466e-02 0. 6.69617532e-03
      -1.59559678e-02 0. -6.45542564e-03 -1.61852408e-02 0.
      1.99552393e-04 1.62163831e-03 0. 0. 0. 0. 3.83810094e-03
      6.06616522e-05 -6.45358302e-03 9.23808257e-05 0. 0. 0.
      7.95749482e-03 -2.25978717e-02 0. -2.14000065e-02 8.31007306e-03
      -6.02835906e-04 -6.46464620e-03 0. 1.09462589e-02 4.04926809e-03
      1.06463418e-03 0. -2.24353652e-03 -3.27142444e-03 0. 0.
      2.01587137e-02 -2.36931304e-03 -2.46496056e-03 1.66558232e-02
      9.77434311e-03 -9.33726260e-04 8.48694798e-03 0. 0.
      -1.30746968e-03 4.16996377e-03 -1.50275296e-02 0. -5.17823780e-03
      0. -2.17006914e-03 0. 0. 0. 0. 9.74160340e-03 2.01333594e-03
      5.28906053e-03 -1.89628769e-02 4.95012151e-03 4.43407940e-03 0.
      4.33379668e-04 0. -7.58170499e-05 3.33798258e-03 0.
      -1.48749285e-04 3.78867984e-03 1.84895669e-03 3.55289259e-04
      5.41085470e-03 2.08393298e-02 9.85870790e-03 -4.59841045e-04
      -1.92659325e-03 3.60818434e-04 8.28881806e-04 5.85619453e-03
      4.97769681e-04 7.18959514e-03 -4.68799472e-03 0. 0. 0.
      3.29703605e-03 1.81374175e-03 -8.52658041e-03 4.71876794e-03 0.
      -6.57618232e-03 1.97012816e-03 0. -5.38877631e-03 -3.80590383e-04
      -1.08678993e-02 -5.43871941e-03 6.04394451e-03 -1.79067312e-03 0.
      4.35827812e-03 0. -3.00140865e-03 -6.09829091e-03 0.
      -5.48097910e-03 2.88003008e-04 1.90718973e-04 5.70494169e-03
      2.01319199e-04 2.99179344e-03 1.97704625e-03 0. -7.90820178e-03
      3.11655749e-04 2.49854997e-02 -1.51158986e-03 0. -2.79039936e-03
      -2.33759196e-03 -3.69903748e-04 0. 1.01679866e-03 0. 0.
      -7.71929917e-05 7.20876316e-03 -1.43982493e-03 0. 0.
      -2.00270931e-03 -1.00117940e-02 0. -3.82458325e-04 1.51096040e-03
      0. 0. 0. 0. 0. 1.46348104e-02 9.29340255e-03 0. 0. 0.
      -1.43220797e-02 0. 3.90431122e-03 0. 0. 0. -1.09485048e-03
      -7.28189573e-03 2.45993794e-03 1.85606349e-03 -7.34770583e-05
      -5.56827290e-03 1.84444862e-03 0. -5.41859679e-03 -3.02946773e-05
      -1.21058165e-05 -9.63556394e-03 -4.27800557e-03 7.17613474e-03
      7.33692665e-04 4.78323875e-03 7.03495880e-06 -1.77570072e-03
      1.61525491e-03 1.74706839e-02 3.53853824e-03 3.28343385e-03 0.
      -4.21239296e-03 9.04930849e-03 0. 0. 3.75978649e-03 3.18120699e-04
      0. -8.06358922e-03 0. -1.26051903e-02 0. -2.75035505e-03
      4.98907687e-03 -4.51723393e-03 -2.36380845e-03 8.45421292e-03
      -1.29466206e-02 3.53552925e-04 7.70279579e-03 0. -9.82695128e-05
      2.33658659e-03 -3.33493156e-03 0. -8.22692830e-03 0.
      -9.29607358e-03 0. 0. 0. 0. -1.22584007e-03 0. 1.40239689e-02
      6.97408943e-03 -8.08330078e-04 1.40323245e-03 0. -6.24836364e-04
      4.17231862e-03 0. 0. 1.00505538e-02 0. 0. -4.11338871e-03
      4.92850272e-03 -2.85317632e-03 -4.18657291e-04 0. 0.
      -5.33015281e-03 0. 0. 8.16089008e-03 -3.60326143e-04
      4.57854196e-03 0. -4.34734998e-03 -6.52531278e-04 0.
      -3.07013537e-03 9.10685118e-03 0. 5.54157933e-03 -7.45240459e-03
      0. 2.32438631e-02 0. 0. 0. 0. 1.31851761e-02 0. 0. 1.07869774e-03
      7.22554978e-04 0. 9.92330839e-04 0. -8.91204618e-05 0.
      1.70010107e-03 5.67763299e-03 0. 0. 0. 0. 0. 0. -8.80042929e-03
      3.66502372e-03 -1.52244000e-04 -7.96522480e-03 -3.32700950e-03
      -3.42740235e-03 5.73395053e-04 1.20753648e-05 0. -1.16454321e-03
      0. 1.28986000e-03 -1.78339367e-03 -9.46248323e-03 2.61451653e-03
      0. -8.05517100e-03 3.47601133e-03 5.16972737e-03 -1.57242324e-02
      4.13392991e-04 0. 2.73786928e-03 9.25754476e-03 -3.60011240e-03
      3.98318795e-03 0. 0. -4.27528546e-04 0. -5.83859102e-04 0.
      7.45428086e-04 -8.48947465e-03 -1.14394235e-03 0. -1.44049125e-02
      0. 4.79670195e-03 4.46119439e-03 -5.37072495e-03 -1.65982905e-03
      0. 0. 2.23657023e-02 0. 8.15601833e-03 8.01714323e-03
      -6.58331963e-04 0. 5.22876857e-03 6.13380037e-03 9.28324182e-03
      1.35853291e-02 -4.99477261e-04 -6.19998109e-03 0. 5.43952687e-03
      0. 0. -2.04050029e-03 1.92429917e-03 1.30651686e-02
      -2.18480732e-03 1.62452552e-02 0. 5.04852924e-03 0. 4.02515987e-03
      -1.08488399e-04 0. 0. -1.45157188e-04 0. 0. 8.87232181e-03 0.
      -5.97780105e-04 -1.09723071e-02 0. 0. 0. 1.08697293e-02
      1.86917447e-02 0. 0. 7.16468738e-03 5.71528636e-03 1.54815838e-02
      3.14306584e-04 0. 9.74231958e-03 -6.64937636e-03 -3.90821183e-03
      6.22107834e-03 0. 0. -2.15841252e-02 0. -1.04007719e-03 0.
      2.68749450e-03 0. 1.77770928e-02 0. -1.24690188e-02 0.
      -1.89664468e-04 -2.84882030e-03 7.38540257e-04 -1.47292239e-03 0.
      0. 0. 1.13393459e-02 0. 0. 1.40088866e-03 0. 5.49001452e-05 0.
      -8.99174344e-03 0. -2.29195366e-03 -6.91606337e-03 -3.50977876e-03
      -7.11318711e-03 -1.22597173e-03 -7.37665745e-04 7.04010343e-03 0.
      0. 0. 0. -1.13925234e-05 -8.85689748e-04 1.65797528e-02
      6.46321150e-03 -2.50178785e-03 7.67676113e-03 0. -4.17233258e-03
      -9.08272748e-04 6.51720632e-03 -5.38306450e-03 4.47548780e-04
      4.04273253e-03 2.38149753e-03 -2.16360930e-02 0. 3.81866796e-03
      -4.58237575e-03 -2.19312450e-03 1.10731153e-02 -1.23560131e-02 0.
      0. -2.98089511e-03 0. -1.10449484e-02 0. 0. 6.93287607e-03
      1.69537608e-02 4.12367284e-03 5.70535287e-03 -4.40240372e-04
      -4.95517394e-03 -7.97186513e-04 -5.17556304e-03 6.42222445e-03 0.
      0. 6.04376837e-05 -1.16751180e-03 0. 0. -2.71937205e-03 0.
      8.99992418e-03 -1.27787953e-02 0. -4.21850104e-03 0.
      1.65311433e-03 0. 8.31683137e-05 1.62583552e-02 -5.22025721e-03 0.
      -3.31077841e-03 3.97402747e-03 5.98382729e-04 0. 7.44326971e-04
      3.40414210e-03 -5.88371139e-03 0. -4.89416067e-03 5.50023373e-03
      6.02948479e-03 0. 0. 9.67190787e-03 -1.59194705e-03
      -7.85325468e-03 3.61995958e-03 2.80079013e-03 1.72656197e-02
      -5.03969437e-04 0. 6.53174473e-03 1.26506493e-03 6.15365570e-03
      1.13188944e-04 5.38270408e-03 2.73392070e-02 -6.21440471e-04 0.
      -7.20802520e-04 0. 0. 0. 0. -5.09147486e-03 1.27421627e-02 0.
      1.15094241e-02 1.18018026e-02 8.13147239e-03 0. 0. 0. 0.
      -1.30281580e-04 0. 3.28667834e-03 0. 2.64668907e-03 4.54568397e-03
      0. -7.04453269e-04 0. -9.33490042e-03 0. -7.07017316e-05 0.
      -3.28805065e-03 0. -3.41044925e-03 -7.03696674e-03 -4.14539920e-03
      1.12106864e-04 -1.15215465e-04 -1.07614312e-03 1.02738268e-03 0.
      0. 1.71831641e-02 9.75544937e-03 0. 1.97568759e-02 5.08813901e-06
      -3.00262542e-03 9.82135721e-03 -5.41777723e-03 0. 1.48304906e-02
      1.35271286e-03 0. 0. 0. 6.23968523e-03 0. 0. 0. -1.48909111e-02
      6.25896559e-04 -4.08151172e-05 0. 0. 0. 0. 1.25645269e-02
      -5.50606474e-03 0. 0. 2.40583229e-03 0. 6.84229285e-03
      -1.61703851e-03 0. 0. 2.22823955e-03 -2.98750092e-04
      1.33982906e-03 -5.20402798e-03 -2.00536218e-03 3.78939370e-03
      -6.76749554e-03 -4.45136428e-03 0. 0. 0. 0. -4.38620057e-03
      1.88847701e-03 0. 0. 0. 0. 0. 0. 1.06073422e-02 -6.59214053e-03
      -6.01718714e-03 1.48419070e-03 -1.04244647e-03 0. 4.69371298e-04
      0. 0. 1.41768083e-02 -3.69219342e-03 0. 1.13761739e-03 0. 0.
      1.77914219e-03 1.94246764e-03 -1.00069474e-02 2.26012897e-03 0.
      1.54027734e-02 5.16841607e-03 5.86949284e-07 -1.80937233e-03 0.
      -2.91026197e-03 4.21792502e-03 1.03974820e-03 -1.87073962e-03
      3.48412432e-03 6.39351550e-03 2.17310172e-02 -1.35824853e-03
      -6.75529300e-04 0. 5.55150618e-04 0. 1.01195062e-02
      -2.24203050e-05 1.22895595e-02 0. 0. -2.07008352e-03 0. 0. 0.
      5.98351983e-03 0. 0. 1.44336605e-02 5.82069764e-03 0.
      1.35291644e-04 0. -1.10520730e-02 5.40434523e-03 0.
      -8.87017522e-04 0. 4.95521490e-05 -5.65597974e-03 0. 0. 0.
      9.76997055e-03 0. 0. 3.34823766e-04 6.34058332e-03 0.
      -2.89851823e-03 0. 5.99901483e-04 0. 1.13452524e-02 0. 0.
      7.85569835e-04 5.63591311e-05 1.36239722e-03 2.96845508e-04 0. 0.
      1.55479601e-02 0. 3.71838760e-05 0. -2.67165108e-03 0.
      4.39497198e-05 7.01266248e-03 5.52196114e-04 0. -1.82241888e-03
      1.30517744e-02 0. 0. 0. 5.22903213e-03 -1.03500570e-04 0.
      -3.19722760e-03 -5.11175953e-03 1.42825171e-02 6.16868120e-03 0.
      0. -1.46450289e-03 -3.57799698e-03 -2.20563659e-03 -7.74374790e-03
      0. 0. -4.01917845e-03 -2.91450322e-03 0. -8.40641372e-03
      2.66567990e-03 2.60642682e-05 -1.31723785e-03 6.31105807e-03
      -3.39843845e-03 0. -2.43187998e-03 -4.38961899e-03 1.20212017e-02
      -2.79570417e-03 0. 0. 1.66150654e-04 0. 0. -1.03888731e-03 0.
      9.64975264e-03 4.62282356e-03 -1.04795424e-02 0. 1.49489325e-02 0.
      -3.25522597e-05 2.04147212e-02 0. -7.62079377e-04 3.67569691e-03
      -7.00091617e-03 2.47483095e-03 0. 3.77986464e-03 -1.99329946e-03
      -8.28281697e-03 1.35878427e-03 0. -4.60934453e-03 0.
      1.71310306e-02 0. -1.15677314e-02 -9.76365618e-03 0.
      -2.20270222e-03 -5.99891273e-03 6.32200204e-03 0. 0. 0.
      4.81000589e-03 4.47932910e-03 -5.04769094e-04 -8.53762249e-05 0.
      0. 4.88123670e-03 0. 0. 0. 2.71215988e-03 -1.14694536e-04 0. 0. 0.
      -1.55260437e-03 9.32129472e-03 -2.59776809e-03 0. 0. 0.
      9.15018748e-03 0. -1.35999080e-02 -1.86004080e-02 0.
      -1.59966350e-02 -4.78197774e-03 -1.00385594e-04 1.52812724e-03
      4.85434290e-03 0. -3.80664074e-04 1.05049070e-02 8.34283791e-03
      6.91183086e-04 0. -3.28341778e-03 -2.87020183e-03 0. 0.
      1.03162266e-02 -5.09455218e-04 0. -6.00935705e-03 -7.80619448e-04
      -1.19988516e-03 0. 0. 3.49825923e-03 0. 7.85584562e-03
      -3.18340249e-02 0. 1.07930657e-02 5.62125677e-03 7.50066992e-03
      -5.89889241e-03 1.52080681e-03 4.16778727e-03 0. -3.77085846e-04
      -1.47601441e-02 6.11293712e-04 0. 0. 1.00855073e-02
      -7.78064644e-03 0. 0. -2.30656401e-03 0. 0. -2.72105425e-03 0.
      -3.41289700e-03 1.15638738e-02 0. 0. -1.95706845e-03
      8.65416951e-04 1.25769200e-02 0. 7.50346342e-03 -1.26941493e-02
      -3.01917607e-05 5.15434251e-04 0. 7.35925860e-04 -4.62050200e-04
      -1.16182705e-02 -3.79814347e-03 0. 6.75583445e-03 3.16625368e-03
      0. 5.42614562e-03 -1.32826231e-02 3.18874512e-03 -5.68384212e-03
      0. 9.05279815e-03 -3.36962217e-03 0. 0. 0. 6.37367973e-03
      8.54050566e-04 0. -4.88815457e-03 1.03844991e-02 -1.45093969e-03
      0. -1.29259340e-02 -7.75726046e-03 -9.91750509e-03 1.08683121e-03
      0. 0. 8.35449528e-03 0. 1.24546443e-03 -2.48221215e-02
      1.10878563e-02 2.37214006e-03 4.89701610e-03 0. 0. 5.11546386e-03
      -9.03751887e-03 -8.83942528e-04 0. 1.13222422e-03 3.20119085e-03
      0. 6.91489491e-04 0. 0. 0. 1.57924220e-02 -4.55709640e-03
      2.10830886e-02 3.61920358e-03 2.64969445e-03 0. -2.42679194e-03
      2.78239697e-03 2.90549040e-04 -2.64180428e-03 1.62747987e-02 0. 0.
      0. -1.48765568e-03 1.33892260e-02 4.09571035e-03 -3.36705567e-03
      -6.42013550e-03 5.39649092e-03 6.67393114e-03 -8.68391991e-03 0.
      -8.78905691e-03 0. 3.46592977e-03 1.58805661e-02 2.70776334e-03 0.
      0. 0. 7.14797468e-04 5.99375600e-03 0. 9.89555474e-03
      4.54995362e-03 0. -5.33151021e-03 3.10505601e-03 0.
      -1.59284376e-04 -4.43193968e-03 -1.17765488e-02 0. 0.
      2.45953538e-03 -1.33014109e-04 0. -1.75910722e-03 -1.30726574e-02
      5.98366838e-04 -5.82011417e-03 0. 0. 0. -6.45907922e-03
      1.47381481e-02 -2.02833457e-04 -6.11252524e-03 -1.93305034e-03
      -2.50661373e-03 0. -2.07358971e-03 3.63500626e-03 0. 0.
      1.70490853e-02 0. 0. 0. 0. -1.36888744e-02 -3.37490579e-03
      -9.09086724e-04 0. -7.57220760e-03 2.21218230e-04 0. 0.
      9.31397174e-03 -2.00219918e-03 6.28815556e-04 0. 0. 1.18325348e-03
      0. 2.05307337e-03 0. -2.95815174e-03 6.52003393e-04 0.
      -7.44729815e-03 -5.16065722e-03 2.01099296e-03 2.19484908e-03
      -1.95522560e-03 -7.16358336e-05 1.14200879e-02 1.21394852e-02 0.
      0. 2.23789923e-02 0. 0. 0. 0. -2.11726571e-03 0. 0. 1.14016989e-02
      -4.51518543e-04 1.39152138e-02 8.43355153e-03 0. 0. 5.32869781e-05
      0. 3.56076495e-03 2.42631254e-03 -3.65500950e-04 -1.17228832e-02
      1.77218094e-02 0. 2.71283975e-03 -4.28462808e-05 -7.02653197e-04
      0. 0. 0. 5.33357030e-04 -1.00667737e-02 5.10045281e-03
      -5.03225997e-03 2.29087844e-03 -7.08050269e-04 0. 0. 0.
      -2.02228036e-03 0. -5.37977694e-03 0. 0. 0. 0. -1.30665414e-02 0.
      5.12446975e-04 -1.06841177e-02 -8.27314972e-04 0. 0.
      -2.56360299e-03 0. 0. -3.12187709e-04 0. 4.49351827e-03
      -1.11951456e-04 3.06703639e-03 -6.76256791e-03 0. -3.85976303e-03
      0. 5.10416552e-03 -1.69764422e-02 0. 0. 2.22054869e-03
      4.71964618e-03 -5.96859911e-03 0. 0. 0. -1.83646524e-04
      1.98762622e-02 -1.50255617e-02 -1.08949805e-03 8.91900808e-03
      6.26989058e-04 -1.14817759e-02 0. 6.64564082e-03 0. 3.59448814e-03
      0. 0. 3.79115250e-03 -5.42014558e-03 0. 1.13373285e-03
      -2.16600893e-04 1.28205130e-02 6.94366265e-03 -1.99356955e-03 0.
      -6.14298787e-03 0. 2.17942800e-02 0. 0. -9.60540201e-05 0.
      3.67444963e-03 -1.37266924e-03 5.04126656e-04 -2.83393107e-04
      5.32043120e-03 -1.34886825e-03 1.54071040e-02 0. 0. 0. 0. 0. 0. 0.
      1.04609616e-02 1.84696366e-03 -6.65633613e-03 0. 0. 1.70250190e-03
      2.27326620e-03 -7.77968764e-03 -2.09769627e-04 1.49590075e-02
      -5.92818018e-03 -4.15275106e-03 6.65924558e-03 2.51530763e-03 0.
      1.32440182e-03 -1.04673862e-04 0. -2.38147611e-03 9.49616730e-03
      0. 0. 5.89520729e-04 0. 0. 2.08746147e-04 7.42894015e-04
      -1.24787702e-03 -9.88358261e-06 5.88642061e-03 0. 0.
      1.21362461e-03 -2.22490523e-02 -2.03333708e-04 -1.39463914e-03 0.
      -1.49905332e-03 -1.58228620e-03 0. -4.37876629e-03 0.
      -1.09803467e-03 0. -1.02986698e-03 -1.55016582e-03 -1.55631089e-04
      -3.05303978e-03 -2.32494040e-03 2.68158619e-03 0. 1.56790565e-03
      1.11382669e-02 1.47895899e-03 -7.41512107e-04 2.21744534e-02
      2.67959153e-03 -6.12978730e-03 -6.60897186e-03 4.72713215e-03
      -3.31946881e-03 -1.48615299e-03 0. 0. 2.56219995e-03
      -4.11791448e-03 0. 0. 0. 0. -1.23413811e-02 0. 0. -1.66933648e-02
      -4.35039820e-03 0. -8.52098805e-04 0. 0. -2.61591107e-04 0.
      9.36970394e-03 9.85440274e-05 0. 0. -3.82507918e-03
      -6.18722333e-05 9.02942754e-03 0. 0. 0. 0. 0. -5.38796000e-03
      1.05968342e-04 -6.90463139e-03 2.00045034e-02 0. 1.01271523e-02 0.
      3.25967645e-04 2.03088019e-03 0. 3.03109805e-03 -1.67321041e-02 0.
      -3.92007787e-04 0. 5.47646312e-03 -1.41678015e-02 -9.77877062e-05
      0. -1.19847823e-02 2.28412077e-03 5.50520560e-03 0.
      -1.16630062e-03 0. -5.65190241e-03 0. 7.38407020e-03
      -1.59180798e-02 0. 0. -5.14336070e-03 -1.72923896e-02
      -3.99316516e-04 7.89017789e-03 9.20598488e-03 -4.89377882e-03
      7.32623925e-03 0. 5.07953297e-03 -2.01168912e-03 1.38917775e-03 0.
      -3.51502327e-03 1.72956067e-03 0. 0. 9.57458280e-03 0. 0. 0. 0. 0.
      -1.08865751e-02 -1.41503504e-02 3.48831504e-03 1.31960837e-02 0.
      -1.67852070e-03 1.16150351e-02 1.19098388e-02 -4.21016914e-04 0.
      -9.63476766e-03 0. 0. -1.01792575e-05 -6.22073049e-03
      -1.56958252e-02 0. -7.09292106e-03 6.29792223e-04 0.
      -3.78344877e-04 -4.85016237e-04 0. 1.55867105e-02 0. 0. 0.
      1.34848960e-04 -4.26288228e-03 -5.71363652e-03 4.32180939e-03
      1.22598093e-02 -8.22822470e-03 -3.02546867e-03 1.43413516e-02
      3.74154537e-03 0. 0. 0. -5.24210453e-04 0. 0. 0. 0. 2.50507146e-03
      3.61222192e-04 0. 1.93363827e-04 0. 4.55691945e-04 0.
      -5.09228092e-03 2.24590693e-02 -1.92196749e-03 0. -3.99965420e-03
      6.30466361e-03 0. 0. -2.33128131e-03 1.58188326e-04
      -1.16504496e-03 0. 1.90389976e-02 9.32168739e-04 0.
      -3.86367482e-03 1.45434877e-02 0. -1.19069358e-02 3.27343773e-03
      1.33083062e-03 2.13632523e-03 0. 0. 0. 3.12981848e-03
      -3.81250470e-03 0. 4.09982074e-03 0. 0. 0. 0. 0. 0.
      -2.04123091e-03 6.09835982e-03 2.74158735e-03 -2.89102271e-03
      1.29842304e-03 -7.00596545e-04 0. -3.73692950e-04 0.
      -1.22417891e-02 -5.62706590e-03 -9.31074377e-03 -3.91887315e-03 0.
      0. -5.95907075e-03 1.25181244e-03 -2.65754852e-03 0.
      5.66952070e-03 2.79752095e-03 1.10805454e-02 0. -2.63829646e-03
      6.65142143e-04 3.77404722e-05 6.57544890e-03 1.60713971e-03
      3.46012204e-03 0. -6.38763234e-03 2.29233271e-03 1.12599349e-02
      -3.70379305e-03 -7.65631325e-04 -8.60637985e-03 -5.73546509e-04 0.
      3.24943871e-03 -3.08757438e-03 5.66016557e-03 0. -5.91176758e-05
      -9.38668195e-03 0. 0. -1.22632342e-03 -2.09607603e-03 0. 0.
      -3.61295009e-04 0. 9.80621856e-03 4.49676439e-03 0.
      -3.12875607e-03 -6.77900109e-03 0. 1.82482153e-02 9.43136960e-03
      0. -8.40766914e-03 0. 0. -8.71671271e-03 2.14663781e-02 0.
      5.34659391e-03 1.32905440e-02 0. 0. 0. -6.34077704e-03 0.
      1.37696601e-02 0. 0. -9.07335023e-04 0. -6.66269116e-05 0.
      -1.59380818e-03 0. 2.37283087e-03 1.43975290e-02 0.
      -6.42900239e-04 0. 0. 0. -1.31145921e-02 0. -1.54680718e-04 0. 0.
      1.80423483e-02 0. 0. -1.01954043e-02 2.03000358e-03 0.
      1.40981069e-02 9.32759419e-03 8.77190148e-04 0. 0. -1.11505631e-02
      -5.65508893e-03 0. -9.78452968e-04 -4.69314260e-03 -4.75187227e-03
      -5.14321821e-03 1.31755201e-02 4.60922718e-03 -4.92255611e-04 0.
      1.37702040e-02 4.30229156e-05 5.69461472e-03 -3.97024304e-03 0.
      2.03265087e-03 6.68294169e-03 0. 8.00909568e-03 -5.14450762e-03 0.
      1.92815124e-03 -4.64619603e-03 0. 3.92015511e-03 0. 1.28494119e-02
      1.67765357e-02 4.48999117e-07 -8.48178100e-03 5.55444555e-03 0.
      1.24703860e-02 0. 5.61208697e-03 0. 1.31778624e-02 0.
      2.55877990e-03 -2.67130020e-03 0. -1.81778602e-03 0.
      6.36104820e-03 -6.45176694e-03 0. -9.60013364e-04 -1.27219539e-02
      -2.19673748e-04 -9.85538960e-03 -1.63874310e-02 -2.02984922e-03 0.
      0. -9.63591598e-03 8.40495573e-04 4.41465992e-03 0. 0. 0.
      1.99351972e-03 0. 1.61129702e-02 0. 0. 0. -3.06062400e-03
      4.05155448e-03 -2.23066774e-03 -2.53605377e-03 5.98848099e-03
      1.75807008e-03 0. 1.26067048e-03 0. 4.23472188e-03 0. 0. 0. 0.
      -1.02665450e-03 0. -7.18845040e-05 0. 0. 5.07139484e-04
      -8.51938874e-03 -1.32120011e-04 -7.07165478e-03 3.76425893e-03 0.
      3.91475740e-04 0. 3.67587782e-04 0. 5.00964373e-03 0.
      -1.30260258e-03 0. 7.48575386e-03 6.02581305e-04 5.66187501e-03
      -1.84023508e-03 0. -1.16508994e-02 8.40584468e-03 4.00807941e-03
      0. -1.42704404e-03 -2.22889381e-03 0. 0. -7.78011163e-04 0.
      -8.18489294e-04 0. -6.98647881e-03 7.71319144e-04 1.40864998e-02
      3.64962907e-04 -9.32628405e-04 6.87728589e-03 -3.11647239e-03 0.
      5.51341334e-03 1.05555784e-02 0. 0. 0. -4.39376803e-03
      4.76277247e-03 8.41369547e-05 4.40577378e-06 0. 1.93617528e-03
      -9.59713070e-05 0. -4.12867172e-03 0. 1.50846993e-03 0. 0.
      -8.41100421e-03 4.23444653e-05 2.01876275e-02 1.00503992e-02
      2.21377774e-03 5.90744475e-03 -1.07376510e-02 0. -1.38293568e-03
      9.24430904e-04 0. 0. 9.31773707e-03 3.50651680e-04 4.52383468e-03
      0. -9.19323973e-03 -1.16156146e-03 0. 0. 0. 1.80490734e-03
      2.11135810e-03 0. -5.31540893e-04 1.71136938e-03 -2.51090666e-03
      -2.40431409e-02 -5.68160089e-03 4.28528758e-04 5.94927417e-03
      1.23901358e-02 -4.53536632e-03 6.45376509e-03 -3.93490860e-04 0.
      0. 2.77290645e-04 -1.61286406e-02 -6.72873168e-04 7.20947166e-04
      2.34683715e-02 1.02854660e-02 -2.25198641e-03 0. 8.38890905e-04
      1.64198838e-02 0. 6.30380446e-03 -5.97763387e-03 -9.95419803e-04
      8.32190737e-03 0. -2.54267454e-03 0. -3.66256712e-03
      -6.68137567e-04 4.06956533e-03 0. 6.77042687e-03 1.80393655e-03 0.
      0. 0. 0. -5.73973125e-03 0. 0. -6.42609177e-03 0. 9.30270366e-03
      0. 1.64297316e-03 0. 0. -1.97540838e-04 -3.45413783e-03
      6.38450682e-03 -2.81218649e-03 -6.70674816e-03 2.11762730e-03
      6.54254574e-03 2.67128664e-04 -8.54152720e-03 9.38212499e-03
      4.46392165e-04 3.87911481e-04 0. 0. 0. 6.10954827e-03
      -1.72583747e-03 0. 0. 1.61251274e-03 -8.58669449e-03 0. 0. 0. 0.
      0. 7.70708825e-03 -1.33241722e-02 -5.16000378e-04 0.
      3.58508993e-03 1.04421303e-02 5.02233161e-03 4.18118143e-04 0. 0.
      0. 0. 8.06488039e-04 -3.58796911e-03 0. 0. 0. -2.62542075e-04
      4.28233109e-03 3.14420392e-03 0. -1.43524278e-02 -2.05643149e-03
      1.39595417e-04 0. -1.85017623e-02 2.49119708e-04 0.
      -2.95119989e-03 0. 1.35492813e-03 0. -1.37163680e-02 0. 0. 0.
      1.11235504e-03 0. 5.79574960e-04 -3.61209932e-05 3.38030467e-03 0.
      -8.73508677e-03 0. 4.13284142e-04 0. -9.14071570e-04 0.
      -2.86943628e-03 0. 0. 1.08674755e-02 0. 2.26612715e-03
      3.57609545e-03 -2.87420116e-03 0. 1.55736599e-03 0. 1.40517717e-03
      0. -1.27149600e-04 0. -7.38641666e-03 0. -3.97794829e-05 0.
      3.28269880e-03 0. 0. 0. 4.76471352e-04 7.30961282e-03 0.
      1.35679198e-02 -5.32648712e-03 6.02744846e-03 0. 0. 0.
      3.98772443e-03 3.49659706e-04 -4.90454119e-03 6.50629681e-03 0. 0.
      0. 0. 0. 0. -9.31231887e-04 0. 1.39057200e-04 -4.72106645e-03 0.
      -2.62361881e-03 0. 1.36364775e-03 -6.80421363e-04 0.
      4.29717172e-03 0. 0. 3.47359339e-03 -7.68717844e-04
      -2.24948768e-03 4.24877228e-03 0. -2.58134009e-04 -6.08651107e-03
      0. 1.49159310e-02 -2.14431598e-03 1.17043704e-02 -9.05163307e-03
      1.68725718e-02 0. 0. 1.45668518e-02 0. 0. 6.77647186e-04 0.
      -3.56577034e-03 0. 2.68702442e-03 3.16213933e-04 2.30229227e-04 0.
      -3.36103002e-03 0. 0. -1.89131149e-03 0. 1.70166581e-03 0. 0. 0.
      0. 7.66390655e-03 9.05777700e-03 0. -1.81415200e-03 0.
      -1.56849565e-03 0. 1.23181744e-02 -3.96193063e-04 2.32387055e-02
      -1.12941535e-02 1.13954367e-04 -1.13948328e-04 0. 0.
      2.87441327e-03 2.77963583e-03 -8.72865727e-04 0. -5.24477509e-04
      0. -1.18310796e-02 -1.29210344e-02 1.98605885e-05 1.31549977e-03
      0. 0. 0. 0. 3.64022213e-03 6.95819734e-03 0. -2.22912684e-04
      -2.63798865e-03 -5.54397982e-03 -4.88947285e-03 6.16940612e-04
      9.02981963e-03 -4.56115836e-03 -3.84129002e-03 3.01893824e-03
      6.00145431e-03 -5.19947056e-03 -1.18529555e-04 1.80190373e-02
      -1.80297080e-04 -3.98807134e-03 -3.34376346e-05 0. -6.26305817e-03
      0. -2.40380550e-03 -1.79535639e-03 0. 0. 0. 0. 0. -6.94554590e-04
      0. 0. -8.40918813e-03 1.13818049e-02 -1.78107686e-04 0.
      1.55333383e-02 0. -1.03519973e-03 -2.15544435e-03 5.64082351e-04
      0. 0. 0. -4.51109465e-03 0. 0. 0. 0. -1.77139926e-04
      8.86523630e-03 -2.20447284e-04 -5.25270915e-03 -1.78968103e-03
      2.02353881e-03 0. 0. 1.19744358e-03 -7.36897299e-03 3.74231511e-03
      0. -8.68125353e-03 0. 0. 5.64175565e-03 7.56256981e-04 0. 0. 0.
      1.46914076e-03 0. 1.10527370e-02 0. -6.32057991e-03 3.46169132e-03
      -1.95400935e-06 0. 9.87091660e-03 0. -4.79562953e-03
      -1.42798689e-03 0. -3.26648518e-03 0. -3.11976159e-03 0.
      -7.74520231e-05 0. 2.47197313e-04 -4.42268047e-03 -1.04787368e-02
      0. 0. 9.84912366e-03 7.50099774e-03 -9.77648329e-03 1.43486066e-02
      8.45536197e-05 5.88195352e-03 6.79011643e-03 1.48802390e-02
      7.56137259e-03 4.52411012e-04 -6.08283747e-03 -2.16036988e-03 0.
      -3.24058766e-03 0. 9.11942869e-03 0. 7.03161163e-03 7.76442653e-03
      -6.64718030e-03 0. -6.48116507e-03 0. 0. 1.69414829e-03
      -9.96037968e-04 0. 0. 0. 0. 0. 0. -5.21266274e-03 -3.45676462e-03
      8.97431467e-03 -5.72534557e-03 2.50725017e-04 7.37358211e-03
      -2.63555511e-03 5.38327964e-03 2.87669071e-04 -1.51141023e-04
      1.82877656e-03 4.91827633e-03 -1.08179096e-02 -2.63932976e-03 0.
      -4.81573073e-03 0. 1.73374284e-02 -9.25397594e-03 0.
      -2.65707518e-03 1.76502275e-04 4.02424578e-03 5.60349878e-03 0. 0.
      3.03271646e-03 0. -4.60517546e-03 -1.65826023e-05 -8.78808554e-04
      3.93155636e-03 8.12084135e-03 0. -9.29780015e-07 0. 0.
      1.03062680e-02 -3.13399418e-04 -5.08761639e-03 0. -9.30399750e-04
      -1.84187759e-03 0. 0. 0. 5.73124131e-03 -6.98993169e-03 0. 0.
      4.87247994e-03 -2.07314733e-02 8.17486260e-04 5.24126866e-04
      -5.36430569e-04 1.29988487e-03 2.48933164e-03 -4.21309436e-04
      -1.25407968e-02 -6.76085101e-03 0. 0. 0. 1.69290591e-03 0.
      -7.70276645e-03 0. 0. -1.30000189e-02 5.25699987e-04 0. 0.
      2.16193293e-04 0. -2.25969194e-03 0. 4.89109603e-04 1.96472160e-03
      -1.07324449e-02 0. -2.89736781e-04 0. 1.39043974e-02 0.
      2.62423477e-04 0. 0. -2.95312726e-03 0. 0. 0. -1.94384065e-03 0.
      0. 0. 0. 9.07007314e-04 -3.59069603e-03 6.74525101e-04
      -4.58222348e-03 0. -4.99078445e-03 -1.01820873e-02 2.38709897e-03
      0. 1.03861848e-02 -5.61874174e-03 0. 6.19093701e-03 2.02326715e-04
      1.23656937e-04 0. 0. 0. 9.96924005e-03 0. -1.49855099e-04
      1.47335394e-03 0. 9.08444053e-04 -8.70669354e-03 8.74557067e-04
      -9.28971823e-03 -9.93179972e-04 0. 0. 1.45820305e-02
      -7.76520872e-04 0. -5.54247200e-03 1.10376822e-02 0.
      -8.12161993e-03 7.39156851e-04 1.92079053e-03 -8.92254990e-03 0.
      0. 0. 7.75429374e-03 1.21668242e-02 -7.25614082e-04 0.
      -9.94091679e-05 -1.13702519e-02 8.22139811e-03 -5.29877434e-04
      4.02483204e-03 -7.61143092e-05 1.57318339e-02 0. 6.54297764e-04
      2.58492138e-02 9.96065559e-04 -1.04433671e-02 2.34211702e-03
      -6.55132579e-04 3.81691870e-03 6.30980497e-03 4.19133343e-04
      -2.38891621e-03 1.06123062e-02 -1.29427179e-03 -6.56293472e-04
      3.89789767e-03 -3.12853314e-04 2.90463753e-02 0. 0. 7.64502259e-03
      1.38760852e-02 1.43765667e-02 0. 0. 7.44840712e-04 0. 0. 0.
      9.17821191e-03 -5.66877145e-03 0. -3.68799246e-03 0. 0. 0. 0.
      -6.57900050e-03 1.97117850e-02 0. 0. 7.55689282e-04
      -7.25627970e-03 0. -6.84770057e-03 -3.04766209e-03 -2.16161855e-03
      0. -1.80433597e-03 -3.19700968e-03 0. 0. 1.50463122e-04
      2.93014990e-03 3.58111830e-03 5.61119942e-03 5.21086296e-03
      -2.22692281e-04 0. 5.96600119e-03 -4.46228834e-04 -9.03296284e-03
      0. 0. -2.58493330e-03 0. 0. -1.04214565e-03 0. 9.74245078e-04
      -1.41969509e-03 0. 0. -1.78238354e-03 2.08962010e-03
      1.35438349e-02 -1.15405361e-03 1.69053779e-03 -9.38100275e-05
      -1.20268194e-02 1.63500791e-03 0. -8.16631946e-04 -1.76111367e-04
      0. -1.13725767e-03 1.44505631e-02 -4.31765430e-03 -2.57619401e-03
      6.34202920e-03 3.07017262e-03 -9.98820760e-04 0. 2.27743323e-04 0.
      -1.66740012e-03 2.35777702e-02 0. -3.75772564e-04 0.
      6.09741197e-04 3.36628116e-04 0. 0. -6.18162286e-03 0.
      8.94037657e-04 1.18212616e-02 1.64352939e-03 -2.41788384e-03 0. 0.
      -1.14542665e-02 -8.16513319e-03 1.04519492e-02 0. 5.42930141e-03
      0. 0. 5.17476862e-03 -2.10995466e-04 6.53912872e-03 9.57101770e-03
      5.29651006e-04 4.37993091e-04 0. -1.00094322e-02 0. 0.
      1.91159488e-03 6.03572885e-03 0. 1.41608692e-03 1.65541761e-03
      8.71713459e-03 1.69428401e-02 -5.92540833e-04 0. 0.
      -3.86630325e-03 0. 8.54022242e-03 0. 0. -1.08725515e-04 0.
      7.24377250e-03 -8.37221649e-03 5.53100603e-03 5.97115420e-03 0.
      5.23009524e-03 2.64201500e-03 -4.00293898e-03 0. -1.18869497e-03
      1.00286985e-02 1.34598669e-02 6.24135323e-03 3.96824256e-03 0.
      -3.78361763e-03 0. 0. -1.60156190e-02 1.16493125e-02
      -3.12887691e-03 0. 0. -2.47541291e-04 -2.82105943e-03
      1.58453528e-02 0. 4.40538069e-03 2.67637195e-03 -2.76540266e-03 0.
      0. 0. 1.27938734e-02 1.25568744e-03 0. -1.25646577e-04 0. 0. 0. 0.
      -1.37787918e-02 -3.67401028e-03 1.18586281e-03 2.13631871e-03 0.
      6.10215217e-03 0. 4.70372709e-03 6.10011572e-04 0. 0.
      1.75068690e-03 1.76098582e-03 0. 1.18280333e-02 0. -7.79852679e-04
      -5.76970633e-03 0. 0. 6.08599698e-03 6.78343757e-04 2.22405046e-02
      0. -1.71985279e-03 0. 0. 0. -3.09670082e-04 0. 0. -1.02941683e-02
      0. -1.07808533e-04 0. -8.03952850e-03 0. 0. 6.00550510e-03 0. 0.
      0. 4.01473744e-03 1.72155146e-02 0. 0. 0. -1.58571929e-03
      3.92811187e-03 0. -7.07027316e-03 -5.69242099e-03 0.
      1.74511392e-02 0. -2.63852277e-03 0. 0. -4.04295512e-04
      1.02652493e-03 0. 1.02218743e-02 0. -3.56781692e-03
      -3.14838393e-03 0. 0. -5.70477278e-06 -1.91086112e-03 0. 0. 0.
      -5.91709046e-03 0. 0. 0. 1.21192299e-02 -2.22300732e-05
      -6.29245260e-05 -1.03786042e-04 9.94350878e-04 -4.79387556e-04 0.
      0. -6.39904523e-04 1.65574276e-03 7.55765475e-03 0.
      -2.18840735e-03 4.85008676e-03 0. 3.39796185e-03 0. 3.12500587e-03
      -4.79610717e-05 2.47704983e-03 1.10044302e-02 -9.74765513e-03
      3.73938674e-05 -5.15468360e-04 0. 4.61996417e-04 8.89270741e-04 0.
      -1.00791105e-04 0. 1.30115813e-02 0. 7.30060274e-03 0. 0.
      7.76636833e-03 -6.32179808e-03 3.53462808e-03 0. -8.28938279e-03
      0. 0. -4.50739125e-03 1.20894946e-02 0. 0. -1.19279034e-03
      -3.49778705e-03 0. 5.01142954e-03 0. -4.23078425e-03
      3.00501444e-04 1.28755150e-02 0. 9.13715747e-04 -5.06172795e-03
      -2.26379037e-04 -1.31955966e-02 1.80681329e-03 0. 0. 0.
      6.69175666e-03 2.00733379e-03 -5.03992941e-03 3.83272907e-03
      -6.18873455e-04 3.18499561e-03 -2.15235609e-03 0. -2.15318374e-04
      0. 0. 0. 1.50278676e-02 0. 3.38842534e-03 8.07193399e-04
      1.54648593e-03 0. 0. 0. -5.60018641e-04 0. 0. 2.02488457e-03
      -9.23106261e-03 0. 6.67717354e-03 0. 9.67378262e-03
      -7.14642135e-03 0. 0. 1.14766220e-02 0. -2.84017390e-03
      -4.26273234e-03 -5.38753811e-03 1.53215183e-02 6.50676293e-03
      -1.31026120e-03 8.15230981e-03 4.96900780e-03 0. 8.11149366e-03
      -8.64185131e-06 0. 2.64363433e-03 0. 0. 0. 3.15225823e-03
      -1.34989033e-02 -7.58063840e-03 -5.48206782e-03 0. 3.94213526e-03
      -6.54663565e-03 1.30819133e-03 1.39539922e-03 -1.71575230e-03
      -3.71595589e-03 -8.51954147e-03 0. -4.81427833e-03 0. 0.
      1.80555344e-05 4.86632949e-03 -5.64234855e-04 -1.04623809e-02
      1.24708470e-03 0. 0. 8.76481645e-03 4.00311546e-03 0.
      1.68672821e-03 4.68040956e-03 0. 6.87068002e-03 0. 0.
      3.76189710e-04 3.77846602e-03 -7.77046662e-04 1.04142074e-02
      -7.40501680e-04 0. -8.25934950e-03 0. 8.07022583e-03 0. 0.
      -7.65834528e-04 -7.95045216e-03 0. 7.10571185e-04 -2.03295168e-03
      1.95654817e-02 -2.46354006e-03 -4.22208454e-04 0. 0.
      2.10392009e-03 -1.09856911e-02 0. -8.66206363e-03 0. 0. 0. 0.
      -2.82612331e-02 2.92645302e-03 -8.58288608e-04 1.14778923e-02
      4.33412279e-05 0. 0. -1.05948010e-02 1.22067258e-02
      -5.55287988e-04 2.82508018e-03 1.68679922e-03 0. 3.31987604e-03
      1.18815363e-03 -1.02237076e-03 0. 2.61730142e-03 7.51880943e-05
      7.38387508e-03 -4.50201565e-03 -1.01474041e-04 -1.56640145e-03 0.
      0. 1.73536432e-03 -3.67313647e-03 0. 0. 0. -3.22377100e-03
      -5.85271628e-04 0. 0. 1.19817629e-03 -5.08082192e-03 0. 0.
      -1.15775671e-02 0. -6.84191182e-04 0. -4.77689132e-03
      -2.81937327e-03 1.12692115e-03 5.08561498e-03 -1.41305570e-02
      1.28991576e-02 0. 5.32987997e-07 2.35329251e-04 0. -6.30191900e-03
      3.99194803e-04 1.70430797e-03 0. 6.92445133e-03 -1.10136007e-03
      -8.07816070e-03 4.90838941e-03 -2.48811935e-04 -1.71912878e-04
      -2.76425714e-03 2.46056123e-03 0. -6.33922406e-03 0.
      5.15754393e-04 0. -1.76413707e-03 1.25129032e-03 -2.21597962e-03
      0. 0. 4.34277672e-03 0. 0. -1.47642320e-04 3.84328142e-03 0.
      3.98559583e-04 2.29427405e-03 -3.17896083e-05 0. 0. 1.49261556e-04
      0. 0. 0. 0. -8.19158275e-03 1.70328713e-03 -2.95131258e-03 0.
      6.54878933e-03 -4.20823367e-03 0. -5.10252314e-03 1.18571119e-02
      6.19276660e-03 -4.37654089e-03 0. 2.25761887e-02 8.81754037e-04
      -8.47798958e-03 1.33165289e-02 -5.06705325e-03 -2.29657628e-02
      -1.28680598e-02 6.50452264e-03 1.43744703e-03 0. 1.42354527e-02
      1.91941131e-02 -1.08407447e-02 -7.73712527e-03 -2.12873775e-03
      -1.61104734e-04 4.19109780e-03 -8.50197114e-03 2.85323337e-03
      -6.79931557e-03 0. 3.02471989e-03 0. -1.38986798e-03
      -9.65482832e-05 2.11108080e-03 8.05051532e-05 0. 1.51192732e-02 0.
      0. 1.16423471e-03 -9.10472404e-03 0. 2.11987155e-03
      -1.21934587e-04 -1.19916182e-02 1.06632178e-04 0. 1.65078952e-03
      -6.68256718e-04 0. 0. 3.22253653e-03 0. 0. -7.19605293e-03
      -1.88735823e-04 9.19539016e-03 0. -5.01422724e-03 1.16657728e-04
      0. 0. 0. -2.24784337e-04 0. 1.34140777e-03 3.90268606e-03
      1.49413967e-03 -1.93636294e-03 -4.66679735e-03 0. -3.38870427e-03
      0. 0. 6.20209752e-03 0. 6.36337139e-03 -2.38124793e-03 0.
      6.20262278e-03 0. 1.19302338e-02 0. -9.31685232e-03 3.34330980e-04
      -5.07497345e-04 2.90024700e-03 0. 0. 0. -2.05173856e-03
      -4.73505864e-03 -2.36734678e-03 0. -7.00731995e-04 0. 0. 0. 0.
      -1.59357786e-02 -6.24077977e-04 5.94329496e-04 1.95686612e-02 0.
      1.33899762e-03 -1.90408409e-05 0. -6.08139904e-03 1.00604526e-03
      4.17127647e-03 -2.93806172e-03 -1.62162480e-03 -1.83545257e-04 0.
      0. 0. -1.26845598e-05 0. 0. -3.36835952e-03 -1.58014285e-04
      1.18082715e-03 0. 0. 0. 1.26916012e-02 0. 6.75630150e-03 0. 0.
      2.28774571e-03 1.53199034e-02 -2.75777723e-03 5.85300790e-04
      4.07926086e-03 -7.84591713e-04 0. 0. 2.26175808e-03 4.63749934e-03
      6.57184934e-03 1.70344696e-03 2.02544077e-04 -1.36883277e-02
      -5.11644688e-03 3.94088915e-03 0. 0. 1.64288450e-02 0.
      1.56487373e-03</_>
    <_>
      0. 2.13722815e-03 -1.27713429e-03 1.33162749e-03 -1.99962105e-03
      1.65995571e-03 8.77243187e-03 0. 0. 0. 0. -1.24008366e-04
      1.72066491e-03 -1.39087159e-03 -4.98116156e-03 -4.61170357e-03
      9.57620796e-03 -7.22291507e-03 2.94037600e-04 -1.22310370e-02
      5.26469992e-03 0. -1.31244259e-03 -2.43174303e-02 6.15268247e-04
      -1.90332569e-02 0. -1.61890425e-02 0. -7.19451392e-03
      -1.35227898e-02 -2.02861964e-03 0. -1.04326634e-02 5.70853055e-03
      -3.43248458e-03 -3.50480014e-03 -1.02548059e-02 -3.28525505e-03
      -1.57099999e-02 0. -1.63214300e-02 0. 8.87291320e-03 0.
      1.33631164e-02 0. -2.73999572e-03 9.32667963e-03 1.65466256e-02
      -1.31836603e-03 -1.52169876e-02 0. 3.54837626e-03 -3.66123300e-03
      5.93336124e-04 0. -2.08107848e-03 -1.57140791e-02 0.
      -4.23931924e-04 0. 0. -6.12513442e-03 9.78912227e-03
      -1.32089471e-02 4.46563633e-03 8.64209433e-04 -5.26898494e-03
      4.18495387e-03 0. 2.79363748e-02 -9.07905586e-03 0.
      -8.06371158e-04 -2.16123904e-03 8.91311094e-03 1.32981772e-02 0.
      -3.14148550e-04 5.85234538e-03 -3.72942258e-03 8.16953077e-04 0.
      1.02565251e-02 -4.38082316e-06 1.74374483e-03 -1.50260953e-02
      -5.97124314e-03 1.26514700e-03 -1.69785731e-02 -8.07658117e-03
      4.46913904e-03 0. 0. 0. 6.09793584e-04 0. 0. -1.94757413e-02 0.
      -1.75009314e-02 -1.01159504e-02 6.89221313e-03 -2.29098788e-03
      -2.08374821e-02 -2.03639902e-02 0. -2.56978604e-03 0.
      4.12903377e-04 0. 1.77393127e-02 8.24099407e-03 0. -3.33620061e-04
      2.43927492e-03 -4.67698555e-03 0. 0. -8.01519491e-03 0. 0. 0. 0.
      -2.22349279e-02 -7.14249909e-04 0. 1.64356723e-03 1.07107200e-02
      -1.18299900e-02 -1.18719377e-02 -3.75096170e-05 0. 0.
      -1.43576991e-02 -9.54070222e-03 1.08995801e-02 -2.27636341e-02
      -2.51781871e-03 -5.18790213e-03 0. 0. 0. 2.92610697e-04
      1.08236130e-02 -1.89409987e-03 0. -1.99429589e-04 -1.65979879e-03
      -1.00183971e-02 0. 1.00462290e-03 0. 3.95309143e-02
      -1.51485647e-03 -2.23328993e-02 -1.94569828e-03 0. 3.33196786e-03
      2.16869004e-02 -1.20448563e-02 -6.06360054e-03 1.01594708e-03
      8.23479705e-03 2.13455438e-04 0. 0. 0. 0. -3.04735222e-05 0.
      -4.39266069e-03 0. 9.15321335e-03 0. 0. 2.09467323e-03
      1.91865591e-04 0. -1.76833551e-02 7.82403722e-03 0. 0. 0. 0.
      -6.09115837e-03 0. 1.93656748e-03 -8.99058487e-03 -5.71775134e-04
      -7.76225049e-03 -6.08344888e-03 4.43741417e-04 -8.23981687e-03 0.
      7.15510780e-03 0. 6.41257793e-04 -5.43762115e-04 8.51279590e-03
      -9.02241375e-03 -1.66819990e-03 8.68804229e-04 3.23036278e-04
      1.69692235e-03 3.86364292e-04 0. -8.29056278e-03 -2.24367157e-03
      0. 1.81982778e-02 0. 0. -3.06897284e-03 -6.55547366e-04 0.
      8.58723838e-03 2.48004124e-03 1.42444093e-02 -4.10752278e-03
      2.91441940e-03 6.43532304e-03 6.39071455e-03 -2.77434965e-03
      2.18231492e-02 6.17453130e-03 -1.27591202e-02 0. 0. 0.
      -1.08737731e-02 3.25624980e-02 0. -3.19883972e-02 3.93939670e-03
      -1.51623308e-03 0. 1.23291444e-02 1.18236123e-02 -1.26441838e-02
      -1.98971690e-03 -5.19171730e-03 0. 2.02796399e-03 -1.10229002e-02
      -1.10988189e-02 0. 0. 1.10523764e-03 -1.77925837e-03 0.
      -2.19452661e-03 2.17753858e-03 0. -8.05412978e-03 -1.54933212e-02
      -6.97720516e-03 0. -2.15932517e-03 0. -3.34282313e-03 0.
      8.23292509e-03 0. -6.87833736e-03 2.15160078e-04 -3.66249005e-04
      0. 1.67332049e-02 3.36850923e-03 0. -2.49387929e-03
      -6.85243402e-04 -1.39831414e-03 0. 0. 0. -4.22808866e-04
      -3.84439219e-04 7.56242638e-03 4.17244807e-03 0. -2.16386397e-03
      0. 5.76614519e-04 5.78351377e-04 8.27955734e-03 0. 9.00378684e-04
      7.35640759e-03 0. 0. 0. 0. -1.93391636e-04 -1.14644249e-03
      1.79491108e-04 1.22162318e-02 0. 0. 0. -1.46306073e-03 0. 0.
      -7.84673728e-03 0. 1.62647956e-03 0. 0. -6.39604218e-03 0.
      4.27216664e-03 0. 0. 1.69334151e-02 -3.04907723e-03 0. 0. 0.
      -8.70462134e-03 -1.06853200e-02 0. -4.62881755e-03 9.26210638e-03
      -1.51806977e-03 0. 2.56807962e-03 1.70335465e-03 3.24830617e-04
      -1.35780487e-03 -8.26082844e-03 0. 0. 9.55106807e-04
      4.71441395e-04 0. 1.14616705e-02 0. 4.92853718e-03 -5.04786288e-03
      -1.99991055e-02 0. 0. 0. 0. 0. 2.66006608e-02 0. 0. 1.55761745e-03
      1.15609989e-02 2.87673511e-02 0. 0. 0. 0. 0. -3.56402202e-03
      -2.33413521e-02 8.83113127e-03 0. -9.45260035e-05 7.53891189e-03
      -1.28361615e-04 3.11028096e-03 -1.03368154e-02 0. -2.26754881e-03
      -1.16703184e-02 0. 1.07945071e-03 -1.23085501e-02 0.
      -6.78785378e-04 0. 0. 0. 1.41765242e-02 0. 0. 1.72264536e-03
      -6.13962626e-03 0. 0. 0. 0. -1.39415059e-02 4.52194922e-03
      -5.43816295e-03 0. 0. 0. 0. 4.63883393e-03 1.53038502e-02
      1.65615957e-02 2.14654859e-03 2.61666765e-03 0. 1.55153126e-03
      -5.29919518e-04 0. -3.11503420e-03 -6.23560371e-03 -4.81293071e-03
      0. 0. 4.99638403e-03 3.32777528e-03 1.96597483e-02 9.85083519e-04
      0. 1.28767919e-02 0. 6.32335083e-04 0. 0. 7.28119770e-03
      -2.18621758e-03 -3.30776512e-03 1.55368436e-03 2.05640420e-02
      -7.77820824e-03 8.67331633e-04 1.52654189e-03 -6.03466621e-03 0.
      -1.25976400e-02 5.08487551e-03 9.34169511e-04 0. 9.11002979e-04
      -4.04860970e-04 -2.02802401e-02 0. -2.03385507e-03 2.63342867e-03
      1.58899173e-03 0. 2.08980357e-03 0. 0. 1.13519663e-02
      1.04324967e-02 -7.50618288e-04 -9.15861980e-04 0. -5.69043076e-03
      0. 0. -5.29276906e-03 0. 1.12937419e-02 8.73016659e-04 0.
      -1.95589978e-02 0. 3.07987491e-03 8.75526457e-04 1.53972581e-02
      -1.15234926e-02 -4.77094995e-03 -4.17935336e-03 7.54468003e-03 0.
      0. 9.91928205e-03 -2.51088524e-03 0. 0. 0. 0. 0. 0. 0.
      1.49526005e-03 0. -2.93067831e-04 5.55849355e-03 0. 0.
      -1.04448600e-02 -5.38618257e-03 -2.24344917e-02 -7.03790970e-03
      1.11395435e-03 4.99790243e-04 0. 5.02952281e-03 0. -7.25867285e-05
      0. 2.04479904e-03 -6.21903175e-03 4.37160023e-03 -5.75349480e-03
      9.64923203e-03 0. 3.50469118e-03 0. 0. 0. -1.69645227e-03 0.
      4.43920027e-03 6.92875357e-03 0. 1.17031420e-02 -5.22784467e-05
      -4.35509719e-03 3.76465824e-03 3.32046300e-03 0. 4.88747493e-04 0.
      -5.45127259e-04 0. -7.93480838e-04 0. 0. 0. -6.90950546e-03 0.
      8.80466960e-03 0. 0. -5.99103654e-03 -2.62953267e-02
      1.45714451e-02 -4.91314009e-03 7.58599723e-03 -2.28349511e-02
      -2.36307690e-03 0. 2.30275071e-03 8.03610403e-03 0.
      -2.64693843e-03 0. 0. 0. 0. 1.44481310e-03 7.06138089e-03 0. 0. 0.
      0. 4.06776043e-03 4.98502050e-03 9.23143700e-04 0. 1.11846132e-02
      0. -9.86756198e-03 1.56810582e-02 -6.45529805e-03 0.
      1.14734645e-03 0. 0. 0. 0. 1.07733849e-02 1.79209560e-02 0. 0.
      2.17069290e-03 -6.91213366e-03 0. 3.38267116e-03 -9.30095615e-04
      -7.27333175e-03 0. 1.81649369e-03 -2.26239837e-03 -5.43439854e-03
      1.28209060e-02 0. 7.03144027e-03 -8.33176915e-03 0.
      -1.46359270e-02 8.27909354e-03 0. 2.20428202e-02 1.30559783e-03
      -1.07653858e-02 -5.91214327e-03 -7.80225405e-03 -9.17732343e-03 0.
      -1.68156205e-03 3.03248689e-02 0. 0. 0. -2.07334218e-04
      -2.18247287e-02 1.06642582e-03 0. -1.35584436e-02 -8.85646231e-03
      0. 2.93846941e-04 2.30053384e-02 0. 0. 0. 2.17734464e-02
      9.13492404e-04 0. 2.32426595e-04 2.14038091e-03 -3.62049835e-03 0.
      2.38739862e-03 1.04755512e-03 -3.17729427e-03 1.44442394e-02
      -3.15629831e-03 -9.94925736e-04 0. 0. 0. 0. 0. 1.11911343e-02
      -8.76681600e-03 0. 0. 1.32493507e-02 1.03770401e-02
      -2.79764249e-03 0. 0. 8.58603380e-05 1.54278344e-02 0. 0.
      -7.93815008e-04 -4.90441627e-04 1.98277901e-03 1.16107673e-04
      3.16954441e-02 0. 6.10683579e-03 -7.44901365e-03 0. 6.81927940e-03
      0. -2.01748786e-04 5.62216714e-03 1.92965928e-03 1.12970581e-03
      -8.43339879e-03 -2.18582177e-03 -7.59161310e-04 0. 0.
      1.79797737e-03 3.13522003e-04 -4.34567162e-04 -4.12039552e-03 0.
      -7.25848507e-03 -1.15164003e-04 -1.94478233e-03 8.81015044e-03
      3.97147462e-02 0. 2.27286626e-04 -7.13237980e-03 -2.79159111e-04
      -1.51773938e-03 1.65383928e-02 -3.83255217e-04 1.62542961e-03
      -9.63143446e-03 -2.51404662e-03 1.79237630e-02 1.94873463e-03 0.
      0. -2.19850224e-02 0. 0. 6.58147619e-04 -4.14679758e-03
      2.60073529e-03 3.53083218e-04 0. -3.73961292e-02 0. 1.91975257e-03
      -2.52851867e-03 1.34589784e-02 -7.71900173e-03 0. -5.20438561e-03
      -9.22383551e-05 1.54533777e-02 -2.03965651e-03 -1.29098422e-03
      -7.49262690e-04 -7.72488583e-03 2.59039178e-03 -1.26216130e-03 0.
      0. 0. 0. 5.25628729e-03 -1.37553895e-02 7.17012445e-03 0.
      4.14842321e-03 9.76490881e-03 2.00119009e-03 0. 0. -1.53742265e-02
      0. -1.46339182e-03 3.22559453e-03 -7.17664976e-03 -8.96643382e-03
      0. -1.22813443e-02 9.51958820e-04 -1.08352304e-02 5.12926234e-03
      0. -8.10265832e-04 -2.40307413e-02 -5.51761081e-03 7.67341908e-03
      -2.23840616e-04 -3.43155907e-03 -2.03137938e-02 -7.13580428e-03 0.
      1.79924071e-02 0. 0. 0. 2.70790712e-04 5.98496106e-03
      -1.59655139e-02 -2.16557402e-02 -4.14154056e-05 1.33359875e-03
      3.96115705e-03 -4.18197736e-03 2.46920943e-04 0. 4.57501458e-03
      -2.59452802e-03 0. 0. 0. 6.06603827e-03 -7.57535105e-04 0.
      -4.00672015e-03 0. 0. 0. 0. 0. -1.82780176e-02 -4.60408116e-03 0.
      0. 0. 0. 0. 5.95514895e-03 1.84306758e-03 0. -1.37865706e-03
      7.36223906e-03 -3.78898857e-03 1.53091401e-02 -1.72299221e-02
      -8.36615160e-04 -1.34385121e-03 0. 4.40559816e-04 1.13003207e-02
      1.10313436e-03 -7.63898075e-04 0. -5.12711750e-03 0.
      2.34599947e-03 -1.67581197e-02 0. 0. 0. -1.51041779e-03 0. 0.
      -7.72597454e-03 -5.33308974e-03 -1.15956552e-02 0. -1.66752581e-02
      -2.52455520e-03 -3.57303931e-03 0. 8.18612147e-03 3.08421776e-02
      -4.37064748e-03 6.21956168e-03 0. -3.84108687e-04 -2.47506402e-03
      4.32559103e-03 2.00028461e-03 1.58850022e-03 6.76243240e-03
      9.74653568e-03 0. 1.24093844e-02 0. 8.20251473e-04 0. 0.
      6.81774737e-03 0. -2.74008285e-04 0. -5.69563778e-03
      9.85939149e-03 0. -2.46993557e-04 1.04431331e-03 0. 2.27435771e-03
      -2.72147212e-04 0. 0. 0. -5.95650403e-03 0. -2.52376054e-03
      -4.23173537e-04 -9.04527202e-04 -4.69290419e-03 -3.01323528e-03 0.
      1.83322944e-03 -7.24737110e-05 0. -5.93114419e-05 2.61267647e-02
      0. -1.77330375e-02 -1.04865618e-02 4.32047201e-03 2.67470069e-02
      5.22697996e-03 0. 9.43554472e-03 3.08121875e-04 1.17880676e-03 0.
      -9.46067274e-04 0. 0. 7.96414315e-06 -1.59037188e-02
      9.86154424e-04 0. 2.99042207e-03 5.82106970e-03 -2.84329319e-04
      -1.02254404e-02 0. -3.30487941e-03 0. 0. 0. 7.71151390e-05 0.
      -6.80026179e-03 0. 1.81804632e-03 2.62063649e-03 0. 0.
      1.45424681e-03 0. 4.07580333e-03 3.08465888e-03 0. 1.49660567e-02
      0. 0. -1.35588914e-03 5.87233063e-03 2.91503413e-04 0. 0.
      9.05448850e-03 -9.43148334e-04 1.36610912e-02 5.76684065e-03
      -1.76805891e-02 -1.78761072e-02 -1.52294822e-02 -5.07381978e-03
      -1.35699951e-03 0. 0. 0. 0. 1.18331297e-03 2.64720828e-03
      -4.73019620e-03 0. 0. -1.63393710e-02 0. -1.07942121e-02 0.
      -2.71113124e-03 3.44797823e-04 5.69091353e-05 -4.59374255e-03
      4.92655439e-03 1.94467721e-03 -5.89556177e-04 1.44423655e-04 0.
      1.39198191e-02 0. -4.68086125e-03 -7.31750159e-03 -2.43937410e-02
      1.75150999e-04 0. 0. 0. 0. 0. -1.52933076e-02 1.82672925e-02
      -3.18845524e-03 0. 5.70321921e-03 0. 9.01655387e-03
      -1.40147007e-04 3.57783836e-04 7.15795625e-03 -2.50345422e-03 0.
      -6.02881238e-03 -3.88391851e-03 9.68129467e-03 6.34006457e-03 0.
      1.04936846e-02 2.23498023e-03 -1.59055041e-03 -1.91455986e-02
      -6.17802318e-04 0. 0. -1.43557107e-02 3.33587383e-03
      1.07338205e-02 -2.66440143e-03 0. 9.82064521e-04 -6.68277172e-03
      0. 0. 3.43450869e-04 0. 0. 0. 0. 2.20386311e-03 1.30141817e-03
      5.11733862e-03 2.47810292e-03 1.17362412e-02 -3.26772191e-04
      1.76704850e-03 3.20320413e-03 0. 1.64682802e-03 -2.19226889e-02
      2.91741500e-03 2.14597606e-03 -1.17573503e-03 0. 2.20068917e-03
      7.31315836e-03 6.22738502e-04 0. 4.64987941e-03 0. -1.39852650e-02
      -2.41230172e-03 1.50216161e-03 0. 5.33579150e-03 -2.01168586e-03
      -2.10380345e-03 9.35015094e-04 -6.49846205e-03 -4.57938714e-03 0.
      -8.03739205e-03 -3.94086586e-03 0. 0. -1.53192435e-04
      -9.36809811e-04 3.38699250e-03 0. 0. 0. 0. 1.47769321e-03 0.
      -9.21389367e-03 0. -5.43114590e-03 0. -3.53420828e-03
      -1.67240370e-02 0. -3.56911984e-03 -1.82455336e-03 7.27388822e-03
      2.12443736e-03 0. -1.86743017e-03 -7.46988971e-03 0.
      -4.02091630e-03 0. -2.78907712e-03 -1.08136488e-02 -2.86895712e-03
      1.23520603e-03 -8.63712223e-04 -1.15917232e-02 0. 0.
      8.99257197e-04 1.31516075e-02 2.68071401e-03 0. 0. 0.
      1.82601381e-02 -1.59471834e-04 0. 3.75430170e-03 0.
      -1.61950337e-03 0. 0. 0. 3.02564516e-03 0. -2.24585198e-02
      8.54925346e-03 3.78625281e-03 0. 1.01921074e-02 7.38431467e-03
      8.73756316e-03 2.40318235e-02 1.26130274e-03 0. 0. 0.
      3.45014855e-02 -6.78995252e-03 0. -1.95442419e-03 0.
      9.44385398e-03 0. -9.62610636e-03 0. 0. -9.89921764e-03 0. 0.
      1.19294040e-02 -5.56423282e-03 0. 0. 0. 2.68574688e-04
      -4.02462902e-03 0. 0. -1.15943910e-03 -3.64527362e-03
      2.35177744e-02 6.66858256e-03 9.74395964e-03 2.26844684e-03 0.
      -2.15679538e-02 -1.39421355e-02 0. 0. 3.92453367e-04
      -2.80227675e-03 1.62993241e-02 -2.70584878e-03 -5.34761639e-04 0.
      9.29113664e-03 0. 0. -4.31968831e-03 0. 9.44891572e-03
      -4.75045340e-03 0. -8.25903751e-03 1.16409769e-03 0.
      -6.63566357e-03 1.01068197e-02 0. 2.26397696e-03 6.53108675e-03
      -5.23043610e-03 -1.01022637e-02 0. -5.20309387e-03 0.
      8.69620591e-03 0. 0. 0. 1.13241542e-02 0. 3.99267860e-03
      -2.78346036e-02 0. 0. -1.87130878e-03 -1.47774888e-04 0.
      4.82606010e-05 3.88987450e-04 0. 5.78801031e-04 1.21222725e-02
      2.13949534e-05 -5.63686108e-03 0. 0. -4.69298502e-05
      -1.82711706e-02 4.65071906e-04 -8.66396446e-03 0. 0.
      -3.69637297e-03 -6.10583089e-03 -1.51459994e-02 -1.34802153e-02
      -1.32797449e-03 0. -1.33900309e-03 -5.62058948e-03 -1.74377598e-02
      -2.35137832e-03 -1.73125719e-03 -5.51966485e-04 -1.50508555e-02
      -5.17426431e-03 -1.31393375e-03 -8.69042589e-04 -2.73941713e-03
      3.88028426e-03 -6.08210510e-04 6.37209014e-05 0. 1.35960830e-02
      1.00109829e-02 0. -2.00170791e-03 0. 0. -3.42960260e-03 0. 0.
      -9.40297730e-03 -1.58159621e-03 2.08763070e-02 -2.11518034e-02
      9.66396555e-03 0. -1.21944901e-02 1.56652890e-02 2.58553983e-03 0.
      -1.67801678e-02 0. 1.46990977e-04 1.11854505e-02 -5.17298095e-03
      0. 0. 1.05317961e-03 -1.96106452e-03 0. 0. 0. -1.53750647e-02
      -5.47968177e-03 1.17338933e-02 0. 9.92475450e-03 5.81413181e-03 0.
      -9.98615287e-03 3.19823739e-03 -1.52675323e-02 4.84227622e-03
      4.24241228e-03 4.37457999e-03 0. 0. 1.18061947e-03 2.50752047e-02
      0. -2.72343750e-03 9.82682686e-03 0. -1.48408888e-02 0.
      5.64028788e-03 0. 0. 0. 3.26198549e-03 -3.40338302e-04 0.
      1.52636180e-02 3.91685084e-04 0. 1.55647146e-02 9.61135258e-04
      1.20950555e-02 4.35516052e-03 6.87108201e-04 2.45864373e-02 0.
      -2.49071093e-03 -2.28066230e-03 0. 0. 0. 0. 0. 0. 0. 0.
      3.84587306e-03 0. 0. 0. 1.10083977e-02 8.81329831e-03
      1.27530121e-03 0. 0. -6.81256363e-03 1.36652216e-02 0. 0. 0.
      1.34563968e-02 0. -1.08665712e-02 -1.97325815e-02 0.
      3.74188391e-03 -1.92638244e-02 0. 6.14615064e-03 1.40239671e-03 0.
      0. 0. 0. 9.75826290e-03 -7.19287142e-04 3.66746378e-03
      1.39778585e-03 0. 0. 0. 3.64459213e-03 -2.93966662e-02 0.
      -8.73369724e-03 4.52452718e-04 8.04500747e-03 -3.62764858e-03 0.
      -1.47793515e-04 8.26248806e-03 9.85897845e-04 0. 6.43060193e-04 0.
      0. -5.19239169e-04 8.31722375e-03 -4.73004067e-03 -1.85566337e-03
      1.26215108e-02 1.73855741e-02 3.40589229e-03 2.90080742e-03 0. 0.
      -4.05498128e-03 2.25611700e-04 -1.02139814e-02 0. -8.92719254e-03
      3.83570790e-04 -5.15104877e-03 0. 0. 0. 0. 8.62056203e-03
      8.63238983e-03 1.66654028e-03 -2.51990333e-02 1.35814806e-03
      1.50494687e-02 -3.63512454e-03 1.56634103e-03 0. 2.69605475e-03
      -1.15302646e-05 0. -4.22204641e-04 1.54000921e-02 -1.78963616e-02
      -1.39189456e-02 1.06228364e-03 1.26920315e-02 7.92682916e-03
      2.43752031e-03 4.47479542e-03 -7.45362416e-03 -1.62924617e-03
      -2.14479995e-04 2.53897719e-03 1.25286039e-02 -3.92946554e-03 0.
      0. 0. 2.10525421e-03 -1.16070434e-02 1.31651117e-02 7.39352684e-03
      0. -2.24008923e-03 1.47444392e-02 0. -1.90594457e-02 0.
      -1.22161619e-02 1.01881446e-02 1.15876012e-02 4.25450678e-04 0.
      6.11051312e-03 0. -2.53204629e-03 -4.54175845e-03 0.
      -3.25464964e-04 1.04033992e-04 -1.31377461e-03 1.23800514e-02
      -8.90321564e-04 1.20058481e-03 -1.24208711e-03 0. -1.96698029e-02
      3.39176098e-04 2.88867932e-02 3.89676751e-03 0. -4.69142664e-03
      5.54714352e-04 1.10602810e-03 0. -2.65668682e-03 0. 0. 0.
      4.34850901e-03 -1.25924140e-04 0. 0. 0. 1.50860811e-03 0.
      -1.51685318e-02 -4.40106123e-05 0. 0. 0. 0. 0. 9.35319532e-03
      1.17676547e-02 0. 0. 0. -1.37714725e-02 0. 8.69313721e-04 0. 0. 0.
      0. -2.85610207e-03 -2.94083729e-03 6.55530719e-03 1.09920809e-04
      -6.82538003e-03 5.40038280e-04 0. -1.71276163e-02 0. 0.
      4.56503505e-04 0. 1.09448668e-03 2.22508051e-03 6.16624439e-03 0.
      1.00866808e-02 -7.12670293e-03 2.81969607e-02 2.18569338e-02
      1.30508337e-02 0. -1.90832943e-03 9.58238821e-03 0. 0.
      8.80445261e-03 -2.90334504e-03 -9.59381519e-04 -1.55883571e-02 0.
      -2.41711549e-03 0. -4.38944262e-04 2.19309120e-03 -2.12666187e-02
      1.04770530e-02 1.08986199e-02 -1.34201897e-02 -3.33257572e-04
      8.57144967e-03 0. 0. 2.19951369e-04 -8.73888098e-03 0.
      -1.42022492e-02 0. 5.71478799e-04 0. -4.40721546e-04 0. 0.
      -2.39203218e-02 0. 3.87834734e-03 1.14994766e-02 5.05446643e-03
      -4.35101660e-03 0. 6.41180249e-03 7.07832107e-04 0. 0.
      1.82142034e-02 0. 0. 1.07575173e-03 3.29744853e-02 9.42831207e-03
      0. 9.28114634e-04 0. -2.07899641e-02 0. -5.71111543e-03
      -5.52862091e-03 0. -4.23478894e-03 2.68146687e-04 -6.47801999e-03
      -1.02720466e-02 0. 1.06688282e-02 7.01438030e-03 0. 3.13005643e-03
      -1.60565395e-02 0. -1.87819113e-03 2.52040307e-04 0. 0. 0.
      -3.61946900e-03 0. 0. -8.08947627e-03 4.49455203e-03
      -1.60572620e-03 -1.05678644e-02 0. 0. 0. -6.58043008e-03
      5.64889889e-03 0. -3.81142600e-04 0. 0. 0. 0. -1.90331917e-02
      -3.29165952e-03 -1.11537781e-02 1.76141877e-03 -2.80656368e-02 0.
      2.16539658e-04 0. 0. -1.64777006e-03 0. 0. 0. 5.00222668e-03
      -4.61917277e-03 0. 6.09932002e-04 -3.17130797e-03 1.24111529e-02
      1.13549856e-02 6.45644404e-03 0. 1.82097815e-02 -8.89391522e-04
      -1.18487915e-02 -1.50712894e-03 -1.77174705e-04 0. -3.73005634e-04
      0. -6.87053520e-03 0. 1.15520344e-03 5.38255321e-04 2.55522016e-03
      0. 2.63871439e-03 0. -9.98289045e-03 2.09010914e-02
      -1.76697690e-02 -7.35555252e-04 0. 0. 2.59448104e-02 0.
      1.33360820e-02 -1.17134657e-02 5.13016494e-05 0. -1.84245571e-03
      -5.25542302e-03 -1.43823889e-03 2.24902644e-03 0. 7.31165987e-03
      0. 5.97725203e-03 0. 0. -1.20940674e-02 -8.61222018e-03
      -1.21762941e-03 -6.70890091e-03 2.34822221e-02 0. -1.48229683e-02
      -1.09960856e-04 2.81647663e-03 0. 0. 0. -4.18198109e-03
      1.90020108e-03 0. -1.49720265e-02 0. 7.31547410e-03 1.09208114e-02
      0. 2.66682851e-04 -3.43728752e-04 3.16948304e-03 -6.91894628e-03
      0. 0. 3.56784114e-03 5.39452164e-03 3.65172816e-03 -1.02596554e-04
      0. -1.30524696e-03 -6.24323916e-03 1.32874132e-03 7.47312419e-03
      2.95738428e-04 0. -3.15463431e-02 0. 2.58740969e-04 0.
      -5.76084247e-03 0. 1.80802979e-02 0. -4.22617048e-03 0. 0.
      1.97210871e-02 1.82342192e-03 2.71779951e-03 0. 0. 0.
      5.40860137e-03 0. 0. 1.40021630e-02 0. 6.90895715e-04 0.
      -2.21471228e-02 0. -1.27083578e-04 1.02959210e-02 -1.82269905e-02
      -6.29068259e-03 -1.79626525e-03 -1.89987652e-03 -7.46597257e-03 0.
      0. 0. 0. -4.05243009e-05 8.85245390e-05 -3.37007316e-03
      1.16452156e-02 -1.93801952e-05 -7.49479979e-03 0. -1.72751641e-03
      -1.55204637e-02 1.31391850e-03 -7.74297398e-03 3.24193243e-05
      2.93945614e-03 1.98791642e-02 -1.86588708e-02 0. -2.23365054e-03
      1.71218067e-02 1.91629783e-03 1.16237523e-02 -1.86295889e-03 0. 0.
      -8.48574564e-04 0. -1.27572566e-02 0. 0. 2.52302550e-03
      1.42118512e-02 8.99522845e-03 1.63673647e-02 -1.12224827e-02
      2.84936209e-03 0. 1.30309425e-02 1.03433745e-03 0. -4.31154680e-04
      2.81500630e-04 -1.52380939e-03 0. 0. -7.20545836e-03 0.
      2.35913172e-02 -1.51103353e-02 0. -6.85303472e-04 2.43644667e-04
      4.91265848e-04 0. 2.28007542e-04 2.03613248e-02 -5.54579729e-03 0.
      -1.23138260e-02 8.25067691e-05 0. 0. 2.85270682e-04 3.21843987e-03
      -4.96455608e-03 0. -4.96806204e-03 2.13196687e-02 1.00675663e-02
      0. 0. 2.19615316e-03 -1.03518098e-04 5.31625794e-03
      -7.54537201e-03 1.10209379e-02 2.22805943e-02 5.36661269e-03 0.
      3.57773592e-04 4.46660072e-03 4.43063071e-03 0. 2.75778621e-02
      3.22312042e-02 -4.44194098e-04 0. 2.99201137e-03 0. 0. 0. 0.
      -3.24684381e-03 2.42253151e-02 0. 3.07333004e-02 1.53492521e-02
      6.82961755e-03 0. 0. 0. 0. 1.32127770e-03 0. 1.34711294e-03
      2.59704393e-04 3.53983394e-03 1.91284064e-03 0. -1.09016866e-04 0.
      -1.28925107e-02 1.43642016e-02 1.92464422e-02 0. -1.25788094e-03
      0. -1.41789690e-02 -2.39562280e-02 3.47170723e-03 -1.21643639e-03
      0. 0. -6.24500727e-03 0. 0. 6.36772159e-03 3.58814094e-03 0.
      1.27499886e-02 0. -4.46831982e-05 -1.35919638e-02 5.71598345e-03
      -1.26738480e-04 -1.08713873e-04 -1.43511696e-02 0. 0. 0.
      -3.09194368e-03 0. 0. 0. -2.62459693e-03 2.45822733e-03 0. 0. 0.
      0. 0. 2.19216850e-02 -5.23365522e-03 0. 0. 6.31480664e-03 0.
      6.56701438e-03 -1.06034391e-02 0. 0. -5.18081663e-03
      -8.42732657e-03 -4.25341632e-03 2.83389352e-03 -1.20369962e-03
      -3.62739712e-03 -3.28718964e-03 5.03716152e-03 0. 0. 0. 0.
      -1.66158204e-03 -3.27676127e-04 0. 0. 0. 0. 0. 0. 5.67739690e-03
      -2.72017741e-03 4.99429647e-03 -3.09755467e-03 9.53049224e-04 0.
      -6.41451031e-03 0. 0. 2.99948212e-02 -1.64324942e-04 0.
      2.16001854e-03 0. 0. 1.28520261e-02 -1.38808857e-04 1.03782419e-04
      -1.71927586e-02 0. 1.22453012e-02 -1.03753235e-03 -5.61064109e-04
      6.01981446e-05 0. 3.93788650e-04 3.51235899e-03 1.40843783e-02
      -2.06316747e-02 -1.07930480e-02 2.27692910e-03 2.18881015e-02
      -4.24632337e-03 -1.46804070e-02 0. -1.03185074e-02 0.
      -5.14220679e-03 0. 9.60305426e-03 0. 0. 2.83329445e-03 0. 0. 0.
      -3.86792421e-03 0. 0. 2.23308685e-03 -5.12451353e-03 0.
      5.19386260e-04 0. -1.40827557e-03 -6.69796718e-03 6.53859970e-05
      4.23327263e-04 0. -4.75668377e-04 8.03486351e-03 0. 0. 0.
      2.81713009e-02 0. 0. 2.60199973e-04 3.66771128e-03 0.
      1.08148744e-02 0. -2.57004402e-04 -8.44431808e-04 -2.57469364e-03
      0. 0. 3.45644512e-04 2.13052146e-03 -1.82262145e-03 2.55691935e-03
      0. 1.09899882e-03 1.57164223e-02 2.17665540e-04 5.18224260e-04 0.
      1.19983926e-02 0. 0. 3.24977591e-04 1.82686502e-03 0.
      -2.02299841e-03 2.24193949e-02 0. 0. 0. -2.53526052e-03
      -8.66746437e-03 0. -2.91614491e-03 1.88459852e-03 8.28743260e-03
      4.48332110e-04 0. 0. 3.12556932e-03 6.09097490e-03 1.65274934e-04
      -7.60253472e-03 0. 0. 1.24416035e-02 0. 0. 6.15157420e-03
      -1.97959933e-04 -2.42579146e-04 -1.64536561e-03 -2.52670376e-03
      -5.83599927e-03 0. 4.03916318e-04 -1.19765324e-03 2.09013768e-03
      0. 0. 0. 1.09032053e-03 0. 0. -5.76228555e-03 0. 9.66695789e-03
      8.07311200e-03 2.29415065e-03 0. 2.09259847e-03 0. -3.54684098e-03
      2.02628667e-03 0. 1.15413154e-02 -3.14880838e-03 8.76444756e-05
      3.15864309e-05 0. -1.92183442e-02 5.72997262e-04 -6.34116307e-03
      2.66850955e-04 4.86869086e-03 -1.27034145e-03 0. 1.78477224e-02 0.
      4.06097993e-03 -7.43709214e-04 0. 7.53671397e-03 0.
      -1.03465179e-02 0. -2.76741019e-04 0. 5.91916824e-03
      -3.52671486e-05 -1.37571548e-03 0. 0. 0. 1.91597070e-03 0. 0. 0.
      1.62350701e-03 -1.09037682e-02 0. 0. 0. -2.34886748e-03
      1.23808859e-02 6.27250830e-03 0. 0. 0. 7.67317321e-03 0.
      -4.43563098e-03 5.99558279e-03 0. 4.44019958e-03 -1.46113867e-02
      0. 1.45668746e-03 -2.52137426e-04 0. -3.20613990e-03
      1.29865762e-02 -8.66098981e-03 -9.02453554e-04 0. 0.
      -5.37714106e-04 0. 0. 4.51325061e-04 0. 0. -9.71076824e-03
      5.76851962e-05 -3.52509413e-03 0. 0. -5.87126659e-03 0.
      -3.79696768e-03 -2.86519118e-02 0. 8.95646866e-03 8.52943677e-03
      3.09915165e-03 -2.14639250e-02 -6.61471626e-03 -6.51358068e-03 0.
      0. -1.99664338e-03 0. 0. 0. 1.81577896e-04 2.50428617e-02 0. 0.
      -2.60877274e-02 0. 0. 3.00861662e-03 4.17202682e-05
      -1.06029178e-03 -6.95690000e-03 0. 0. -4.79584618e-04
      1.63266144e-03 -4.04014485e-03 0. 1.12581234e-02 3.11598415e-04 0.
      -1.01467464e-02 0. -1.04059838e-02 1.77769475e-02 -1.34034716e-02
      -1.18788555e-02 0. -9.66342515e-04 6.43482897e-03 0.
      -6.16166182e-03 -9.80877690e-03 5.40186046e-03 2.24610069e-03
      3.32132149e-05 2.98332889e-03 -1.74896847e-02 0. 0. 0.
      1.14475768e-02 3.62531445e-03 0. -6.99141296e-04 1.85523904e-03
      -6.48659049e-03 0. -3.12472694e-03 -2.88332626e-02 -1.01118209e-02
      1.08061254e-03 0. 0. -8.52137990e-03 0. 2.24595983e-03
      -2.82176454e-02 2.44788080e-03 3.56293574e-04 2.78326031e-02 0. 0.
      1.11571071e-03 3.87562229e-03 2.13023359e-05 0. -5.95522299e-03
      4.41913406e-04 0. 3.70763266e-03 0. 0. 0. -3.17054335e-03
      -4.75649489e-04 6.50163088e-03 -7.87683763e-03 -4.19763662e-03 0.
      -3.43592232e-03 -1.27021223e-02 0. -9.90974624e-03 4.15117107e-03
      0. 0. 0. -1.00630289e-03 -3.84914200e-03 -6.21123658e-03
      -3.09986598e-03 -1.76556013e-03 -2.16500508e-03 6.84723072e-03
      -6.51622191e-03 0. 2.19799322e-03 0. 6.02013490e-04 9.56309494e-03
      -3.84351908e-04 0. 0. 8.64717236e-04 1.24453865e-02
      -2.90199113e-03 0. 9.20164923e-04 1.18295625e-02 0.
      -4.98110941e-03 1.42230205e-02 0. 4.47161292e-04 -6.02021581e-03
      -6.18119445e-03 0. 0. -6.30289025e-04 -4.73194930e-04 0.
      4.77611693e-03 8.52276664e-03 8.27565975e-03 -2.22151224e-02 0.
      -6.77222328e-04 -1.56346487e-05 1.69090217e-03 3.01398896e-02 0.
      -1.05874538e-02 1.19490491e-03 0. 0. 2.69280135e-04 6.78523257e-03
      0. 0. 1.01528624e-02 0. 0. 0. 0. -8.36880319e-03 -1.31219125e-03
      0. -3.93816590e-04 1.48457626e-03 1.70283078e-04 0. 0.
      1.33187398e-02 -5.15812123e-03 -1.42405427e-03 0. 0.
      -6.44651518e-05 0. -2.04993971e-02 0. -5.59332257e-04
      2.16943095e-03 0. 6.63878350e-03 1.41017954e-03 4.93683666e-03
      1.08951628e-02 1.33655930e-03 0. 2.99071195e-03 9.71502683e-04 0.
      0. 1.41582377e-02 0. 0. 0. 0. 1.20668883e-05 0. 0. -1.59763619e-02
      2.14754511e-02 3.15706315e-03 1.38357643e-03 0. 0. 1.29695814e-02
      1.91884654e-04 2.48266235e-02 1.00714583e-02 -1.29285699e-03
      -9.08270478e-03 7.62710813e-03 0. -1.36065402e-03 1.78793669e-02
      -8.98572616e-03 0. 0. 2.85434566e-04 2.21297334e-04
      -1.82049703e-02 9.61192325e-03 -3.21187079e-03 -1.94475142e-04 0.
      0. 0. 0. -1.33204218e-02 0. 4.84857615e-03 0. 0. 2.11111875e-03 0.
      -1.72934718e-02 0. -1.50555151e-03 1.42551558e-02 -7.95691885e-05
      0. -3.13868455e-04 1.87376956e-03 0. 0. 0. 0. 1.00389617e-02
      3.47926398e-03 2.14201510e-02 -2.22426206e-02 0. 3.71493329e-03 0.
      -5.00113005e-03 -1.97870750e-03 0. -1.21227989e-03 1.66800171e-02
      -4.03447496e-03 0. 0. 0. 0. 0. 1.48075400e-02 -5.31295454e-03 0.
      -9.00736172e-03 1.33285834e-03 -1.00563187e-02 0. 6.15737925e-04
      0. 4.98022884e-04 0. 0. -6.62134122e-03 -1.87669334e-03 0.
      4.16859606e-04 -4.93018233e-05 1.75815541e-02 4.31089010e-03
      9.48049314e-03 0. 5.10292919e-03 0. 1.56443901e-02 0. 0.
      -3.22022871e-03 0. 2.45881695e-02 -1.95014458e-02 -1.18113821e-02
      3.00721789e-04 9.73389857e-03 0. 8.32002144e-03 0. 0. 0.
      -1.10593923e-04 0. 0. 0. -5.98980393e-03 1.17498264e-03
      -2.62638088e-02 0. 0. 8.06208793e-03 -2.25961674e-02
      -2.10600148e-04 0. 3.46792839e-03 -1.45401908e-02 0.
      -1.16932224e-02 -8.18979461e-03 0. 7.22318189e-03 -2.54181959e-05
      0. 3.52975959e-03 1.08371647e-02 0. -5.25687123e-04 0. 0. 0.
      5.93405333e-04 7.80947630e-06 -1.07370724e-03 -7.49888888e-04
      2.67971288e-02 0. -1.51961332e-03 -1.14583261e-02 -1.83178894e-02
      0. 3.10146715e-04 0. -3.32007441e-03 1.75067428e-02 0.
      2.05372088e-02 0. 0. 0. 3.80139705e-03 -2.09253328e-03
      -2.52702436e-03 2.90887867e-04 1.97502924e-03 -4.04091226e-03 0.
      1.34875430e-02 1.94674323e-03 -8.24865245e-04 3.08933738e-03
      1.03340652e-02 1.65872625e-03 -5.19608089e-04 1.48405628e-02
      6.25673635e-03 -5.09562576e-03 -8.54929793e-04 0. 0.
      -2.18492514e-03 8.03319924e-03 0. 0. 0. 0. -4.50279471e-03 0. 0.
      -1.64775159e-02 2.09540565e-04 0. 0. 1.90847053e-03 0.
      -1.22945139e-03 0. -1.39387473e-02 -2.82508973e-03 0.
      -5.32950158e-04 -9.51143261e-03 -2.86207185e-03 2.20741294e-02 0.
      0. 0. 0. 0. -1.80585345e-03 -1.18815461e-02 6.75777765e-03
      1.60326734e-02 0. 2.26879958e-02 -6.53380877e-04 0.
      -8.83723702e-03 5.11035440e-04 9.08743311e-03 -2.90466612e-03 0.
      -1.20531982e-02 0. -1.15630142e-02 -1.48997242e-02 -8.95945821e-04
      0. -1.02134030e-02 2.21603131e-03 1.21342363e-02 0. 0.
      3.44115630e-04 -5.86245349e-03 0. 9.11311526e-03 -6.83648419e-03
      0. 0. -1.60077810e-02 -1.66499559e-02 -2.45765172e-04
      1.08307060e-02 1.77532691e-03 -2.92741461e-03 1.71693526e-02 0.
      -3.43070854e-03 -2.41262838e-03 1.32220320e-03 0. -2.22450402e-02
      4.17853659e-03 6.91908353e-04 0. -1.05184997e-02 0. 0. 0. 0.
      -5.24603929e-05 2.86395522e-03 -2.20500194e-02 -3.25940712e-03
      3.24999765e-02 -1.67693681e-04 0. -2.14205403e-03 1.04410797e-02
      -1.27029764e-02 0. 3.48666770e-04 0. 0. 1.85515115e-03
      -4.38863784e-03 -2.19628680e-03 0. -6.23058667e-03 0. 0.
      -8.81318096e-03 0. 0. 3.02658156e-02 0. 0. 0. -3.57612991e-03
      -7.85527099e-03 -1.62029937e-02 2.84034963e-04 5.99456020e-03
      -6.79421984e-03 -3.75214918e-03 1.27055757e-02 3.92675912e-03 0.
      0. 0. 0. 0. 0. 0. 0. -5.17206732e-03 -3.02924745e-04 0. 0. 0.
      -1.40432948e-02 0. 1.19268112e-02 3.59613076e-03 -1.05581782e-03
      0. -1.15592568e-03 5.03758062e-03 0. 0. -1.26206677e-03
      2.25860951e-03 -1.01849646e-03 -1.94707746e-03 1.51472520e-02
      3.48341302e-03 0. -4.86560864e-03 1.79048032e-02 0.
      -1.27787888e-02 -1.23180667e-04 -4.59515862e-03 6.17613597e-03 0.
      0. 1.63770793e-03 8.57527275e-03 -3.93998111e-03 0. 3.08378390e-03
      0. 0. 0. 0. 0. 0. -2.05513537e-02 -4.70585143e-03 4.92681563e-03
      8.69861047e-04 3.28066410e-03 0. 0. -3.20987985e-03 0.
      -4.70791449e-04 4.09161439e-03 5.72273275e-04 9.42520704e-03 0. 0.
      -8.64543673e-03 1.52347926e-02 -1.86878685e-02 0. 1.68957876e-03
      6.97121816e-03 -1.65829603e-02 0. -9.78894415e-04 1.73182953e-02
      3.61557817e-03 9.09645855e-03 -8.76392951e-05 1.91559806e-03 0.
      -4.35225666e-03 3.90429888e-03 5.47004258e-03 -1.09676067e-02
      7.96057691e-04 -2.01940835e-02 -7.14160968e-04 0. -1.19325537e-02
      1.54976668e-02 1.57498550e-02 0. 3.79128178e-04 1.59053877e-02 0.
      0. -6.01522205e-03 4.75615403e-03 0. -5.50837904e-05
      -5.77325351e-04 0. -2.02575680e-02 1.30185287e-03 0.
      1.01949153e-02 1.93936881e-02 3.45035153e-03 3.13696510e-04
      1.65426787e-02 0. 2.48653628e-03 0. 0. 1.40754215e-04
      3.40289925e-03 0. -2.39242823e-03 6.51027914e-03 0. 0. 0.
      -1.94147578e-03 0. 4.51467140e-03 0. 0. 1.51521352e-03 0.
      3.84832820e-05 0. 0. 0. 1.31259570e-04 2.81708110e-02 0. 0. 0. 0.
      0. 7.89806526e-03 0. 0. 0. 0. -1.39662996e-03 0. 0.
      -1.13609023e-02 -2.94338423e-03 0. 2.66040508e-02 3.46838897e-05
      1.33289999e-04 -4.18060845e-05 0. -4.18034866e-02 -4.67095524e-03
      0. -2.42390219e-04 2.18718275e-02 -1.41692045e-03 -1.29684014e-02
      1.45020830e-02 1.87696679e-03 -6.96027558e-03 0. -1.76319503e-03
      3.87032371e-04 7.84575124e-04 -9.78057273e-03 0. 4.35144291e-04
      1.40076838e-02 0. 2.15730667e-02 -1.42106768e-02 0.
      -1.77373383e-02 -4.34016227e-04 0. 1.97913498e-03 0.
      1.65206566e-02 3.46220005e-03 0. -4.17427672e-03 1.81736443e-02
      5.49410412e-04 4.75972844e-03 0. 3.52484686e-03 0. -7.13176050e-05
      0. -3.48484842e-03 1.01505527e-02 0. -2.76135677e-03 0.
      1.10473623e-02 -2.91525833e-02 0. 1.79241672e-02 4.19097906e-03
      8.13819352e-04 -9.59267467e-03 1.15894116e-04 -2.16515255e-04 0.
      0. 2.13620556e-03 7.13412929e-03 -1.68326544e-03 -4.13148577e-04
      0. 0. 9.49528255e-03 0. 1.30478367e-02 0. 0. 0. -7.32256426e-03
      1.90675142e-03 1.66375432e-02 6.74035051e-04 1.13084074e-02
      -8.07519420e-04 0. -8.02251883e-03 0. 1.86540671e-02 0.
      -8.53697595e-04 0. 0. 5.17245568e-03 -5.60524117e-04
      -5.23997238e-03 0. 0. -1.54706351e-02 -2.57448032e-02
      -1.34260366e-02 3.86135699e-03 -2.83040814e-02 0. -3.03464080e-03
      9.58868782e-07 0. 0. 1.08006381e-04 3.36716394e-03 -3.37538458e-02
      0. 1.22701162e-02 3.04689109e-02 1.94179127e-03 -1.12787343e-03 0.
      1.40250763e-02 2.42993352e-03 1.02094607e-02 0. -1.57086470e-03
      6.15039549e-04 0. 0. -1.31846964e-03 0. -3.57926288e-03 0.
      -1.49079636e-02 -6.97518233e-03 -4.51908959e-03 9.36378492e-05
      -3.38546379e-04 -6.51689293e-03 5.22688730e-03 0. -1.62528222e-03
      -3.53212492e-03 0. 0. 0. 7.47084431e-03 2.88992282e-03
      -1.00568281e-02 -4.79776692e-03 0. 1.10329909e-03 0. 0.
      -2.05677911e-03 0. -6.03068527e-03 0. 0. -1.52253499e-02 0.
      5.42790582e-03 1.24161392e-02 -1.44728250e-03 1.47513943e-02
      -3.02118924e-03 0. 1.28062908e-04 1.61017745e-03 0. 0.
      -1.51960106e-04 0. 2.73106899e-03 0. -1.30785694e-02 0.
      8.94374243e-05 0. 0. 5.71557507e-03 -8.17560684e-03 0.
      5.45725599e-03 -5.92049561e-04 -1.40741048e-02 -1.77749861e-02
      4.24570404e-03 -1.19153934e-03 -7.93845952e-03 5.20133739e-03
      -6.23720372e-03 6.32661907e-03 0. 0. 0. 0. -1.18885459e-02
      -1.61489677e-02 -7.18213792e-04 -7.61295203e-04 1.81347895e-02
      -3.40825855e-03 0. 3.70549620e-04 2.89032292e-02 0.
      -9.76036023e-03 -2.30376725e-03 7.63893710e-04 1.23317493e-02 0.
      -8.00764002e-03 -1.49129936e-03 5.06720552e-03 -2.80148489e-03
      9.81816184e-03 0. 4.06088121e-03 -1.34359769e-04 0. 0. 0. 0.
      -3.30009824e-03 0. 0. -8.77815578e-03 0. 8.81904829e-03 0.
      -1.82678550e-02 0. 0. -2.15350278e-02 -6.35929499e-03
      1.52169615e-02 4.17757872e-03 -8.34137853e-03 1.75884413e-03
      1.16475928e-03 1.84503471e-04 -3.62465829e-02 5.04782563e-03
      1.51359127e-03 -6.08259533e-03 0. 0. 0. 7.16001308e-03
      3.38314078e-03 0. 0. -1.95128340e-02 -2.95544527e-02 0. 0. 0. 0.
      0. 4.73533338e-03 -7.33930524e-03 -1.41469836e-02 -1.89807950e-04
      -1.26385456e-03 1.93062786e-03 -1.18839240e-03 1.65029473e-04 0.
      0. 0. 0. 1.43352998e-04 -1.88339013e-03 0. 0. 0. -2.90694530e-03
      2.44464874e-02 1.34040543e-04 0. -1.00556901e-02 -9.65972990e-03
      -1.75614157e-04 0. -8.45729082e-04 0. 0. -5.80387283e-03 0.
      -2.03284575e-03 0. 9.40552633e-03 1.28282525e-03 0. 0.
      2.07825238e-03 0. -6.93672104e-04 0. -1.40943807e-02 0.
      -7.88439903e-03 0. -4.46392037e-03 0. -9.77322226e-04 0.
      1.37597928e-03 -3.36066238e-04 0. 1.76075641e-02 0. 2.80320388e-03
      -8.22226575e-05 -9.17264086e-04 0. 2.11550156e-03 0.
      1.22386788e-03 0. -5.22373337e-03 4.74207161e-04 -5.87610947e-03
      9.27039189e-04 -5.27373159e-05 0. 1.25125190e-03 -5.70876570e-03
      0. 0. 8.07069009e-04 3.58604151e-03 0. 2.55002151e-03
      -6.67319773e-03 6.72107516e-03 0. 0. 0. 4.14493633e-03
      1.27175003e-02 1.44249648e-02 4.38510254e-03 0. 0. 0. 0. 0. 0.
      2.67245201e-03 0. 4.53073066e-04 -6.79273484e-03 -4.69778315e-04
      1.28882350e-02 0. -1.77347951e-03 1.26745831e-03 3.22960695e-05
      1.19212561e-03 0. 0. 2.33261450e-03 9.23412910e-04 -8.98824632e-03
      -6.89063818e-05 0. -5.39897883e-04 -1.88267343e-02 0.
      -1.62023604e-02 -1.90680940e-03 9.08576883e-03 -1.21172080e-02
      -1.33048957e-02 0. 0. -7.83411693e-03 2.00800179e-03
      -1.84833523e-04 -5.44367544e-03 -4.22850979e-04 -7.56104244e-04 0.
      -1.87862455e-03 2.68284814e-03 3.16818384e-03 0. -1.48299907e-03
      0. 0. 9.26610641e-03 0. -1.30425822e-02 0. 0. 0. 0. 3.16350954e-03
      2.20385124e-03 0. 1.83116850e-02 0. -5.10201615e-04 0.
      3.20812198e-03 0. 2.18403470e-02 8.29928275e-03 -4.41341754e-03
      5.39270695e-04 -2.12378404e-03 0. 3.22804000e-04 -1.22802309e-03
      4.55294177e-03 0. -2.45465548e-03 0. -9.73568938e-04
      -1.52788749e-02 -1.06606261e-04 -2.08206614e-03 0. 0. 0. 0.
      -3.96846840e-03 -1.34924962e-03 0. -3.46166664e-04 -3.66740767e-03
      -1.23924045e-02 -1.09230354e-02 7.87079055e-03 1.88747293e-03
      4.13662288e-03 -2.73025362e-04 7.40681915e-03 2.28500627e-02
      -8.90760310e-03 2.78914091e-03 2.20648609e-02 1.06310716e-03
      6.22633798e-03 -2.33289856e-03 0. -1.70505908e-03 0.
      2.31049699e-03 -1.65455211e-02 0. 0. -2.18575192e-03 0. 0.
      1.56603788e-03 -3.29446443e-03 0. -6.87770022e-04 2.20279098e-02
      -7.89819658e-03 0. 1.81133542e-02 7.13495072e-04 -8.85386718e-04
      1.01723252e-02 -3.96991335e-03 -2.02020886e-03 0. 0.
      3.14244768e-03 0. 0. 0. 0. -5.18363388e-03 -6.98087446e-04 0.
      -3.08537786e-03 -8.27410445e-03 1.77384145e-03 0. 0.
      4.53848345e-03 1.04383484e-03 1.45449480e-02 0. -1.57110300e-02 0.
      0. -1.29443663e-03 9.39969160e-03 0. -6.55181427e-03 0.
      1.51945679e-02 0. 7.60199735e-03 0. -2.86024576e-03 6.52579963e-03
      0. 0. 1.68221090e-02 0. -6.28354202e-04 -6.22576801e-03 0.
      -1.41179073e-03 0. -1.35549400e-02 -3.55493743e-04 1.37529190e-04
      0. 2.03838362e-03 -1.30369299e-04 -1.56740344e-03 0. 0.
      -4.87043709e-03 3.02358152e-04 -7.42379809e-03 8.53452180e-03
      -1.34419911e-02 -1.32575413e-04 4.75688558e-03 2.11521219e-02
      -1.81964338e-02 0. -5.60709275e-03 -1.33081591e-02 0.
      2.87384773e-03 0. 1.75156575e-02 0. 4.70054522e-03 -2.96801329e-03
      8.06527492e-03 0. 9.44267493e-03 0. 2.73260172e-04 3.81499704e-04
      1.68683429e-04 0. 0. 0. 0. 0. 0. -1.16469357e-02 1.00123687e-02
      2.06194888e-03 -2.82542519e-02 1.22346291e-02 -3.00342985e-03
      -1.36601832e-03 1.53355170e-02 4.22772748e-04 0. 2.09378870e-03
      7.85484072e-03 -1.86620224e-02 4.43687802e-03 0. 2.10533068e-02 0.
      -6.91730063e-04 -3.90123040e-03 0. -4.64412384e-03 0.
      -8.73551331e-03 5.23880916e-03 0. 0. 1.24932751e-02 0.
      -2.20549991e-03 0. 4.57834452e-03 4.68776887e-03 8.64529144e-03
      -8.91702308e-04 1.86663847e-02 0. 0. 1.41978161e-02 0.
      -5.77781117e-04 0. 1.89189252e-03 1.00800949e-04 0. 0. 0.
      -1.18825538e-03 -7.85986520e-03 0. 0. 6.50305767e-03
      -4.42097941e-03 -1.59472445e-04 9.55497660e-03 2.65716062e-05
      -3.48438160e-04 -4.91900463e-03 -7.07929954e-04 -1.07930775e-03
      -6.03853865e-03 -2.83680600e-03 0. 0. -4.61204955e-03 0.
      -7.47762481e-03 0. 0. -1.12907346e-02 1.05629896e-03 0. 0.
      -1.42799737e-03 0. 1.82173471e-03 0. -1.81058494e-04
      -1.72201369e-03 -2.85516074e-03 0. 0. 0. 2.97411089e-03 0.
      3.98704037e-03 0. 0. 2.61121173e-03 0. 0. 0. -1.19526656e-02 0. 0.
      0. 0. -3.62893660e-03 -7.17953080e-03 -3.55081772e-03
      -1.22517603e-03 0. 6.76751090e-03 3.79753503e-04 0. 0.
      5.63178491e-03 -1.76670365e-02 0. 2.82448088e-03 3.51369614e-04 0.
      0. 0. 0. -1.38535397e-03 0. 0. 4.51166881e-03 0. 1.85330072e-03
      -5.67436125e-03 1.67720616e-02 -1.49546601e-02 -2.60982173e-03 0.
      0. 5.00720460e-03 -3.38151189e-03 0. 1.73250458e-03 1.97608303e-03
      0. -6.46889536e-03 -9.34178103e-03 -4.34511947e-03 7.73773121e-04
      0. 0. 0. 1.39912115e-02 1.31359696e-02 4.80024057e-04
      -7.57037022e-04 0. -7.50081753e-03 5.44904638e-03 -4.20477474e-03
      1.44951157e-02 2.81997654e-03 9.84330475e-03 0. -1.87724899e-03
      5.19776205e-03 -4.86750010e-04 -1.97393727e-02 1.69248134e-03 0.
      9.43787210e-03 2.14144234e-02 0. 8.60801432e-03 4.89242002e-03
      2.03392352e-03 1.08691136e-04 -1.37630813e-02 1.02028169e-03
      2.45235059e-02 -1.63768523e-03 0. -4.66224458e-03 2.49600667e-03
      1.20680314e-02 0. 0. 0. 0. 0. 0. 3.36774101e-05 -1.18893362e-03 0.
      -5.05974470e-03 0. 0. 0. 0. 8.35571380e-04 2.80458536e-02 0. 0.
      -3.62238986e-03 6.57233736e-03 0. 2.97337654e-03 -1.33405551e-02
      1.42613212e-02 0. -1.87298823e-02 1.04330631e-03 1.82706583e-03 0.
      6.79430971e-03 -3.77626996e-03 -1.45932147e-03 2.10808450e-03
      1.20475572e-02 0. 0. 2.23541353e-02 1.47186741e-02 -8.10463727e-03
      0. 0. -1.53952027e-02 0. 0. -1.33160297e-02 0. -1.92367397e-02
      3.66181834e-04 0. 0. 0. 5.17930230e-03 1.02796229e-02
      -9.32640047e-04 2.26494484e-03 0. 2.40688194e-02 -2.38652504e-03
      0. -1.03689777e-02 -8.99715291e-04 0. -2.30874238e-03
      5.47136180e-03 8.65108392e-04 9.61443968e-03 3.94226564e-03
      -2.25139018e-02 -2.42889877e-02 0. -2.42905482e-03 0.
      6.98342174e-03 7.37269083e-03 0. -7.73814600e-03 0. 8.30459176e-04
      3.86589463e-03 0. 0. 2.98868312e-04 0. -3.90453846e-03
      1.27328895e-02 -2.31138561e-02 0. 0. 0. -1.16772326e-02
      1.06661604e-03 1.36225717e-02 0. -1.26293278e-03 0. 0.
      2.01763250e-02 1.07807771e-03 2.37611067e-02 3.85104911e-04
      1.17870129e-03 2.50076060e-04 0. 7.48195546e-03 0. 0.
      3.41799716e-03 1.71778109e-02 0. -5.67794137e-04 -7.26559944e-03
      2.79619619e-02 -6.94318209e-03 0. 0. 4.35159964e-05
      -5.96588105e-03 0. -1.17725111e-03 0. 0. 0. 0. 4.14623832e-03
      4.28899378e-03 1.55642014e-02 -6.11572620e-03 0. -1.99682429e-03
      4.55751363e-03 3.02827545e-03 0. 1.21275792e-02 1.72898211e-02
      -2.36802199e-03 -1.06521975e-02 -7.05211936e-03 0. 4.94242820e-04
      0. 0. 6.92535564e-03 5.50998421e-03 -5.98024018e-03 0. 0. 0.
      -1.53273053e-04 9.77385603e-03 0. -9.59885132e-04 -1.09528052e-02
      5.07765915e-04 0. 0. 0. 9.29258671e-03 -2.40299013e-03 0.
      -1.31469371e-03 0. 0. 0. 0. -3.38723930e-03 -9.12590791e-03
      -2.78119417e-03 4.21950128e-03 0. -1.18939243e-02 -6.42387822e-05
      1.39098912e-02 6.31330209e-03 0. 0. -1.35929522e-03 1.70543697e-03
      0. 1.23988297e-02 0. 1.40895005e-04 -2.34745741e-02 0. 0.
      4.00549453e-03 3.85861425e-03 5.74383233e-03 0. -9.25313681e-04
      -2.26312224e-03 0. 0. -2.07943085e-05 0. 0. -1.55415814e-02 0. 0.
      0. -1.12882291e-03 0. 0. 3.44094791e-04 0. 0. 0. -7.06577348e-03
      -4.51578712e-03 0. 0. 0. -1.06600774e-02 -1.20363478e-02 0.
      4.18994157e-03 -1.05556031e-03 0. 1.71336590e-03 0.
      -1.40405698e-02 0. 0. 0. 4.99743782e-03 0. 1.71907898e-02 0.
      -2.59219203e-04 1.09629892e-03 0. 0. 1.90685270e-03
      -1.57640059e-03 0. 0. 0. -2.72879680e-03 2.16022297e-03 0. 0.
      8.02348554e-03 -1.07707130e-02 1.84657972e-03 -1.82903535e-03
      7.54397362e-04 -1.42017473e-02 0. 0. -2.51119200e-04
      -5.55391889e-03 4.26297775e-04 0. 0. 1.24107045e-03 0.
      5.00587921e-04 0. -5.09340782e-03 2.50458205e-03 1.31967505e-02
      1.28704086e-02 -2.63224263e-02 0. 0. 0. -3.48938076e-04
      -6.94551039e-03 0. 0. 0. 1.91038977e-02 0. -1.62133705e-02 0. 0.
      1.68158486e-02 2.72854813e-03 3.61288607e-04 0. 4.04044753e-03 0.
      0. -1.95059013e-02 4.32106463e-04 0. 0. 0. 1.18583301e-02 0.
      -1.56384148e-02 0. -7.67005794e-03 -1.57523286e-02 -4.23617242e-03
      0. 2.08792696e-03 -2.86421437e-05 -4.87949319e-06 3.50000197e-03
      -5.89761557e-03 0. 4.68922284e-04 0. 9.24931560e-03 9.00009833e-03
      3.14955786e-03 1.77970831e-03 -2.88530299e-03 3.85459047e-03
      -3.78756039e-03 0. 0. 0. -5.91645476e-05 0. 1.90345198e-02 0.
      1.78912971e-02 9.30775795e-03 4.51548112e-04 0. 0. 0. 0. 0. 0.
      -1.59294084e-02 1.58723933e-03 0. 2.57892674e-03 0. 1.61363091e-02
      8.62674322e-03 -1.99599253e-05 0. 7.33955717e-03 0.
      -1.70254316e-02 -1.45127415e-03 3.62822972e-03 1.99099779e-02
      -5.34362812e-03 -4.18227755e-05 -2.97111343e-03 1.85647456e-03 0.
      4.33622487e-03 -4.09646658e-04 0. 6.24155067e-03 0. 0. 0.
      9.67501663e-03 -1.65319145e-02 -2.03024806e-03 3.23065673e-03 0.
      -2.25065779e-02 1.77642051e-02 -4.91434243e-03 1.51785091e-03
      8.55393242e-03 -1.32580949e-02 1.12771960e-02 0. -2.52567552e-04
      0. 0. 1.99964154e-03 1.26924496e-02 0. 2.64156661e-05
      1.01165064e-02 0. 0. 8.84811301e-03 6.80948375e-03 0.
      -1.37509312e-02 -1.75898932e-02 0. -7.43650878e-03 1.41957731e-04
      -8.12276499e-04 1.50061888e-03 2.00505313e-02 0. 8.47593043e-03
      7.68289901e-04 0. 6.22502819e-04 0. 2.65247840e-03 0. 0.
      1.54246092e-02 -8.90469353e-04 1.44104764e-03 1.37862442e-02
      -5.80427982e-03 1.69667527e-02 -6.48429198e-03 0. 0. 0.
      1.34817138e-03 -1.66525766e-02 0. -6.95505471e-04 0. 0. 0. 0.
      -1.65566355e-02 6.25693100e-03 1.40092627e-03 1.47600332e-02
      -1.18643205e-04 0. 0. 8.03483184e-03 -7.32545415e-03 0.
      7.12580839e-03 0. 0. -6.64719660e-03 -1.16048604e-02 0. 0.
      6.97828946e-04 2.40148907e-03 -4.23798477e-03 -2.28470215e-03
      -5.35946619e-03 2.41457717e-03 0. 0. -1.49499904e-02
      1.10198613e-02 0. 0. 0. -4.47494211e-04 2.93382374e-03 0. 0.
      3.09618539e-03 -2.29296880e-03 0. 1.39642158e-03 -1.28250504e-02
      0. 1.51616914e-04 0. 1.02859084e-03 -1.53163886e-02 2.23638769e-03
      -8.27753358e-03 -7.12385681e-03 1.88524649e-03 0. 1.97527435e-04
      0. 0. -1.28975073e-02 5.17781242e-04 1.68862771e-02 0.
      1.09570082e-02 -4.20202222e-03 6.55779475e-03 8.03914852e-03 0.
      2.23329524e-04 -4.72443271e-03 -6.27715141e-03 0. -9.97627247e-03
      0. 5.99396240e-04 0. -4.74830111e-03 -1.42189255e-03
      4.80293180e-04 0. 0. 1.84034463e-02 0. 8.38315813e-04
      1.44029362e-03 2.80113295e-02 0. -1.16386183e-03 4.86008031e-03 0.
      0. 0. 5.32583427e-03 0. 0. 0. 9.44291521e-03 -1.35385303e-03
      -2.42798449e-03 -1.32954130e-02 0. 1.98765788e-02 -3.13000218e-03
      0. -8.23960360e-03 2.85940501e-03 1.14453351e-02 -1.14547671e-04
      1.15980998e-04 -6.74752984e-03 7.95054366e-04 1.33737701e-03
      1.16682909e-02 3.52816656e-04 -4.76111146e-03 -9.12678253e-04
      -9.59455501e-03 0. 0. 7.60900741e-03 1.46751443e-03
      -2.81402119e-03 -1.72921997e-02 -2.27588811e-03 -1.27395475e-02
      1.35643943e-03 -1.66319646e-02 -1.09060705e-02 -8.57924670e-03 0.
      2.77603720e-03 0. 8.51005316e-03 -1.38912804e-03 -2.13776459e-03
      -3.12453904e-03 -1.57318811e-03 1.57082044e-02 4.62608226e-03 0.
      5.44505985e-03 -6.56159082e-03 0. 6.54237083e-05 0. 1.04488828e-03
      -8.07343866e-04 0. 5.43988484e-04 1.02103478e-03 0. 0.
      2.69789957e-02 -2.00316985e-03 0. -2.41797827e-02 0.
      7.73933204e-03 0. -2.40996573e-03 3.97312129e-03 0. 0. 0.
      1.39757735e-03 0. 2.22688564e-03 -6.88252365e-03 2.29157694e-02
      -1.08143147e-02 2.34958614e-04 -1.30423461e-04 -6.89348346e-03 0.
      0. 5.18956874e-03 0. -3.37494747e-03 0. 0. -1.02394046e-02 0.
      8.95643607e-03 0. -2.78132111e-02 1.11985011e-02 0. 1.74776895e-03
      0. 0. 0. -5.93536883e-04 -4.13738657e-03 -8.65614973e-03 0.
      3.17518134e-03 0. 0. 0. 0. -1.99859180e-02 -3.23249958e-03
      -1.11042047e-02 7.77494675e-03 0. -5.79866441e-03 0. 0.
      -1.53443385e-02 1.88569911e-02 2.82007363e-03 -6.15528226e-03
      -2.88414559e-03 1.40079868e-03 0. 0. 0. 0. -4.55244561e-04 0.
      -1.49181543e-03 0. 5.32004051e-03 0. 0. 0. 2.53465232e-02 0.
      2.17889040e-03 0. 0. 6.16025296e-04 5.22597833e-03 -1.94091490e-03
      -1.23552140e-03 -6.47711148e-03 -1.38658273e-03 0. 0.
      4.93826112e-03 2.93964380e-03 -3.36428784e-04 -6.50860183e-03
      6.33835443e-05 -1.41649498e-02 -2.68503118e-05 -1.77929793e-02
      3.07882670e-04 0. 2.70104059e-03 0. -1.46848196e-02</_>
    <_>
      0. 4.80004633e-03 -9.77965072e-04 -1.70909741e-03 -6.93377946e-03
      4.30516526e-03 1.94187220e-02 0. 0. 0. 0. 1.43702910e-03
      -4.96816868e-03 0. -5.96497953e-03 -6.37328438e-03 1.22838058e-02
      6.20782841e-04 1.64369377e-03 -5.12068719e-03 -1.73154927e-04 0.
      9.07509180e-04 4.09431849e-03 9.41609731e-04 -3.17827147e-03 0.
      -7.02801021e-03 0. -3.72027978e-03 5.08362614e-03 -2.39634683e-04
      0. -4.17905767e-03 2.08406942e-03 1.14105653e-03 -9.16213822e-03
      -2.25566607e-03 1.40356272e-03 -2.03964971e-02 0. -8.02827440e-03
      0. 6.27926737e-03 0. 4.74236719e-03 0. -1.26521187e-02
      1.50468899e-02 9.20198951e-03 -8.23025312e-03 -1.08138537e-02 0.
      -7.61097472e-04 -9.19836387e-03 9.68996726e-04 -9.03520995e-05
      1.17629848e-03 -1.70995537e-02 0. 0. 0. 0. -9.28872265e-03
