<?xml version="1.0"?>
<opencv_storage>
<my_svm type_id="opencv-ml-svm">
  <svm_type>C_SVC</svm_type>
  <kernel><type>LINEAR</type></kernel>
  <C>5.0000000000000000e-01</C>
  <term_criteria><epsilon>9.9999999747524271e-07</epsilon>
    <iterations>1000</iterations></term_criteria>
  <var_all>144</var_all>
  <var_count>144</var_count>
  <class_count>10</class_count>
  <class_labels type_id="opencv-matrix">
    <rows>1</rows>
    <cols>10</cols>
    <dt>i</dt>
    <data>
      0 1 2 3 4 5 6 7 8 9</data></class_labels>
  <sv_total>45</sv_total>
  <support_vectors>
    <_>
      4.23587918e-01 1.40492573e-01 4.32621613e-02 1.20499775e-01
      -8.92124102e-02 -4.00756896e-02 -1.34327948e-01 -1.04186572e-01
      9.27622765e-02 7.43280426e-02 1.97508425e-01 2.56592274e-01
      -8.76337960e-02 -4.31773551e-02 -1.08256720e-01 -3.87709498e-01
      -1.87352493e-01 -2.02111015e-03 -6.53869584e-02 1.42861247e-01
      -1.38564073e-02 -2.45642200e-01 -2.05742702e-01 -2.56747026e-02
      -4.13197698e-03 4.61744964e-01 -1.58501282e-01 -9.63540748e-02
      -2.38244295e-01 -6.59222007e-02 -3.24796252e-02 -3.50070968e-02
      4.60060351e-02 1.65678829e-01 8.08961838e-02 2.31976751e-02
      -3.02933902e-01 1.03828914e-01 2.12902296e-02 8.43400508e-02
      2.05830008e-01 1.15561225e-01 8.00102651e-02 6.77149370e-02
      3.90864152e-04 -5.65162338e-02 1.27450868e-01 4.72033203e-01
      5.04739694e-02 1.41616777e-01 6.44073561e-02 -1.58557996e-01
      -1.88353896e-01 -2.28243470e-01 -1.54752359e-01 -8.23314860e-02
      -5.86069189e-02 1.90068245e-01 3.97615172e-02 1.76021650e-01
      3.50214571e-01 1.41529173e-01 -7.13805184e-02 -1.21366769e-01
      -4.22736377e-01 4.94445376e-02 -2.09261235e-02 1.39478192e-01
      4.30507138e-02 2.08994802e-02 4.71778847e-02 -7.17798099e-02
      -2.46491939e-01 -2.29495063e-01 4.84299101e-02 1.88971713e-01
      1.59402490e-01 5.98644465e-02 1.26800165e-02 -4.66419421e-02
      -1.20440327e-01 6.56852350e-02 -1.52966753e-01 8.56805667e-02
      3.00931245e-01 3.56304228e-01 2.44531170e-01 1.49577081e-01
      1.22986004e-01 6.04465418e-02 7.53057450e-02 2.24755481e-02
      2.44365975e-01 -4.60028276e-02 -1.29269004e-01 2.17199530e-02
      -6.22774288e-02 2.12475024e-02 -2.55767144e-02 -6.19937062e-01
      1.91269487e-01 1.81018308e-01 2.09382981e-01 1.68728203e-01
      1.42322257e-02 2.06923820e-02 -4.66949791e-02 -4.01628762e-01
      -1.91192329e-01 -2.99179882e-01 -7.15368837e-02 1.72280565e-01
      1.88246012e-01 5.59087172e-02 6.20596483e-02 2.57062048e-01
      8.46158247e-03 5.88398166e-02 -3.50276142e-01 -1.77578762e-01
      6.58932235e-03 -1.18508667e-01 2.05441080e-02 6.54996112e-02
      2.05981031e-01 2.00387135e-01 2.01148018e-01 6.89563081e-02
      8.62762257e-02 -1.65613160e-01 -4.05382782e-01 2.15396029e-03
      -1.08807072e-01 -6.83010966e-02 6.44274382e-03 1.50514185e-01
      4.68763888e-01 1.08314240e+00 -3.02874982e-01 -2.42316484e-01
      -1.06764212e-02 -2.90922429e-02 -1.11974701e-01 -1.26177549e-01</_>
    <_>
      -7.08627850e-02 -8.40659812e-02 4.25888211e-01 3.90083462e-01
      6.12359270e-02 2.72047035e-02 -2.38897771e-01 -1.66437030e-01
      -2.52466291e-01 2.60290056e-01 4.07698065e-01 1.82832126e-02
      -5.02476931e-01 -7.32673824e-01 -3.08827013e-01 -1.70618370e-01
      6.10604696e-02 2.05863602e-02 1.01571552e-01 -1.59228861e-01
      -2.07086459e-01 -6.00221872e-01 -4.81800497e-01 -1.21823765e-01
      -7.15174526e-02 4.71753091e-01 6.39745817e-02 -4.68624324e-01
      -6.24547414e-02 -4.08553258e-02 -1.41991796e-02 1.22285694e-01
      1.90520927e-01 1.94300294e-01 2.39245668e-01 -3.02060723e-01
      6.75879642e-02 1.11835994e-01 3.08855832e-01 -1.16809078e-01
      -2.77598977e-01 -1.79166958e-01 4.01650257e-02 -2.56562710e-01
      1.43990442e-01 3.34502041e-01 5.04042566e-01 -4.22657952e-02
      -2.39568889e-01 -4.30277407e-01 -2.95371085e-01 -1.52294129e-01
      -7.33912364e-02 1.10902131e-01 -5.86582348e-02 2.39906274e-02
      -1.94315568e-01 -3.25141519e-01 -2.50746638e-01 7.41596594e-02
      -5.78791685e-02 -6.95953965e-02 1.17260953e-02 -1.40404955e-01
      -2.01636150e-01 -5.03354557e-02 -1.41527921e-01 1.63887218e-01
      -4.22810316e-02 -7.43302032e-02 -1.21112935e-01 -1.46117508e-01
      -1.00511990e-01 -9.58993211e-02 2.14474663e-01 2.08176404e-01
      2.70576388e-01 2.17763469e-01 -1.03083707e-01 -2.21663326e-01
      -2.92721778e-01 -1.60693936e-02 -2.12309375e-01 5.01187742e-02
      4.87132333e-02 -9.36798658e-03 2.61853784e-01 4.07409333e-02
      2.47145835e-02 8.69871527e-02 1.74647808e-01 8.49714205e-02
      1.18475161e-01 -2.48839989e-01 -5.97425997e-01 -2.38236025e-01
      -2.31094748e-01 -2.62869984e-01 2.11673565e-02 -1.35509029e-01
      1.77880347e-01 1.94811776e-01 -8.24915022e-02 -5.69677018e-02
      -1.17506221e-01 -3.14515263e-01 -3.60776067e-01 -2.93028474e-01
      -3.34305733e-01 -2.69862592e-01 1.30984271e-02 2.51732141e-01
      5.23392618e-01 3.82279962e-01 -2.67850608e-01 3.58104259e-02
      -2.86758661e-01 -2.54252199e-02 -3.94151330e-01 -4.66083944e-01
      -1.43213049e-01 -2.03090802e-01 1.16840795e-01 4.44737822e-01
      1.99778751e-01 6.07674532e-02 2.51252860e-01 1.79666713e-01
      -1.65091679e-01 -2.02190503e-01 -3.96728933e-01 -2.28726622e-02
      6.85799494e-02 -5.27928099e-02 1.31253317e-01 -2.01858968e-01
      4.23349649e-01 1.49558485e-01 -7.22759888e-02 -7.20596462e-02
      -4.57918383e-02 -1.98154658e-01 -2.47942358e-01 -1.00739390e-01</_>
    <_>
      -4.75427881e-02 -1.09205678e-01 1.38081372e-01 -1.23489313e-02
      -9.43392739e-02 4.46899235e-02 -2.64265537e-02 1.51095930e-02
      -2.19617471e-01 1.60423294e-01 5.99188507e-01 1.92540392e-01
      -2.01056883e-01 -7.24216402e-01 -5.79926908e-01 -4.62917686e-01
      -2.80318826e-01 -3.90116155e-01 3.06685597e-01 2.87137181e-01
      -1.08862661e-01 -5.32474101e-01 -1.05840707e+00 -7.06614912e-01
      -1.47475392e-01 5.41827865e-02 1.71909720e-01 -2.09075034e-01
      -9.59903449e-02 -1.08484156e-01 -2.40368158e-01 -1.61563933e-01
      9.37247928e-03 1.45087317e-01 -9.17168632e-02 -4.94329706e-02
      1.55838296e-01 9.07767192e-02 2.23714307e-01 6.51146891e-03
      -9.54531655e-02 -2.73070961e-01 7.98002854e-02 -1.30464301e-01
      -1.06666118e-01 -4.38515209e-02 1.38584808e-01 2.81032603e-02
      -3.33515763e-01 -2.34203026e-01 -2.06857011e-01 -1.82138890e-01
      -7.90312588e-02 1.84459254e-01 -2.06149295e-02 2.71884829e-01
      -2.56385356e-01 -2.95620620e-01 -3.04903924e-01 -2.09476426e-01
      -2.89782107e-01 -2.38808095e-01 1.03562981e-01 -5.91586046e-02
      -1.64024428e-01 -3.25011671e-01 -1.58885956e-01 1.12221681e-01
      1.69695467e-01 7.27687329e-02 -1.54906839e-01 -6.27015382e-02
      -4.20710981e-01 -2.30465308e-01 7.05078691e-02 1.75041765e-01
      1.28060400e-01 1.47583053e-01 -5.39437458e-02 1.01601714e-02
      -5.07685959e-01 -5.55344634e-02 -2.59372473e-01 -1.66616514e-01
      -3.46760869e-01 -8.72950330e-02 2.06709537e-03 1.73724785e-01
      7.13013336e-02 -6.05095811e-02 4.57480140e-02 1.51235461e-01
      1.79343089e-01 -4.12351280e-01 -6.32405840e-03 -7.84350187e-02
      -2.61246979e-01 -4.99394625e-01 -2.30094329e-01 -1.89337675e-02
      -1.19001254e-01 -7.95968547e-02 -1.21117562e-01 2.96096176e-01
      2.42425412e-01 8.99639875e-02 -7.95874894e-02 -2.81639174e-02
      -4.89632338e-01 -2.69342184e-01 1.84981544e-02 8.04276690e-02
      5.85217327e-02 8.67629051e-02 2.72139907e-01 2.78479159e-01
      -2.25174144e-01 9.76656228e-02 -9.94664952e-02 -9.15697142e-02
      -7.26478621e-02 -2.02279344e-01 -2.09745482e-01 -8.53490457e-02
      9.62321386e-02 -1.93449065e-01 6.77901283e-02 7.16873109e-02
      2.69319355e-01 1.17170952e-01 1.37772381e-01 3.25518735e-02
      -2.68773496e-01 -3.51068527e-01 -4.04015154e-01 -4.10608381e-01
      1.73977204e-02 1.07168727e-01 4.54625860e-02 3.92987102e-01
      7.24889413e-02 -2.98012625e-02 -3.77486013e-02 -2.56286561e-01</_>
    <_>
      6.48380667e-02 -2.57407635e-01 -2.28125006e-01 -5.01812920e-02
      -3.85821634e-03 -1.02302745e-01 -5.39332330e-02 -2.54731700e-02
      1.04429498e-01 -2.22641695e-02 9.35528502e-02 2.70417333e-01
      -9.63774044e-03 -8.69595036e-02 -7.44220987e-03 -1.10232830e-01
      4.98934351e-02 -7.99184442e-02 1.76143721e-01 1.45067945e-01
      3.50283682e-02 -2.26127088e-01 -3.71788770e-01 -3.53000015e-01
      -4.91966099e-01 2.39840783e-02 -6.88945176e-03 3.35074170e-03
      -6.87756464e-02 -2.81539708e-01 -1.90244451e-01 -3.34382743e-01
      4.11170386e-02 3.43062967e-01 1.48645714e-01 6.37400076e-02
      -1.98193073e-01 -1.38549134e-01 1.90829486e-01 2.79268861e-01
      1.37777310e-02 -2.43426338e-01 -8.72814804e-02 -1.64327592e-01
      -3.13738510e-02 -4.03201997e-01 -9.27370638e-02 3.54999155e-01
      1.39421061e-01 -2.16953941e-02 -2.35164948e-02 -3.42822745e-02
      -1.69820990e-03 -2.34270275e-01 -2.08155796e-01 2.10079905e-02
      2.53311954e-02 -2.05554083e-01 -3.84953350e-01 -1.52527824e-01
      -1.46090090e-01 -8.44549388e-02 9.73120425e-03 -2.61917979e-01
      -3.81562442e-01 -8.73104632e-02 9.94091108e-02 1.99692622e-01
      3.45128655e-01 1.60388693e-01 -1.74531803e-01 -3.71358991e-01
      -5.17652035e-01 -1.93635732e-01 -1.61614150e-01 2.50630260e-01
      1.20390151e-02 1.35280311e-01 3.20510924e-01 2.32654512e-01
      -4.06784236e-01 -9.34411138e-02 -8.19969848e-02 -1.55593112e-01
      -4.15384844e-02 1.55676901e-01 6.48951232e-02 7.81761855e-02
      1.10704433e-02 1.13365492e-02 2.08638348e-02 1.39915705e-01
      1.68587774e-01 -2.72536844e-01 -3.73619676e-01 -1.04375549e-01
      -1.18212312e-01 -3.22653145e-01 -1.46566793e-01 -4.66398954e-01
      1.94297777e-03 2.57685721e-01 4.29343611e-01 3.45430017e-01
      -3.56155485e-02 -3.86981308e-01 -6.11110091e-01 -6.25861287e-01
      -2.05300853e-01 -2.64476448e-01 -1.67280778e-01 -3.73619288e-04
      -1.32422507e-01 1.94417089e-01 3.99163038e-01 2.01256812e-01
      1.59809794e-02 1.16791472e-01 -6.23477362e-02 -3.44618618e-01
      -1.09012417e-01 -1.58897221e-01 4.85297255e-02 8.78813118e-02
      1.43328607e-01 1.62249044e-01 1.66904032e-01 2.48380899e-01
      2.06611063e-02 -2.80112982e-01 -1.01917647e-01 5.46921138e-03
      -1.98738351e-01 -6.26324713e-02 1.71436235e-01 7.27252960e-02
      4.44721401e-01 2.23506644e-01 -1.13941617e-01 -3.03199440e-01
      -2.11534262e-01 -1.88061118e-01 -2.22521976e-01 -3.22806269e-01</_>
    <_>
      -2.17998013e-01 -2.00247541e-01 3.58745933e-01 2.97450036e-01
      5.33441678e-02 -4.21459675e-02 -3.57866660e-02 -2.36267462e-01
      -2.10585833e-01 -5.13404422e-02 3.57366741e-01 3.24645936e-01
      -7.50053748e-02 -2.76224136e-01 -9.02284011e-02 -2.75678664e-01
      -2.86999315e-01 -2.51005650e-01 1.55079439e-01 1.59818113e-01
      1.69731185e-01 -7.64851213e-01 -6.87208772e-01 -3.37637454e-01
      -1.12142608e-01 7.69469440e-02 1.25423431e-01 -1.53505415e-01
      -1.06484942e-01 -2.70597283e-02 -3.42443705e-01 -1.26174510e-01
      -1.11640692e-01 1.19075917e-01 4.77552339e-02 -1.71401709e-01
      -2.79561758e-01 -2.82120168e-01 1.97250739e-01 -3.17529053e-03
      -8.50327387e-02 -1.06585309e-01 7.12874904e-03 -1.20755024e-01
      -1.11046039e-01 -1.47932306e-01 1.37680337e-01 7.52968267e-02
      -1.08185239e-01 -2.54864126e-01 -1.75901160e-01 7.39738941e-02
      5.30271716e-02 -2.43248299e-01 1.22174047e-01 2.10576594e-01
      -1.92332476e-01 -3.67545038e-01 -3.40593666e-01 -1.97325945e-01
      9.29749086e-02 1.48076639e-01 -2.03694031e-02 -1.97095856e-01
      6.18511252e-03 -2.29076017e-02 2.32369471e-02 1.89201683e-02
      -1.10683357e-02 -1.35332942e-02 1.99320793e-01 -1.53649002e-01
      -8.56615454e-02 -7.81125501e-02 -8.20603743e-02 -1.83131825e-02
      -1.39293730e-01 7.15508908e-02 3.78396720e-01 1.27849028e-01
      -1.62857756e-01 3.16273928e-01 1.87471420e-01 4.63452823e-02
      -2.90547669e-01 -2.68547505e-01 -2.71375120e-01 -2.28636742e-01
      1.63374409e-01 1.72384217e-01 4.44545932e-02 7.77716264e-02
      2.49400675e-01 1.39167249e-01 -1.36144772e-01 -2.64780223e-01
      -1.96170777e-01 -3.05830419e-01 -8.82893950e-02 -2.78185099e-01
      -1.06704138e-01 -1.17608421e-01 3.55073102e-02 5.38242981e-02
      2.31026098e-01 1.04771778e-01 -6.62441626e-02 -2.28108421e-01
      -1.29933074e-01 -1.90378621e-01 -2.04437792e-01 -3.74906808e-01
      -1.82566985e-01 1.46210250e-02 4.41013038e-01 5.70288599e-01
      -2.64860362e-01 1.50388047e-01 1.21351555e-01 1.52065277e-01
      -2.97019541e-01 -6.76818192e-01 -2.32530430e-01 -1.94761946e-04
      1.69539988e-01 1.83038428e-01 4.26669531e-02 2.02301681e-01
      2.35200614e-01 3.56522173e-01 -6.13624305e-02 -1.46741688e-01
      -3.53999525e-01 -1.72620893e-01 -7.70214796e-02 -2.75500238e-01
      5.13973907e-02 1.22998081e-01 1.52941227e-01 4.87046808e-01
      5.52489832e-02 -7.39400536e-02 -8.22998136e-02 -3.57861191e-01</_>
    <_>
      -2.33835265e-01 -1.01781674e-01 -2.68191472e-02 3.41278195e-01
      1.17963523e-01 0. 5.83697809e-03 9.93814599e-03 -2.75094777e-01
      -3.42447996e-01 2.54354507e-01 2.46451497e-01 1.63635060e-01
      7.25597367e-02 -1.25507638e-02 -7.42805004e-02 -2.08169043e-01
      -4.07644622e-02 9.17324051e-02 2.94573307e-01 4.89526056e-02
      1.09816745e-01 -7.34136403e-02 -8.97874087e-02 -9.56485569e-02
      -2.35892564e-01 8.32042936e-03 1.54998332e-01 1.56802863e-01
      1.26644960e-02 -1.96040273e-01 3.46369147e-01 3.12024411e-02
      -1.05680853e-01 3.12221106e-02 1.52141610e-02 -5.17954826e-01
      -4.22157824e-01 6.32536411e-02 6.29989684e-01 5.99771678e-01
      1.66861434e-02 6.07207716e-02 -4.82816547e-02 -3.32349628e-01
      -2.36979648e-01 9.39128641e-03 1.91789150e-01 -8.41830950e-03
      -1.81986243e-01 -5.01406454e-02 2.47909725e-01 1.26177073e-01
      -2.76704788e-01 -1.76700130e-01 1.38311028e-01 -3.69090736e-01
      2.89759636e-01 -2.10455105e-01 2.64032125e-01 -2.42483467e-01
      6.92163827e-03 -2.17735544e-01 -3.08407396e-01 -1.96600705e-02
      4.63896066e-01 5.79073913e-02 7.87461028e-02 -6.06484041e-02
      -4.83852923e-02 -2.88182110e-01 -1.64313734e-01 -3.10486764e-01
      -6.32038832e-01 -3.07240337e-01 9.10426527e-02 1.56061247e-01
      7.97357678e-01 6.64594233e-01 5.43089747e-01 -1.48163885e-01
      2.25369424e-01 -1.78551957e-01 -4.13331211e-01 -4.24213350e-01
      -4.64301169e-01 3.15251458e-03 -6.98178411e-02 6.01450384e-01
      5.55649698e-01 -2.12723807e-01 1.53507337e-01 3.15108865e-01
      -2.11727917e-02 -5.40616095e-01 -2.97251821e-01 -2.81144202e-01
      -6.61718622e-02 -2.92409137e-02 -2.49291152e-01 6.45220503e-02
      -1.42427743e-03 5.34293093e-02 3.69884707e-02 1.33695334e-01
      -6.21128641e-02 -1.44068673e-01 -1.55790940e-01 -3.96221690e-02
      -2.95415014e-01 -7.46252239e-01 5.02728624e-03 -3.61595273e-01
      9.03949514e-02 6.27617836e-01 8.13160837e-01 1.11022271e-01
      4.01645541e-01 4.13354188e-02 -3.75377655e-01 -3.17701936e-01
      -5.41909993e-01 -5.37507653e-01 -6.43336415e-01 -1.23706590e-02
      4.63220686e-01 1.87922120e-01 4.48937535e-01 8.63383710e-02
      -2.76792288e-01 -2.92396635e-01 -1.59040257e-01 -3.51657659e-01
      -3.06589752e-01 -1.24652304e-01 -8.63653794e-03 9.92254317e-02
      6.55374154e-02 -7.18999049e-03 -5.76898381e-02 -2.80141295e-03
      -1.46575756e-02 -6.64453662e-04 -3.78287621e-02</_>
    <_>
      -3.04775704e-02 -8.23992025e-03 4.28838432e-02 2.59841681e-01
      -2.06814885e-01 7.58405169e-03 -2.38793761e-01 -7.11526573e-02
      -1.04541173e-02 2.71161437e-01 2.34103844e-01 -1.19906683e-02
      -4.27457877e-02 -2.18236625e-01 -2.87450314e-01 -3.13808590e-01
      -2.56985486e-01 -1.40291288e-01 9.42288414e-02 3.94828886e-01
      -9.26120207e-02 -2.53475577e-01 -5.53872168e-01 -3.94411415e-01
      -6.74653053e-02 1.06511079e-01 -2.79100202e-02 1.12871177e-01
      -9.34945047e-02 -2.89966047e-01 -1.90498307e-01 -1.16682589e-01
      3.91205437e-02 4.35175478e-01 8.37189779e-02 1.43898383e-01
      2.68330052e-02 8.92641842e-02 3.86078268e-01 2.61715502e-02
      -4.78847682e-01 -2.66530126e-01 -7.44692385e-02 5.57943098e-02
      2.88099162e-02 -1.00687459e-01 1.98994517e-01 2.55340356e-02
      -3.34719002e-01 -4.68311012e-01 -4.96610180e-02 -4.85036373e-02
      2.11809613e-02 -2.23257661e-01 1.14759961e-02 -6.76003620e-02
      -2.17409551e-01 -2.79588759e-01 -8.43569562e-02 1.13046601e-01
      1.77482307e-01 1.44998375e-02 4.80466373e-02 -3.51602793e-01
      -3.90308440e-01 -1.60445675e-01 2.08116978e-01 5.79795361e-01
      4.19517666e-01 3.02254528e-01 1.91361941e-02 -2.83464342e-01
      -1.24058492e-01 9.78419855e-02 1.27681851e-01 1.17493592e-01
      1.42129678e-02 -1.12787195e-01 -1.07119977e-01 -6.97368681e-02
      -1.79091707e-01 1.61904600e-02 3.34848277e-02 9.54937488e-02
      1.21016227e-01 -1.32094443e-01 7.85169750e-02 -1.14755154e-01
      -1.54811472e-01 -1.59771353e-01 7.83271715e-03 6.75111189e-02
      7.99697079e-03 -5.33858268e-03 6.20606206e-02 7.95414522e-02
      -9.20549929e-02 -2.08827510e-01 2.67348327e-02 -6.43078387e-01
      -1.31752044e-01 2.07280610e-02 3.44099015e-01 5.21545649e-01
      7.34316260e-02 -5.16173951e-02 -1.01111419e-01 -3.82725388e-01
      -3.72609645e-01 -3.32520120e-02 2.30273418e-02 1.61148831e-01
      3.60733196e-02 5.03836721e-02 2.19651267e-01 2.35212706e-02
      -1.38312966e-01 -4.08022106e-02 -1.72524348e-01 -1.78310394e-01
      8.28452110e-02 -2.43155956e-01 -2.55315080e-02 -1.77480280e-02
      2.63982825e-02 3.41336466e-02 3.50198090e-01 8.48619938e-02
      -1.73324212e-01 -4.58205938e-02 -7.68126845e-02 -1.27674535e-01
      -1.12197898e-01 -2.06043404e-02 1.81950673e-01 3.46788727e-02
      3.60452890e-01 2.07407638e-01 4.21179906e-02 -5.17526530e-02
      3.70147005e-02 1.04164593e-02 -3.49381827e-02 8.15742984e-02</_>
    <_>
      -3.77818137e-01 -3.18404227e-01 3.40803325e-01 3.50365013e-01
      1.51250988e-01 2.38354921e-01 7.02329352e-02 -8.57123956e-02
      -1.73914433e-01 1.63384154e-01 6.92433491e-02 3.11445922e-01
      -3.79351899e-02 -1.44973889e-01 -3.15959170e-03 -1.98738337e-01
      -4.49661642e-01 -1.60427749e-01 8.70362148e-02 -2.15519387e-02
      -2.97422200e-01 -4.08704847e-01 -3.35433006e-01 -1.76772743e-01
      -2.05091536e-01 1.59594670e-01 -6.92914277e-02 -2.97322750e-01
      -4.24725384e-01 -1.39011472e-01 -4.94564511e-02 2.47604921e-01
      1.21094063e-01 3.90660465e-02 -2.33575597e-01 -3.15656103e-02
      -8.58053789e-02 -2.48219311e-01 2.51262456e-01 -6.45877272e-02
      -1.59348801e-01 -1.34936571e-01 -1.20714214e-02 -1.48162663e-01
      -8.34404826e-02 -2.02992767e-01 4.07010406e-01 4.48039532e-01
      -1.34158209e-01 -4.14406300e-01 -3.43080610e-01 -4.09273416e-01
      -1.93694040e-01 -4.81592506e-01 1.14683285e-01 -1.14119262e-01
      -4.97531235e-01 -5.35989344e-01 -3.85862976e-01 -1.51097342e-01
      1.37696028e-01 2.38749776e-02 4.02280599e-01 -4.87345070e-01
      -4.71624047e-01 3.06785181e-02 4.83174063e-02 2.95594364e-01
      4.98897769e-02 5.57210669e-02 -2.94014752e-01 -6.72682703e-01
      -1.36860892e-01 -1.74241886e-01 2.42247343e-01 -1.90659687e-01
      -1.44923732e-01 -3.52270976e-02 7.65499994e-02 -6.01132289e-02
      -2.77881444e-01 -5.37567362e-02 -3.59943628e-01 -2.72297502e-01
      -4.54767525e-01 -3.26135546e-01 7.91563466e-02 -2.55127996e-02
      5.87187633e-02 -1.55001849e-01 3.10562044e-01 1.91865012e-01
      3.09619963e-01 -2.33158916e-01 -1.86463445e-01 -2.59572744e-01
      -9.78050083e-02 -2.56727129e-01 -4.41158935e-02 -6.50067747e-01
      1.27439603e-01 1.64767906e-01 -1.67947099e-01 -6.18650876e-02
      1.36275098e-01 2.32413448e-02 -2.37418324e-01 -4.63559657e-01
      -1.64988279e-01 -2.77342737e-01 -1.70959324e-01 2.63453811e-01
      -6.90905005e-02 -2.64156818e-01 2.77673483e-01 1.05640516e-01
      -1.67187378e-01 1.07663006e-01 -3.46795022e-01 -6.69526398e-01
      -4.70673293e-01 -3.08973521e-01 -2.24021785e-02 -6.34759292e-02
      -2.22703610e-02 2.47031599e-01 3.79283428e-01 5.33330739e-01
      1.13176703e-02 -1.20970175e-01 -4.31394935e-01 -1.91654824e-02
      -7.14747310e-01 -5.87266147e-01 1.66914791e-01 -1.31622534e-02
      1.85301244e-01 5.79423726e-01 1.69043615e-01 2.70777136e-01
      5.86205609e-02 -1.51516542e-01 -2.99378455e-01 -4.84765947e-01</_>
    <_>
      2.37023994e-01 -2.12795004e-01 -3.09395585e-02 -8.80465657e-02
      1.75614059e-01 1.26509130e-01 6.08264655e-02 4.84795459e-02
      1.05511853e-02 -2.86027994e-02 3.68488222e-01 9.95852724e-02
      1.65358648e-01 9.72283259e-02 -1.29826128e-01 -4.58520263e-01
      -5.73952913e-01 -3.74102116e-01 1.67534247e-01 2.80325800e-01
      7.21227610e-03 -2.53660381e-01 -5.85604012e-01 -7.17560828e-01
      -5.77076375e-01 -2.33903881e-02 1.46681042e-02 -2.13271216e-01
      -3.17290962e-01 -2.94507831e-01 -2.21300468e-01 -1.69648230e-01
      -2.28283018e-01 2.69251406e-01 4.62607741e-02 2.09897414e-01
      -1.27080426e-01 -1.91535577e-01 -2.38382593e-02 -9.26333591e-02
      4.18636203e-02 1.22521423e-01 1.93684563e-01 -5.71517311e-02
      3.55732813e-02 9.68675315e-02 -8.92292112e-02 1.95641778e-02
      -7.42592216e-02 -2.07800463e-01 -1.23090670e-01 -1.12478368e-01
      -4.15092647e-01 -2.31158976e-02 1.26148954e-01 2.29470313e-01
      -1.11134760e-01 -2.25634754e-01 -4.48705196e-01 -4.04305071e-01
      -4.56844062e-01 -2.22734034e-01 1.25370502e-01 -2.10395843e-01
      -4.47931796e-01 -1.61570475e-01 1.75683811e-01 6.21505737e-01
      1.29171252e-01 1.78744048e-01 -4.50290032e-02 -3.53877358e-02
      -1.77161857e-01 1.79754466e-01 -2.35329173e-03 -1.38212129e-01
      5.18133957e-03 -8.86480361e-02 5.06186560e-02 -2.53152281e-01
      -2.28987560e-01 7.36491606e-02 -1.30365908e-01 -2.79917717e-01
      -4.29082513e-01 5.31303871e-04 7.71687180e-02 -5.78921773e-02
      9.36640576e-02 7.15961158e-02 2.05884054e-01 -1.01149000e-01
      -9.57133099e-02 -1.16187811e-01 -2.72051036e-01 1.32836059e-01
      3.01523451e-02 -1.33721679e-01 -1.13252342e-01 -5.08323550e-01
      7.02122087e-03 2.06510331e-02 6.45225286e-01 6.65586531e-01
      2.49490619e-01 6.83482885e-02 -5.91920614e-01 -9.82271850e-01
      -1.61457345e-01 -1.09167874e-01 1.17313517e-02 1.95004076e-01
      1.01615064e-01 2.56445706e-02 -5.89055493e-02 -1.07066855e-01
      -3.29148740e-01 -1.04172193e-01 -2.57643498e-02 -4.53692704e-01
      -2.60519143e-02 -6.04014657e-02 1.55491292e-01 -2.14601886e-02
      -6.90841824e-02 -2.15885207e-01 2.02055022e-01 6.06685877e-02
      6.93306699e-02 1.12246834e-01 1.44938789e-02 -4.38020267e-02
      -1.71545018e-02 -7.43928552e-02 1.12319224e-01 -1.03164285e-01
      2.04043373e-01 6.35272563e-01 5.49798071e-01 2.39085048e-01
      -1.29631206e-01 -1.71656147e-01 -3.31152678e-01 -4.12840635e-01</_>
    <_>
      -5.51405609e-01 -2.11856380e-01 -5.01788184e-02 2.64368743e-01
      1.24593660e-01 1.03497626e-02 2.19995491e-02 6.07044250e-02
      -3.90001446e-01 3.15252602e-01 3.12684834e-01 6.16259314e-02
      -1.42623216e-01 -4.40508485e-01 -3.53129596e-01 2.52341360e-01
      -1.26812821e-02 2.95162678e-01 -1.44062147e-01 4.60592061e-02
      -1.60003547e-02 -1.05166130e-01 1.40118718e-01 -1.31831959e-01
      4.18563858e-02 -1.66660905e-01 -1.34712383e-01 -9.01372805e-02
      4.23827529e-01 9.99093503e-02 8.60656425e-03 -1.47492185e-01
      -1.50250942e-01 -1.34202987e-01 -1.39056534e-01 -3.76326650e-01
      1.11282647e-01 1.34206906e-01 3.33539039e-01 -1.28561407e-01
      -1.58040121e-01 -5.32504804e-02 -3.26314181e-01 -1.95176408e-01
      7.45625421e-02 -1.09729543e-02 -5.11978529e-02 -2.50956625e-01
      -3.97037387e-01 -5.52336037e-01 -2.04138413e-01 2.22614072e-02
      -4.82197106e-02 1.50330484e-01 1.75462976e-01 -1.58709645e-01
      -5.08051515e-01 -3.90063584e-01 -3.58680010e-01 -3.84106278e-01
      -2.10655257e-01 2.54922450e-01 3.43322784e-01 1.19827814e-01
      9.01837647e-02 -7.88156837e-02 -8.75094626e-03 -1.96308210e-01
      -2.44848117e-01 -3.27920258e-01 -1.38360694e-01 -1.36956051e-01
      2.44250685e-01 5.82051694e-01 1.59880713e-01 4.91409898e-02
      -1.74420830e-02 -2.17754498e-01 -3.69593613e-02 -7.07057789e-02
      -1.02302708e-01 1.61935717e-01 -3.25671226e-01 -4.63388473e-01
      -1.97741747e-01 -2.20408350e-01 -8.61203671e-02 -1.15526445e-01
      -4.63629156e-01 3.62679690e-01 4.56044525e-02 -3.56148556e-02
      -4.75731820e-01 -3.84243429e-01 -5.73656857e-01 -2.51099855e-01
      -4.92538922e-02 1.26099102e-02 1.14061445e-01 2.71088868e-01
      1.74941719e-01 6.68042675e-02 -2.61302829e-01 -3.68124187e-01
      -2.89391845e-01 -3.17854136e-01 -3.49569112e-01 2.12324202e-01
      -2.15400130e-01 1.40525281e-01 2.36867331e-02 1.64874794e-03
      2.12772354e-01 -2.68554967e-02 -9.33216438e-02 -3.66977662e-01
      -1.67771250e-01 4.26481999e-02 -4.79867041e-01 -2.10566059e-01
      -4.83591743e-02 2.76262522e-01 -4.13319841e-02 1.78267024e-02
      -1.14909381e-01 -1.99469854e-03 -7.47982338e-02 -1.76296420e-02
      -5.45614548e-02 -1.75537601e-01 -1.36059374e-01 -3.07780147e-01
      4.78371382e-02 6.79770187e-02 -1.22912608e-01 -2.32561216e-01
      -3.06769013e-02 -1.26730934e-01 -1.73868835e-02 -2.77776271e-01
      -3.03379476e-01 -7.32061788e-02 -1.67316139e-01 3.23461369e-02</_>
    <_>
      -2.76345730e-01 -5.52834794e-02 1.83669776e-01 -2.73319148e-02
      1.34171918e-01 -8.77509564e-02 -1.06767192e-02 -7.82263950e-02
      -2.64799684e-01 1.11828875e-02 3.28221828e-01 -1.04653053e-01
      -1.86655387e-01 -5.20067692e-01 -3.37093800e-01 1.49710596e-01
      2.50557344e-02 -1.53904065e-01 1.47680938e-01 1.49368748e-01
      1.50137227e-02 9.71096475e-03 -1.82994027e-02 -4.44243431e-01
      -9.80868340e-02 -2.97863662e-01 -1.74642429e-02 7.27754459e-02
      -8.74884874e-02 -1.82298467e-01 1.03277512e-01 -1.72660664e-01
      -1.14566110e-01 -1.62305176e-01 -7.95684159e-02 -1.25491589e-01
      2.44333372e-01 1.36601076e-01 8.65763519e-03 -2.05787197e-01
      -3.77617002e-01 -3.09392273e-01 -1.00083947e-01 -2.39754971e-02
      6.13820925e-02 -7.29458686e-03 -1.28352150e-01 -1.27138227e-01
      -9.62646827e-02 -3.04270953e-01 -2.74005741e-01 -6.35661259e-02
      1.96087807e-02 1.72459930e-02 2.70194829e-01 2.58443296e-01
      2.13282462e-03 -2.30089501e-01 -4.43657994e-01 -5.46463847e-01
      -5.39027393e-01 -4.70228672e-01 1.79444756e-02 3.87645155e-01
      -6.19518049e-02 -1.97553024e-01 -7.85786659e-02 -2.68227816e-01
      -1.39985770e-01 9.87901837e-02 1.39747828e-01 7.41602555e-02
      1.62377879e-01 8.93544480e-02 1.47997111e-01 1.27823606e-01
      -2.06362531e-01 -5.00189483e-01 -1.90581039e-01 -1.37589112e-01
      1.69885661e-02 2.19316483e-01 -2.09068537e-01 -4.85324204e-01
      -6.40156716e-02 -3.31059396e-01 -3.88819665e-01 -2.49076143e-01
      -2.84131736e-01 3.75309214e-02 2.40696207e-01 4.55187224e-02
      -2.10645393e-01 -1.84172809e-01 -1.53460845e-01 -1.76773101e-01
      -1.30871341e-01 -1.65641680e-01 -1.43812373e-01 -9.70223099e-02
      -2.58717060e-01 -2.70057589e-01 -9.89034548e-02 3.06965947e-01
      -2.93171052e-02 2.40185395e-01 1.96056426e-01 1.81451902e-01
      -6.85390830e-02 1.54684320e-01 2.84883469e-01 -1.33183384e-02
      1.43157721e-01 -3.26456726e-01 -2.72641957e-01 -1.09964192e-01
      -1.35454863e-01 2.21786648e-01 -1.51336983e-01 -1.59252122e-01
      -6.05262332e-02 -2.43406724e-02 -1.51603892e-01 -1.99308708e-01
      -3.05082887e-01 5.01159392e-03 -1.41630128e-01 -6.22421801e-02
      4.19626720e-02 8.89340714e-02 3.51520658e-01 8.71059522e-02
      1.07092783e-02 4.77335528e-02 -2.01810807e-01 -3.61339211e-01
      3.59447300e-02 -4.60464627e-01 1.02388613e-01 3.37675929e-01
      8.95476192e-02 7.69645870e-02 2.58910805e-01 -1.71161622e-01</_>
    <_>
      -6.24394000e-01 -3.01052243e-01 -1.62707508e-01 -4.09950882e-01
      -2.60042376e-04 -2.36448035e-01 2.63245944e-02 1.53075948e-01
      -4.17289674e-01 4.87289540e-02 -4.80764568e-01 -2.73778558e-01
      6.64452761e-02 2.53047109e-01 -6.81034941e-03 8.77390057e-02
      3.72526213e-03 9.11370292e-02 2.65681475e-01 7.89291337e-02
      1.58045024e-01 1.36881575e-01 9.77015644e-02 -6.16780818e-01
      -5.67915380e-01 -8.07431459e-01 -8.10957849e-02 -1.17080331e-01
      2.20218614e-01 -3.68239619e-02 -1.42813712e-01 -4.18203890e-01
      -2.94922590e-01 -3.96396406e-02 3.28804217e-02 -1.84373260e-01
      9.45819393e-02 -6.55416446e-03 2.09608316e-01 -2.35371202e-01
      -5.52084327e-01 -3.48523468e-01 -1.82847872e-01 -1.08028129e-01
      -2.51437217e-01 -1.68734193e-02 -1.45657256e-01 -3.74659933e-02
      -1.64995208e-01 -1.48598835e-01 -2.20533416e-01 -1.08146423e-03
      -1.95540681e-01 -2.01552093e-01 1.13148920e-01 2.26829201e-01
      1.07870564e-01 -6.59836292e-01 -7.10462153e-01 -7.03725517e-01
      -3.50756466e-01 -3.05258989e-01 -1.30573772e-02 -9.62138847e-02
      -8.96492153e-02 1.01736233e-01 2.32483208e-01 -2.61659145e-01
      2.59952724e-01 2.04940572e-01 1.93208352e-01 -1.52584329e-01
      -9.51172411e-02 -1.37501329e-01 -3.22183877e-01 -2.71056026e-01
      -2.66019791e-01 -6.77684322e-02 2.58571327e-01 5.18596232e-01
      -2.50247508e-01 4.37237769e-02 -9.93546098e-03 -3.40853840e-01
      -3.92879695e-01 -3.80681634e-01 -3.55222642e-01 -3.39808576e-02
      -2.81442612e-01 -1.59215152e-01 1.57274812e-01 -2.40768731e-01
      -2.91824698e-01 -5.53768516e-01 -6.35232151e-01 -3.47925842e-01
      1.90099269e-01 -1.23258717e-01 2.53676111e-03 -2.99991310e-01
      -2.77249366e-01 1.11522362e-01 2.06142560e-01 4.83930796e-01
      3.04363519e-02 -2.24715397e-01 -9.82945114e-02 -3.83861810e-02
      -1.18244052e-01 1.87069759e-01 -1.32078215e-01 -3.71343106e-01
      -2.04071358e-01 -1.78636774e-01 -5.69253936e-02 -4.74732146e-02
      -8.71207640e-02 4.30652164e-02 1.17002074e-02 5.19822864e-03
      2.50835456e-02 1.64382104e-02 -2.63734311e-01 -6.15365468e-02
      -2.97456712e-01 1.60872228e-02 -8.21682364e-02 -2.71494597e-01
      -1.67147070e-02 -1.05970681e-01 2.02350736e-01 5.49621955e-02
      9.27861705e-02 -1.12707712e-01 -1.49658278e-01 -5.49507514e-02
      -1.86452582e-01 -6.15594089e-01 2.29297280e-01 -2.60547400e-01
      1.06286339e-01 4.40902188e-02 5.80814444e-02 9.09996033e-02</_>
    <_>
      -2.60888368e-01 -4.44729030e-02 8.18377286e-02 3.87951313e-03
      8.88835564e-02 5.93817048e-02 1.43709332e-01 1.58825200e-02
      -2.17893198e-01 -1.06172360e-01 6.54532528e-03 8.90651643e-02
      5.81881143e-02 1.15464538e-01 -2.89351065e-02 2.04176262e-01
      -8.99648517e-02 -1.79919034e-01 2.65297383e-01 -5.45755401e-02
      -9.19579063e-03 -1.52347265e-02 -1.78846598e-01 -1.53166667e-01
      -8.96612778e-02 -3.51538599e-01 1.45064682e-01 -9.08878073e-02
      1.79957859e-02 -8.25440809e-02 1.66245326e-02 -1.76871046e-01
      -3.13059181e-01 -1.66739315e-01 -2.96684682e-01 -1.58771634e-01
      8.52940045e-03 -2.01396346e-01 2.41786391e-02 -2.21564636e-01
      -2.25639403e-01 -5.06130466e-03 7.15197325e-02 -9.85968672e-03
      -5.96551113e-02 -4.29313034e-02 1.72416046e-01 5.39750010e-02
      -1.33013546e-01 2.59776060e-02 -1.25731960e-01 -4.62032594e-02
      -2.52947539e-01 -2.00028658e-01 7.78972879e-02 1.08338170e-01
      8.80150273e-02 -1.50538743e-01 -1.61957771e-01 -4.31537628e-01
      -2.38546282e-01 -1.72998920e-01 4.67689671e-02 1.34903416e-01
      -8.40639696e-02 -7.00966418e-02 -1.22250482e-01 -1.62893146e-01
      -2.27157429e-01 -4.71244715e-02 1.32854981e-02 1.21401273e-01
      1.81728289e-01 -3.59701328e-02 -1.36996254e-01 -3.46689522e-01
      -2.37378106e-01 -1.48606747e-01 1.60845727e-01 1.54329285e-01
      1.61075190e-01 1.94933325e-01 2.48127460e-01 -2.09958572e-02
      -3.62051427e-01 -4.83272940e-01 -3.22000533e-01 -1.96069375e-01
      -2.29270011e-01 7.98055306e-02 1.20104045e-01 7.22961202e-02
      8.53365287e-02 -4.96591516e-02 -1.80363193e-01 -3.35162342e-01
      -1.09185703e-01 -1.95008159e-01 -3.36048417e-02 -9.28223804e-02
      -1.56864554e-01 -2.16003172e-02 -2.06459001e-01 7.48976618e-02
      9.30477679e-02 3.65482680e-02 1.32646769e-01 8.33462551e-02
      4.16243263e-02 2.26801522e-02 -4.55268659e-02 -3.05188447e-01
      -6.94251526e-03 -2.49422882e-02 6.11305907e-02 6.85029104e-02
      -2.67746616e-02 3.45268488e-01 1.67266175e-01 -3.86396510e-04
      -4.06946212e-01 -3.90549988e-01 -2.53673494e-01 -1.35786831e-01
      -1.95309803e-01 2.05245912e-01 5.26965708e-02 9.17305052e-02
      1.49556667e-01 8.30201805e-02 4.08497192e-02 -8.75473171e-02
      7.12591410e-02 -2.67940816e-02 1.06109738e-01 -2.61750072e-02
      -1.62326381e-01 -2.91666269e-01 1.57942086e-01 2.28211254e-01
      2.59704776e-02 1.32296115e-01 1.42409608e-01 3.91877517e-02</_>
    <_>
      -3.41645926e-02 5.98051399e-02 1.49793535e-01 1.94494128e-01
      2.56175965e-01 8.50012228e-02 8.44392553e-02 1.03468731e-01
      -5.94984740e-02 -2.77506821e-02 -1.15774974e-01 -2.28374481e-01
      1.11178063e-01 1.43397152e-01 9.95106101e-02 2.41876930e-01
      1.38620988e-01 -2.40788862e-01 -8.70116577e-02 -9.41865668e-02
      2.79522594e-02 2.25130782e-01 2.79089600e-01 -5.59626380e-03
      -2.09733933e-01 -1.98465332e-01 -9.76115018e-02 -5.30249104e-02
      1.31328359e-01 8.98162499e-02 1.19102679e-01 -2.05989629e-01
      -2.09848315e-01 -8.41575265e-02 -1.45473629e-01 -1.40542760e-01
      -3.10042053e-01 -5.87104633e-02 2.08511949e-03 5.34319840e-02
      7.48349428e-02 1.26683399e-01 1.39760211e-01 1.01995572e-01
      -3.18808183e-02 -2.59925038e-01 -1.58864051e-01 -1.87712744e-01
      -1.00359417e-01 3.42089944e-02 8.39684159e-03 1.25843450e-01
      -2.30369791e-02 -5.11241890e-02 -4.11667442e-03 1.02158934e-01
      -1.82888418e-01 -1.67236909e-01 -3.90166640e-01 -3.59305322e-01
      -4.83292311e-01 -1.46263883e-01 7.45737851e-02 2.39032283e-02
      1.42400756e-01 3.64598818e-02 -2.17567906e-02 -1.70818970e-01
      -4.25826460e-01 -1.76217675e-01 -8.92279521e-02 9.69219878e-02
      3.10559738e-02 -1.15442067e-01 -2.49737054e-01 1.53498184e-02
      -1.31066516e-01 8.08242857e-02 1.75171256e-01 3.35429996e-01
      7.62792304e-02 2.13395908e-01 4.90922220e-02 -2.77279139e-01
      -3.95261735e-01 -3.43665212e-01 -3.20721596e-01 -2.94670135e-01
      -3.39503676e-01 1.22006297e-01 1.25771686e-01 5.93363196e-02
      4.53369133e-02 -1.98801130e-01 -3.48205328e-01 -2.79013872e-01
      -4.32941198e-01 -1.57783762e-01 -6.93713352e-02 8.53470564e-02
      -3.83357182e-02 -2.29380816e-01 -3.78373057e-01 -7.78906867e-02
      -1.59111857e-01 -4.62663844e-02 1.85008466e-01 3.43135744e-01
      8.28476027e-02 4.43941448e-03 -1.94381341e-01 -1.33953765e-01
      -1.95605084e-01 5.44209033e-02 -1.26094326e-01 3.05640638e-01
      1.29868910e-01 3.78111541e-01 8.50251913e-02 -2.45619923e-01
      -3.89046073e-01 -2.63667434e-01 -2.85982639e-01 -3.05878282e-01
      -3.75570953e-01 2.03748137e-01 -1.72919214e-01 4.99620959e-02
      2.13341430e-01 4.48540561e-02 1.22690208e-01 9.72741097e-02
      -1.04239270e-01 -3.21349680e-01 -1.00153655e-01 4.34801206e-02
      -5.42364717e-01 -5.55544913e-01 2.10703667e-02 -1.25620840e-02
      6.12176135e-02 -3.42108943e-02 2.46451497e-01 -1.34676993e-01</_>
    <_>
      -3.71444464e-01 -1.91285126e-02 -1.79836899e-01 -2.05964625e-01
      9.95290279e-02 -1.02113768e-01 -6.28931746e-02 -9.97086912e-02
      -1.76698416e-01 1.65482566e-01 3.87916677e-02 -2.21602172e-01
      -2.04331093e-02 -1.11828648e-01 -4.17548329e-01 3.65235656e-02
      -2.98208624e-01 1.09819978e-01 -2.06193194e-01 -3.15162353e-02
      -1.28463417e-01 1.10493749e-01 -3.77864361e-01 -1.04875915e-01
      -2.73908317e-01 -1.89903289e-01 -2.33672395e-01 1.18230902e-01
      8.99882838e-02 -1.14336841e-01 5.71015626e-02 -1.33330822e-01
      1.09648116e-01 1.46869257e-01 2.24111844e-02 -1.13718808e-02
      1.18445911e-01 4.02957886e-01 8.63918141e-02 -5.99792302e-01
      -6.09037340e-01 -4.36388016e-01 -2.02536315e-01 9.60212499e-02
      1.96445525e-01 9.83338356e-02 1.61943719e-01 -3.19732100e-01
      -3.83954704e-01 -8.10706139e-01 -5.49936295e-01 -4.78699319e-02
      2.97840089e-01 -1.40190363e-01 -2.09251642e-02 4.08877015e-01
      -4.40658391e-01 -3.88152868e-01 -1.29767299e-01 -1.25109151e-01
      -2.43885666e-02 3.79839391e-01 1.22513898e-01 -3.71932924e-01
      2.45815471e-01 1.59954593e-01 3.99885952e-01 2.52534866e-01
      3.40229422e-01 -3.82943377e-02 1.11806005e-01 -2.35585123e-01
      3.70814294e-01 4.31108296e-01 6.49333075e-02 -2.96611130e-01
      -2.42034644e-01 -7.02707171e-01 -1.69899747e-01 2.90520377e-02
      -3.12431287e-02 1.46174505e-01 2.47261375e-01 -1.19763866e-01
      -1.06396087e-01 -4.94243771e-01 -3.14193815e-01 -2.36664832e-01
      -2.79747307e-01 -2.17735037e-01 5.91097996e-02 1.74463153e-01
      -2.01288208e-01 -2.04474792e-01 -9.52777490e-02 -2.11041808e-01
      3.80977243e-02 2.93411374e-01 5.98835833e-02 -1.01882935e-01
      -1.87757209e-01 -2.16790497e-01 2.18990296e-01 3.58611912e-01
      2.01632068e-01 9.17043071e-03 3.35337073e-02 -9.26037058e-02
      4.06361856e-02 -1.42178029e-01 1.76871344e-01 1.71360355e-02
      -1.81077421e-01 -8.13417733e-02 -3.22779715e-01 -3.49726051e-01
      2.20435578e-02 3.02205924e-02 -1.26923755e-01 -1.05548568e-01
      5.16603403e-02 -1.61559030e-01 -1.14813596e-01 -3.05220842e-01
      7.69160986e-02 -1.25442475e-01 1.25532728e-02 -6.04593568e-02
      -2.94662505e-01 -4.01456375e-03 1.60073251e-01 -1.15389489e-01
      -1.12587549e-02 4.61178213e-01 1.48656428e-01 -3.54324073e-01
      -3.04021966e-02 -2.17153132e-01 2.17551082e-01 1.01024449e-01
      1.11400031e-01 2.03541517e-01 1.61594376e-01 1.25450948e-02</_>
    <_>
      -1.84168980e-01 6.12329170e-02 2.71717489e-01 -8.51878896e-03
      3.54202896e-01 5.08720204e-02 1.65519133e-01 1.50043011e-01
      -4.17288601e-01 1.90892473e-01 4.51558232e-02 -2.62932628e-01
      -1.61862820e-01 1.09778844e-01 4.77864295e-02 9.02935788e-02
      -3.83345604e-01 5.22390120e-02 2.84578145e-01 3.94542925e-02
      -1.47851706e-01 3.02931428e-01 4.74596292e-01 -1.87077954e-01
      -2.89521515e-02 -3.07607889e-01 2.24602651e-02 -9.17873085e-02
      -6.52431101e-02 -6.43629804e-02 3.29561293e-01 1.79324657e-01
      -4.99629416e-02 5.44196330e-02 -3.99359643e-01 -1.83461294e-01
      -6.39746562e-02 -2.32344404e-01 1.11373231e-01 -4.40859437e-01
      -3.29817981e-01 -1.32318959e-01 -1.06902875e-01 2.67299712e-02
      -4.10128593e-01 -7.74473399e-02 1.57935008e-01 -1.24698400e-01
      -3.96814942e-01 -4.16994989e-01 -2.82515913e-01 -4.93206888e-01
      -4.93938565e-01 -3.00929636e-01 -7.28407279e-02 3.21186371e-02
      -1.50357679e-01 -5.40188253e-01 -2.99716383e-01 -5.97437978e-01
      -2.59098202e-01 -2.56073862e-01 9.32219326e-02 1.84273981e-02
      4.28933352e-02 1.04201339e-01 -1.12307921e-01 -3.10385853e-01
      -1.23112842e-01 -3.02169919e-01 -2.07221925e-01 -1.40815765e-01
      6.10713251e-02 6.65715188e-02 6.04173727e-02 -4.61591601e-01
      -3.88094991e-01 -4.04797852e-01 1.10009044e-01 4.12473738e-01
      -1.50776863e-01 2.44120419e-01 1.55065879e-01 -4.48281527e-01
      -7.36097157e-01 -9.15082633e-01 -7.03003943e-01 -4.90871698e-01
      -3.94433409e-01 7.02911168e-02 3.80341709e-02 7.32376873e-02
      -1.44211009e-01 -3.17460537e-01 -4.93721008e-01 -4.91256326e-01
      -8.07574615e-02 -4.38672036e-01 -3.52380633e-01 -5.21000959e-02
      -1.04787499e-01 -1.66822076e-01 -2.43714780e-01 6.69976398e-02
      3.23739424e-02 8.74111578e-02 9.16509703e-03 -1.12616003e-01
      6.36995584e-02 -2.02525720e-01 -8.15080926e-02 -2.39041880e-01
      2.81710643e-02 -4.90658641e-01 -4.11370039e-01 -5.17051704e-02
      -3.63840461e-02 1.64323762e-01 -3.37044150e-01 -5.44460118e-01
      -4.09824640e-01 6.98778704e-02 -2.45032817e-01 -6.43210411e-02
      -1.40919581e-01 1.87336907e-01 1.84437171e-01 -1.36951981e-02
      -3.06002766e-01 -3.42532694e-02 2.18531922e-01 4.92800362e-02
      5.26659265e-02 -3.47224236e-01 2.89819717e-01 -1.00446917e-01
      -2.69079376e-02 -4.14511502e-01 3.14339817e-01 2.07892433e-01
      8.50920305e-02 1.29729658e-01 2.21524000e-01 -1.26496375e-01</_>
    <_>
      -2.55177677e-01 -2.16786325e-01 -1.61312923e-01 -7.35639036e-02
      1.79150507e-01 1.15722895e-01 2.59618551e-01 1.24600284e-01
      -1.62757292e-01 -2.51863599e-01 -1.09807812e-01 2.73516420e-02
      2.15194702e-01 1.84054017e-01 3.23874950e-02 1.21246375e-01
      -2.27896616e-01 -1.59730747e-01 2.49792486e-01 2.08199602e-02
      3.20236474e-01 1.81524709e-01 -6.75888360e-02 -5.18162370e-01
      -3.65357101e-01 -4.98060703e-01 -4.48769741e-02 1.80982038e-01
      -2.63219606e-02 -1.74817353e-01 1.50294751e-01 -2.15586096e-01
      -1.09083526e-01 -8.15864056e-02 1.18467256e-01 -3.11484803e-02
      2.39728555e-01 -3.42835158e-01 -1.65338919e-01 -2.58236587e-01
      -4.53906476e-01 -1.70134187e-01 -2.60230550e-03 1.28668085e-01
      1.38226375e-01 1.43122987e-03 -5.59430048e-02 -2.71340191e-01
      -2.07312509e-01 -1.82538092e-01 -3.84827256e-01 -2.71892130e-01
      2.49840878e-02 1.06943035e-02 1.42134055e-01 1.23164348e-01
      -6.66562095e-02 -2.56887764e-01 -4.33209360e-01 -5.62786579e-01
      -3.54149431e-01 -2.76369512e-01 -8.04927647e-02 3.31849158e-02
      -1.44035593e-01 -2.85098374e-01 1.77701265e-01 1.71163201e-01
      1.88330725e-01 1.39116436e-01 2.78285086e-01 8.89377072e-02
      1.44193307e-01 2.67419100e-01 5.30097261e-02 -2.59609252e-01
      -2.01337710e-01 -4.38124478e-01 -2.47779012e-01 1.41442016e-01
      -5.05667813e-02 1.68714002e-01 3.02777082e-01 -4.15933430e-01
      -5.91236591e-01 -5.76900303e-01 -3.14282805e-01 -2.66244084e-01
      -2.46050313e-01 3.97288520e-03 1.07623361e-01 -6.57285601e-02
      -3.53586078e-01 -3.51985931e-01 -1.70582592e-01 -2.05600053e-01
      -2.07408518e-02 1.06137462e-01 -6.04435243e-02 2.32685149e-01
      -9.22645777e-02 -2.00779527e-01 2.69312054e-01 4.00603592e-01
      5.14576994e-02 -1.22422643e-01 -1.23812176e-01 -1.54612601e-01
      -1.79009214e-01 5.99433528e-03 9.46501121e-02 -1.90645747e-03
      4.87377234e-02 -2.15614304e-01 -4.65113550e-01 -6.43385649e-02
      -2.43713975e-01 -8.92864242e-02 -1.26734540e-01 -3.03489342e-02
      -6.28439188e-02 3.60151641e-02 -1.49249351e-02 -1.15419668e-03
      -1.77600175e-01 -1.51225075e-01 -1.14887014e-01 -1.32866159e-01
      1.70142680e-01 -4.00096476e-02 2.61934072e-01 -2.64778901e-02
      1.69356182e-01 -1.63955148e-02 -1.52957672e-02 -4.26475376e-01
      -3.29471856e-01 -2.25243971e-01 1.52610064e-01 1.07047230e-01
      -8.60288516e-02 -4.47200239e-02 9.92695689e-02 5.56762516e-02</_>
    <_>
      -5.09926584e-03 4.98199612e-01 1.73875615e-01 -1.42570928e-01
      -4.51643229e-01 1.02963857e-01 -2.26901984e-03 -1.64065808e-01
      4.90031503e-02 3.08221951e-02 3.55878472e-02 1.00938119e-01
      3.52534831e-01 -6.08372204e-02 -1.16247781e-01 -2.16437057e-01
      -5.57465196e-01 -5.11117935e-01 -1.15755886e-01 7.26122260e-01
      6.91375196e-01 2.43429303e-01 -7.80613661e-01 -6.16307199e-01
      -5.90325482e-02 -8.37790892e-02 1.76705718e-02 -4.04030114e-01
      -3.17530692e-01 -1.88014179e-01 -1.84597939e-01 -4.07543272e-01
      2.15550289e-01 2.20531687e-01 4.23262924e-01 1.89762980e-01
      1.83920190e-01 4.77027923e-01 7.42461011e-02 -4.47283387e-02
      -5.51929325e-02 -2.52714992e-01 -8.48004743e-02 -9.36246961e-02
      -7.58396760e-02 -6.93309605e-01 -2.92351633e-01 -9.58765298e-02
      -1.33687571e-01 3.24505538e-01 4.34370697e-01 6.25810027e-02
      -6.33720905e-02 -1.46576390e-01 5.30380681e-02 6.82608724e-01
      2.97396123e-01 3.92073154e-01 -1.01373151e-01 -5.86058259e-01
      -5.88238001e-01 -6.60882771e-01 -1.86385855e-01 2.06264541e-01
      5.42589426e-02 3.40281613e-02 8.19865838e-02 3.61562297e-02
      2.86640935e-02 -8.04059058e-02 4.82651591e-03 8.02926347e-02
      -3.02735507e-01 -4.06040072e-01 -3.40421587e-01 2.58468986e-01
      -2.98405528e-01 -2.45960593e-01 -7.36511573e-02 1.97885513e-01
      -2.35095881e-02 -2.45863721e-01 -8.99711438e-03 -4.00880724e-01
      -5.95539570e-01 -5.27064025e-01 -5.62123716e-01 -3.68101359e-03
      -1.76398143e-01 8.66194069e-02 8.93308744e-02 4.61857021e-01
      3.91928524e-01 1.43215343e-01 7.28347898e-01 -1.18991427e-01
      -3.18886876e-01 -4.68220055e-01 -3.44604194e-01 -1.36332810e-01
      -4.82779965e-02 -5.19896090e-01 -3.12512904e-01 5.80274522e-01
      6.34429753e-01 6.48048282e-01 4.84958738e-01 6.37210727e-01
      -5.11978805e-01 -5.58782578e-01 -1.48909613e-01 5.06071970e-02
      -1.80285886e-01 -7.24224448e-01 3.99876833e-02 -1.58501729e-01
      2.83932924e-01 2.05968037e-01 1.34356052e-01 -2.58299969e-02
      -2.59713322e-01 1.09450653e-01 -2.35586241e-01 -4.28970724e-01
      -3.92735034e-01 -1.47485081e-02 -2.83779532e-01 1.42694592e-01
      2.66660303e-01 6.48756266e-01 8.56659055e-01 2.97873225e-02
      -2.85863906e-01 -7.21926987e-01 -5.22422850e-01 -2.69794345e-01
      -4.32196945e-01 -8.83859619e-02 -1.35907829e-01 1.05752861e+00
      3.33330005e-01 5.00735044e-01 3.34655702e-01 -2.16101125e-01</_>
    <_>
      3.72928679e-02 -8.13502371e-02 -1.71532050e-01 -1.13102399e-01
      -1.06957145e-01 -7.10613877e-02 -5.22322692e-02 -1.21720649e-01
      4.63595808e-01 -9.13506746e-02 -7.23468482e-01 -1.47676632e-01
      5.42694807e-01 9.00885284e-01 4.89420652e-01 -7.11143911e-02
      -2.66731620e-01 4.82853562e-01 1.92740917e-01 3.39898378e-01
      1.86782181e-01 2.03778267e-01 -3.67115885e-01 -6.94497108e-01
      -3.88719201e-01 -3.33963782e-02 1.95632398e-01 1.90211266e-01
      -1.35843679e-01 -2.58244634e-01 -2.11411506e-01 -4.14116561e-01
      3.21023613e-01 5.02127230e-01 4.45722520e-01 9.74416360e-02
      -1.94343150e-01 -4.46498878e-02 3.29438865e-01 1.28019899e-01
      4.07626759e-03 5.65662794e-02 1.17374852e-01 -2.38029793e-01
      -9.40717906e-02 -3.36604655e-01 -2.04889581e-01 1.25733957e-01
      4.62267220e-01 5.24710953e-01 5.50153017e-01 -4.69574369e-02
      1.01831863e-02 -7.76361078e-02 9.51165184e-02 4.24512684e-01
      2.95741588e-01 7.60226995e-02 -2.72560418e-01 -4.86708462e-01
      -2.99106866e-01 -3.21218610e-01 -1.25584602e-01 -1.93737894e-01
      -5.33163957e-02 1.61296979e-01 3.18583876e-01 -9.39110145e-02
      6.61683619e-01 3.72300535e-01 2.04905402e-02 -2.57397532e-01
      -3.49288791e-01 -5.66391468e-01 -2.96430796e-01 4.06771123e-01
      -1.06243610e-01 1.51768118e-01 3.63102883e-01 4.29544210e-01
      -9.89399850e-02 1.80344190e-02 1.65725023e-01 -1.38945431e-01
      4.10988368e-02 3.46092105e-01 -1.35449227e-02 3.44719514e-02
      2.71465089e-02 -3.45293641e-01 7.31201172e-02 1.67618826e-01
      -5.63692041e-02 -2.42407039e-01 -1.11380033e-01 -1.25359371e-01
      1.08498134e-01 -1.36289507e-01 -1.27995327e-01 -7.63407171e-01
      -2.71047026e-01 2.87844315e-02 6.78708076e-01 8.22191536e-01
      2.94370681e-01 2.94375680e-02 -2.78426915e-01 -4.73219991e-01
      3.78828973e-01 -2.35422328e-01 -4.18221414e-01 -4.55705822e-01
      -7.69959986e-01 -4.14160825e-02 -4.29769866e-02 -1.68919891e-01
      2.68491298e-01 -1.14044592e-01 5.54712176e-01 4.10046577e-01
      3.21435817e-02 -1.82036281e-01 3.87172326e-02 -3.58634681e-01
      -3.91938120e-01 -3.33001494e-01 -9.37464535e-02 8.73545557e-02
      2.41546072e-02 -2.49151021e-01 -1.08036168e-01 2.32798140e-03
      3.23123068e-01 -8.95431340e-02 -5.06031550e-02 -7.53739923e-02
      -3.63952905e-01 -1.25063166e-01 1.43356144e-01 3.78434509e-02
      1.72091156e-01 3.20526600e-01 1.15150683e-01 2.65317946e-03</_>
    <_>
      4.74967957e-02 1.07463293e-01 3.56291570e-02 -2.38230079e-01
      -7.36706704e-02 1.45051107e-01 2.21669555e-01 -1.05103292e-01
      3.13320607e-01 -9.47590470e-02 -2.94280291e-01 3.10365587e-01
      2.98641235e-01 4.78725702e-01 -9.86672938e-02 -6.28829300e-02
      -2.56744146e-01 -2.45483428e-01 1.97930336e-01 2.13659242e-01
      3.67166191e-01 -1.08066887e-01 -2.06973210e-01 -1.10898651e-01
      -1.74221992e-01 1.01088002e-01 9.42328349e-02 2.02295817e-02
      2.65081432e-02 -2.07579926e-01 3.30684148e-02 5.44001833e-02
      -3.22459303e-02 -1.18330047e-02 2.36797109e-01 -2.23502234e-01
      5.49770780e-02 -2.04376295e-01 -2.16018483e-01 -1.96806088e-01
      -1.00080736e-01 1.03277117e-01 3.42362136e-01 7.91826379e-03
      4.81095258e-03 -2.52525926e-01 -6.68018982e-02 1.94564685e-01
      -4.48059104e-02 4.08884048e-01 -1.27509739e-02 6.31798729e-02
      -1.44215226e-01 -8.23970735e-02 1.77024752e-01 3.79014999e-01
      3.37038040e-01 3.40260118e-01 2.33481482e-01 -4.42538649e-01
      -2.24858046e-01 -3.99750561e-01 2.03848984e-02 7.75742084e-02
      3.16091739e-02 2.07620114e-01 1.84324846e-01 -1.33151636e-01
      1.05207093e-01 6.03571348e-02 1.17295340e-01 5.50048463e-02
      5.35780750e-02 -7.84654394e-02 -3.54773462e-01 -2.58692950e-01
      -3.05373013e-01 7.10449070e-02 3.87318879e-01 2.28951443e-02
      1.92060750e-02 7.42386654e-02 5.24415672e-01 1.41427338e-01
      -1.27043471e-01 -1.77180052e-01 -3.13961685e-01 -2.24533081e-01
      -1.34465486e-01 6.73734993e-02 6.86485227e-03 2.65260637e-01
      2.64748633e-01 2.85836041e-01 4.84665602e-01 -2.47665763e-01
      -2.07621872e-01 -4.17984933e-01 -2.23892212e-01 -6.01488980e-04
      9.61245149e-02 -4.78335649e-01 -2.41770390e-02 4.21202332e-01
      1.83089867e-01 4.16176826e-01 3.04297239e-01 6.83080778e-02
      1.40745342e-01 -1.85494617e-01 -2.78586596e-01 -4.06794220e-01
      -5.20873308e-01 -1.94703981e-01 4.91871238e-01 1.00050628e-01
      7.19773769e-02 1.88059241e-01 3.40490341e-01 2.36901358e-01
      -8.26100111e-02 -3.62775892e-01 -2.56172419e-01 -3.76889169e-01
      -3.02464008e-01 2.40373626e-01 -7.51333535e-02 2.75812477e-01
      4.14711267e-01 2.45747685e-01 1.70409545e-01 8.35226476e-02
      -1.42237306e-01 -2.01832265e-01 -2.78562844e-01 -1.31136537e-01
      -3.27176839e-01 -1.49981305e-01 1.96662620e-01 5.66653311e-01
      3.35604161e-01 3.46880406e-01 2.80118316e-01 2.39735879e-02</_>
    <_>
      3.91730309e-01 -6.61412254e-02 -1.17683262e-01 1.96025036e-02
      2.09931746e-01 1.74426243e-01 1.36830226e-01 1.28410205e-01
      4.20422196e-01 -3.78156990e-01 -1.40808016e-01 1.19791538e-01
      3.27969134e-01 5.59987187e-01 1.40343666e-01 -1.13109723e-02
      -1.31060958e-01 -5.58693931e-02 -6.28402457e-02 1.77855432e-01
      1.45470887e-01 3.78550798e-01 4.32194591e-01 3.64452484e-03
      -2.06312791e-01 -1.08125232e-01 -5.52305952e-02 1.12741850e-01
      -6.85770735e-02 -6.68069487e-03 4.24833186e-02 2.23710667e-02
      1.12274155e-01 -5.48660122e-02 -1.98818631e-02 5.89443073e-02
      -2.17911214e-01 -2.79299408e-01 -9.90410298e-02 1.29833668e-01
      3.44654381e-01 3.31647068e-01 2.17596635e-01 3.17674875e-01
      2.95508429e-02 -3.89376312e-01 -2.41402879e-01 1.63057536e-01
      7.70838782e-02 4.08730209e-01 3.15172702e-01 7.68639445e-02
      5.21846525e-02 1.57766324e-02 -4.53081653e-02 8.75930190e-02
      1.35564715e-01 2.12477401e-01 1.91212341e-01 -1.21329159e-01
      -2.15202272e-01 -1.18529238e-01 -5.77826872e-02 3.28971781e-02
      7.94650316e-02 6.42481726e-03 2.33835876e-01 -6.66806325e-02
      2.04211790e-02 2.73186211e-02 -5.69451153e-02 9.67541337e-02
      -2.93281842e-02 -1.69866458e-01 -2.31318116e-01 7.79777095e-02
      3.18884365e-02 2.81234622e-01 2.22417489e-01 3.65538269e-01
      1.55607358e-01 2.79322773e-01 1.17886715e-01 -1.23443015e-01
      -1.85243949e-01 -3.63054752e-01 -1.57439336e-01 -1.22805133e-01
      1.63918614e-01 1.88124061e-01 -1.06173657e-01 -3.26609947e-02
      2.19048738e-01 1.95784539e-01 1.87442183e-01 -1.17779352e-01
      -2.06537843e-01 4.14932370e-02 4.12265919e-02 5.65478839e-02
      -5.96245341e-02 -6.38048872e-02 -2.79100444e-02 6.47067726e-02
      4.02040370e-02 4.64405566e-02 1.42831758e-01 1.06399082e-01
      2.21939176e-01 4.72382940e-02 -1.79323494e-01 -9.00152922e-02
      -1.85750708e-01 -9.62039048e-04 1.45587027e-01 2.48169586e-01
      3.51604939e-01 2.19137788e-01 3.19782138e-01 7.00550303e-02
      -3.32830995e-02 -2.91488528e-01 -3.40814531e-01 -5.82905114e-01
      -2.99240053e-01 4.53530364e-02 -1.92091107e-01 -9.84524339e-02
      8.21621418e-02 2.66272813e-01 3.00429732e-01 1.09371990e-01
      -3.40490937e-02 -2.97076046e-01 -2.10173503e-01 1.81521356e-01
      -4.16290492e-01 -1.55078620e-01 3.48177887e-02 -1.58716217e-02
      2.09210724e-01 2.09958851e-01 2.03899428e-01 2.28960901e-01</_>
    <_>
      1.37408689e-01 -9.47962999e-02 3.23340446e-01 1.65578842e-01
      -3.76903445e-01 4.16807570e-02 -1.23507846e-02 1.62777767e-01
      1.03369333e-01 3.13029997e-02 3.97950821e-02 9.07168072e-03
      2.71940649e-01 2.58310288e-01 -2.86102831e-01 -1.07318886e-01
      -7.86233097e-02 -1.42242387e-01 4.78691846e-01 6.50626540e-01
      -2.82217801e-01 7.09727034e-02 -1.96953341e-01 -5.44595659e-01
      -3.43243808e-01 5.25121689e-02 -4.54164902e-03 -4.71507534e-02
      -2.92053968e-01 -3.44991416e-01 -7.87188932e-02 -6.31034523e-02
      4.62724507e-01 4.12708044e-01 8.32917929e-01 7.81847239e-02
      3.93284410e-01 1.82126805e-01 1.71678722e-01 2.06455395e-01
      -2.39949271e-01 -4.35668409e-01 9.34076682e-02 -2.09008195e-02
      1.32547095e-01 -2.31003970e-01 -4.75721732e-02 -1.53073156e-02
      2.20557712e-02 -5.03189974e-02 -2.19653457e-01 -8.27998146e-02
      9.26976651e-02 -4.51743573e-01 1.28131941e-01 2.43584424e-01
      1.09085403e-01 -1.51583571e-02 1.25551820e-01 -2.79359937e-01
      -1.93697765e-01 9.02133361e-02 -5.52210435e-02 -7.84625351e-01
      -4.49394286e-01 4.05856103e-01 7.64681041e-01 1.06390071e+00
      7.46273696e-01 2.49740630e-01 1.28689259e-01 -4.52454448e-01
      1.77656725e-01 -6.08103685e-02 1.94397435e-01 -1.82717100e-01
      -3.96746486e-01 -1.28320500e-01 9.33742449e-02 5.21255434e-01
      1.68144330e-01 -2.68771946e-02 1.75529480e-01 2.44518131e-01
      2.59728491e-01 -3.71137887e-01 -5.12791276e-02 -5.08765914e-02
      -1.01487570e-01 -4.97256041e-01 2.22429946e-01 2.88105816e-01
      3.26773636e-02 -1.56160295e-01 7.22495735e-01 -2.82291323e-01
      -2.00871393e-01 -1.39164031e-01 1.89630121e-01 -1.03090894e+00
      -4.93221909e-01 -3.97615768e-02 5.67344606e-01 1.01633477e+00
      4.36802715e-01 3.90083551e-01 -1.05679035e-01 -4.20016795e-01
      -1.32789969e-01 -4.35966849e-01 3.42212580e-02 -5.01334444e-02
      -4.60036904e-01 1.25467852e-01 1.91128775e-01 -6.77444041e-02
      1.78385198e-01 -1.48382902e-01 1.47555061e-02 2.89870054e-01
      7.45562017e-02 -5.38144886e-01 -4.41247970e-01 -1.72706519e-03
      2.47250289e-01 -1.07128762e-01 -1.63484868e-02 2.91956931e-01
      -3.73420328e-01 1.28385872e-01 5.83775580e-01 -1.94887862e-01
      -4.63212952e-02 1.34330258e-01 4.16781865e-02 1.50885817e-03
      -7.23722875e-02 -1.77525401e-01 -2.14908883e-01 3.56889307e-01
      4.86969233e-01 7.20033526e-01 5.44414043e-01 -5.55561967e-02</_>
    <_>
      1.44410178e-01 3.09158564e-02 -1.71648227e-02 -2.83116639e-01
      1.57574803e-01 3.08248490e-01 6.70906901e-02 -6.04967177e-02
      5.88941514e-01 1.69542849e-01 -1.97302967e-01 -3.26286882e-01
      2.46283799e-01 8.07300568e-01 4.47185099e-01 -2.58873850e-01
      -2.73347378e-01 -2.15615407e-01 2.71270365e-01 2.05160961e-01
      -1.09227739e-01 2.73729056e-01 4.20496345e-01 -2.91621745e-01
      -3.38440508e-01 -1.06889710e-01 1.41111419e-01 1.85345802e-02
      -1.86869308e-01 -2.89863497e-01 6.06839061e-01 2.90735126e-01
      -5.03436700e-02 -1.15724774e-02 8.76874626e-02 2.68749893e-01
      -2.22619390e-03 -5.13050318e-01 -2.26155698e-01 -1.61059812e-01
      3.82075101e-01 9.98085663e-02 3.03432792e-01 -1.32444188e-01
      2.79108249e-02 -4.33456838e-01 -2.86401927e-01 2.60853231e-01
      1.95430696e-01 7.20564723e-01 2.78778464e-01 -5.00545025e-01
      -9.68209982e-01 -5.47278464e-01 -7.72857368e-02 -5.28396852e-02
      7.01557426e-03 1.03869356e-01 1.19405963e-01 -1.69790283e-01
      -2.47226804e-01 -3.26439053e-01 3.67683694e-02 -1.78020015e-01
      -6.07517920e-02 3.73080820e-01 7.23656654e-01 2.55714655e-01
      1.74325481e-01 -4.59501803e-01 3.30684963e-03 2.09005047e-02
      4.57725376e-02 -4.05104965e-01 -1.85010001e-01 -5.97391464e-02
      -3.79832804e-01 -7.39932209e-02 -2.07000837e-01 2.36413822e-01
      1.27868265e-01 -1.06851816e-01 -2.30710246e-02 -2.42128283e-01
      -5.01534879e-01 -6.94871008e-01 -8.57418835e-01 -3.71018827e-01
      -1.85061082e-01 -1.73628586e-03 -8.20475817e-02 2.20993355e-01
      1.72074884e-01 2.03452960e-01 5.50973952e-01 -1.37823122e-02
      1.33195966e-01 -3.12230825e-01 -9.97551605e-02 -5.02767920e-01
      -8.04506615e-02 -5.01988530e-01 4.66101825e-01 7.11643338e-01
      5.88612139e-01 6.17221594e-01 4.02284741e-01 -3.29932779e-01
      2.01777220e-01 -2.96480268e-01 -6.60704821e-02 -1.24110036e-01
      -2.08460346e-01 -8.93917203e-01 -3.43829066e-01 -9.71999764e-02
      -1.06269456e-01 4.38281685e-01 -3.69736224e-01 -5.41696608e-01
      -4.94658798e-01 6.77863806e-02 -1.72526792e-01 -6.80120230e-01
      -5.35370052e-01 1.88212395e-01 2.37135917e-01 2.86008239e-01
      -6.62079677e-02 -9.10090283e-02 3.96090209e-01 1.98096782e-01
      -4.62192178e-01 -6.37513518e-01 2.52443224e-01 -2.10434303e-01
      -3.49987358e-01 2.82995147e-03 2.93080080e-02 6.06127858e-01
      6.41374707e-01 4.95585591e-01 2.00857610e-01 -2.18804419e-01</_>
    <_>
      1.24675870e-01 -2.12340131e-02 -1.97075948e-01 -1.30264804e-01
      3.32313664e-02 2.17550665e-01 2.03100622e-01 7.55868405e-02
      3.81470114e-01 -1.83094263e-01 -2.06135526e-01 7.70798884e-03
      3.90412867e-01 8.60599995e-01 3.72466415e-01 -7.93847442e-02
      -3.97368312e-01 -7.32762143e-02 2.88106538e-02 5.04991233e-01
      5.73275030e-01 2.87793994e-01 3.14768367e-02 -3.26256573e-01
      -3.01071137e-01 -2.31429622e-01 5.62485307e-02 1.82316110e-01
      -1.02154151e-01 -1.89919427e-01 1.40604451e-01 4.68003713e-02
      -1.30429909e-01 8.00926164e-02 3.26270461e-01 3.68133008e-01
      9.92949754e-02 -2.04573199e-01 -1.48877561e-01 -7.66017241e-03
      8.20076540e-02 1.84788123e-01 1.38717309e-01 -8.36808141e-03
      1.72411278e-01 -2.21777752e-01 -2.68209070e-01 2.46268343e-02
      1.16443962e-01 4.26567227e-01 2.06496149e-01 -1.30857909e-02
      -2.47207418e-01 6.05366472e-03 3.65506560e-01 2.67366469e-01
      3.05977732e-01 1.93337068e-01 2.13645563e-01 -2.13537112e-01
      -3.01798105e-01 -3.70135963e-01 2.55701840e-01 1.05757438e-01
      8.81702751e-02 4.15045070e-04 5.41980147e-01 2.63972193e-01
      1.83619499e-01 1.14142545e-01 6.56757429e-02 1.81056276e-01
      -6.23752400e-02 3.18073817e-02 -8.52434710e-02 -1.08091749e-01
      -2.10559860e-01 -1.89958304e-01 -1.46842105e-02 1.38909727e-01
      9.95545089e-02 7.14203864e-02 1.26944155e-01 -8.59506354e-02
      -4.72396880e-01 -1.93136379e-01 -2.44996026e-01 -5.60613349e-03
      -6.47414699e-02 1.30610824e-01 -6.23587035e-02 -2.53446307e-02
      9.28040743e-02 7.24105388e-02 2.07415447e-01 1.61178336e-01
      3.14036995e-01 7.02271536e-02 -9.45501253e-02 -3.65253389e-01
      -2.13939890e-01 -8.81575570e-02 4.76054430e-01 5.80633342e-01
      2.59547442e-01 3.94994110e-01 1.42202735e-01 -2.22491808e-02
      4.02815267e-02 5.20766340e-02 -1.54549822e-01 -1.22494951e-01
      -4.00885463e-01 -2.54718423e-01 -4.69791852e-02 1.07446782e-01
      1.04318224e-01 8.58888309e-03 3.38067025e-01 1.42637253e-01
      -3.21833827e-02 -4.77576628e-02 -8.41855705e-02 -4.77797627e-01
      -2.52516747e-01 -3.84493023e-02 -4.17334288e-02 2.62391627e-01
      4.22131449e-01 2.65392154e-01 3.90821755e-01 1.12346984e-01
      2.17414558e-01 -1.00679785e-01 -3.34380597e-01 -1.37939826e-01
      -3.94492120e-01 1.77327439e-01 1.24307938e-01 2.05814809e-01
      9.39398035e-02 3.57870191e-01 2.09922388e-01 -1.00811712e-01</_>
    <_>
      3.27543646e-01 -2.49340683e-01 1.03823943e-02 -1.71701089e-01
      2.42912900e-02 -1.56840101e-01 -2.25440428e-01 1.36779174e-01
      3.99052650e-01 -1.93887293e-01 -6.33332372e-01 -1.15761466e-01
      2.79998690e-01 1.15673614e+00 4.13305074e-01 -1.50098437e-02
      6.36496693e-02 1.40656129e-01 1.40917173e-03 -1.38781011e-01
      -1.29714385e-01 1.45961463e-01 1.82269290e-01 3.02501265e-02
      -3.45139146e-01 1.33704860e-02 4.72423024e-02 1.31939679e-01
      8.84269103e-02 -1.87063023e-01 1.31623939e-01 -3.26572180e-01
      4.79186000e-03 2.97057271e-01 2.18649164e-01 1.57352269e-03
      -4.71045792e-01 -5.52455038e-02 3.05292368e-01 3.21291476e-01
      4.26799029e-01 4.05917138e-01 1.10305652e-01 -2.11326912e-01
      -3.67494762e-01 -5.17638326e-02 6.87787980e-02 2.49983266e-01
      3.52336377e-01 1.33457020e-01 2.05322146e-01 -8.69476330e-03
      -3.16530198e-01 -3.11412781e-01 2.96441652e-02 -1.75112516e-01
      1.56784579e-01 -1.65927615e-02 -1.84981391e-01 1.53022051e-01
      2.58607179e-01 8.58926848e-02 8.76564234e-02 -5.53490281e-01
      -8.54975954e-02 3.73344421e-01 4.19130862e-01 -2.47793227e-01
      1.89853355e-01 3.60076666e-01 -5.85635863e-02 -3.97153765e-01
      -4.53364134e-01 -4.18119431e-01 -3.08000237e-01 8.28183740e-02
      2.13207565e-02 4.06609714e-01 5.55816889e-01 5.68502843e-01
      -2.71502793e-01 -1.25619188e-01 2.26966441e-01 4.24576774e-02
      -4.22064848e-02 1.92923307e-01 4.04267043e-01 2.25683570e-01
      -6.29952503e-03 -1.05658114e-01 -1.87991112e-01 -1.16751850e-01
      -4.61965464e-02 -2.43569106e-01 -5.16529500e-01 1.12867638e-01
      3.84812772e-01 2.84048557e-01 -1.20391846e-01 -4.63967592e-01
      1.07571311e-01 7.40805387e-01 9.50607479e-01 7.03111067e-02
      -6.97093382e-02 -3.62090468e-01 -3.76522422e-01 -9.82383192e-01
      1.01409011e-01 -6.10494539e-02 -3.46287221e-01 -3.84259909e-01
      -2.17071503e-01 7.44727720e-03 -9.98593345e-02 -1.10255241e-01
      5.00873178e-02 -1.72267422e-01 5.58393113e-02 -7.56229907e-02
      -8.22687745e-02 1.27723143e-02 2.88968951e-01 2.18100414e-01
      1.68940220e-02 -6.44243285e-02 1.96202010e-01 3.89092192e-02
      -2.74051636e-01 -4.22736764e-01 -3.49372894e-01 2.08457261e-02
      7.67066404e-02 5.30116260e-01 5.39084435e-01 3.86166364e-01
      2.43635746e-04 -2.83419490e-02 4.84054349e-02 -4.26476806e-01
      -3.02642941e-01 -2.86599100e-01 -2.01813266e-01 1.11648664e-01</_>
    <_>
      1.72508344e-01 -2.32350558e-01 3.36306505e-02 5.09663641e-01
      4.67773736e-01 8.84661913e-01 4.10829753e-01 -2.66020983e-01
      4.62231070e-01 -1.81373715e-01 -2.74667004e-03 2.72375822e-01
      2.25117683e-01 1.21518421e+00 8.67420733e-01 2.95011610e-01
      -4.85715754e-02 -3.38327765e-01 2.71652937e-01 3.09874803e-01
      5.49762957e-02 8.50258470e-02 3.48876446e-01 5.64327002e-01
      -3.76410663e-01 -2.18480319e-01 -7.93439150e-03 1.04405925e-01
      -7.25345919e-03 -5.81930242e-02 1.24520607e-01 -3.98150459e-02
      1.07498802e-01 7.28351399e-02 3.23719770e-01 -2.48906851e-01
      -1.54792786e-01 -6.39778733e-01 2.55071875e-02 2.48834230e-02
      5.24670817e-02 4.79381055e-01 3.88520181e-01 2.28459567e-01
      2.29112595e-01 1.09494172e-01 5.25403678e-01 7.05521882e-01
      3.36984336e-01 2.26321936e-01 -1.07492700e-01 3.06236774e-01
      -3.59617680e-01 -1.02897502e-01 1.86658874e-01 2.82892585e-01
      -9.98217463e-02 -9.11644697e-02 8.27847142e-03 1.09034739e-01
      3.89327437e-01 -3.96828234e-01 4.71290380e-01 -1.99123725e-01
      -1.08504854e-02 4.13589329e-01 9.05991420e-02 1.89186558e-01
      -1.59200862e-01 7.43790567e-02 -5.62142432e-01 -1.48454949e-01
      3.63512397e-01 -1.25052854e-01 -5.30472733e-02 -7.27041245e-01
      -1.96695477e-01 4.05732214e-01 1.78637221e-01 2.46296123e-01
      2.33602062e-01 8.81384254e-01 1.20463479e+00 6.77796662e-01
      -3.47314298e-01 -4.25582796e-01 -4.71984357e-01 -5.68759143e-01
      -6.29539073e-01 5.43214977e-01 4.86803092e-02 -2.37392485e-01
      2.47375250e-01 -1.22501828e-01 2.58628339e-01 2.39178687e-01
      2.05195695e-01 -8.62485394e-02 -7.23816901e-02 1.18586104e-02
      2.27300659e-01 7.21437708e-02 2.37310201e-01 -3.71694207e-01
      -1.69749811e-01 6.28084838e-02 3.90170775e-02 -8.09945464e-02
      2.15930477e-01 -3.30519676e-01 -1.05573542e-01 -1.27936661e+00
      -2.32372686e-01 -2.39847451e-02 3.09452593e-01 2.78550476e-01
      4.99425046e-02 3.29892486e-02 7.80404210e-01 7.48550057e-01
      -4.14499849e-01 -1.40344572e+00 -3.40299122e-02 -6.43304586e-02
      -9.49903876e-02 2.91719079e-01 -8.70709643e-02 1.03131108e-01
      5.13595879e-01 -2.07794219e-01 -2.58647323e-01 2.59519637e-01
      3.03096354e-01 -5.00367694e-02 -5.23068607e-02 -9.53001380e-02
      2.89066285e-01 5.72310537e-02 3.20210338e-01 1.18563883e-01
      2.53697112e-02 -8.25367421e-02 -2.41673943e-02 1.57453030e-01</_>
    <_>
      -1.94681417e-02 -1.59503236e-01 1.44600227e-01 4.53224450e-01
      2.48423830e-01 2.31580302e-01 9.17220786e-02 8.19264562e-04
      2.21432522e-01 -1.80422381e-01 -2.65822291e-01 -2.01316044e-01
      2.34214187e-01 6.26660943e-01 4.14846152e-01 2.56294250e-01
      1.34331122e-01 3.38289374e-03 -1.15632311e-01 -1.62989029e-03
      3.76782343e-02 3.21766317e-01 7.07011282e-01 5.56160092e-01
      -7.74331689e-02 -1.41201779e-01 -2.24323913e-01 1.28013596e-01
      1.53835252e-01 6.75207078e-02 1.61374375e-01 1.45732686e-01
      1.11860812e-01 -2.34414428e-01 -5.14844246e-02 5.06704822e-02
      -3.53828698e-01 -3.09183389e-01 -8.24628845e-02 2.55881697e-01
      3.65716368e-01 2.31991276e-01 1.52069449e-01 1.94556430e-01
      -9.54309329e-02 -2.30911285e-01 -1.98122501e-01 -9.24896169e-03
      1.08558401e-01 2.68235534e-01 2.61007518e-01 1.91363737e-01
      3.23729888e-02 -1.25592004e-03 -2.17725128e-01 -1.88584372e-01
      -1.44500155e-02 1.10841900e-01 2.94783801e-01 3.32890630e-01
      -7.24347085e-02 -1.83979809e-01 -1.18831009e-01 -5.32750525e-02
      -3.33346538e-02 2.18149558e-01 1.80172071e-01 -2.40324568e-02
      -1.12004168e-01 -1.04927726e-01 -1.25974208e-01 -6.42733695e-03
      -1.92965660e-02 -4.70069349e-02 -2.37934202e-01 -1.33223146e-01
      1.06549732e-01 2.73296952e-01 3.87415051e-01 3.49639803e-01
      1.01426765e-02 1.49030179e-01 1.82596937e-01 -5.30714951e-02
      -1.64702743e-01 -1.79792166e-01 5.70902191e-02 1.24741979e-01
      -8.87259394e-02 1.78545490e-02 -2.05179118e-03 -1.37954637e-01
      8.90894160e-02 -8.66440532e-04 -1.28227711e-01 6.08898066e-02
      5.83139360e-02 -4.53468859e-02 -7.23481402e-02 -4.88532968e-02
      2.49590948e-01 2.14753449e-01 3.00552882e-02 -1.62966520e-01
      -7.48558640e-02 -9.95377675e-02 -6.47663465e-03 3.35188583e-02
      7.16681033e-02 -5.79969771e-02 -8.70966539e-02 -6.23474494e-02
      3.14584151e-02 -6.35738149e-02 2.06390694e-01 1.88536197e-01
      3.29024121e-02 -2.65489588e-03 1.86934248e-01 6.41367957e-02
      -3.70612480e-02 -1.93590760e-01 -1.62749976e-01 -1.92481413e-01
      -9.23987627e-02 1.30991772e-01 5.00242375e-02 8.06621984e-02
      1.30059877e-02 -2.70603269e-01 -2.76324451e-01 -9.50983632e-03
      -6.14294223e-02 4.94510978e-02 1.39765546e-01 1.70157686e-01
      1.85273111e-01 3.14136669e-02 -9.43795592e-02 -2.87647545e-01
      -5.99540444e-03 -1.56538077e-02 8.71633962e-02 1.87489524e-01</_>
    <_>
      -3.01500827e-01 -1.48030743e-01 9.67845619e-02 -3.08260083e-01
      1.35040194e-01 -2.13916481e-01 -9.84751359e-02 3.09820950e-01
      5.24142273e-02 4.38377038e-02 -1.52911320e-01 1.38876471e-03
      3.97384763e-01 3.66216809e-01 -1.67735234e-01 4.08574231e-02
      -4.34541762e-01 1.92942515e-01 1.29056960e-01 -7.84648657e-02
      -4.87102151e-01 1.44823119e-01 -1.28138706e-01 -1.40428916e-01
      -2.52527446e-01 -7.06773326e-02 -2.82536298e-02 3.61702681e-01
      -2.03477979e-01 1.42768472e-02 3.19678664e-01 1.78642422e-01
      6.42819628e-02 1.33931607e-01 5.77610359e-02 6.90500736e-02
      8.12127888e-02 -1.56882763e-01 2.88753301e-01 2.11269870e-01
      -3.24047357e-01 -1.64262161e-01 1.04698613e-01 2.01223150e-01
      5.58693171e-01 7.48210251e-02 3.63751680e-01 3.10190409e-01
      2.30562925e-01 -6.77345619e-02 1.35493781e-02 -5.03245629e-02
      9.22093391e-02 -4.25382674e-01 -8.33241418e-02 -5.93034029e-01
      1.01790041e-01 -2.48190090e-01 1.32997796e-01 4.99934584e-01
      2.58090109e-01 8.75409544e-01 3.63464922e-01 -9.70876515e-01
      -3.53080690e-01 5.81078947e-01 7.58361936e-01 6.58711910e-01
      1.17500722e-01 -1.98574662e-02 2.58949429e-01 -6.49628758e-01
      3.04224491e-01 2.87246287e-01 -3.78808618e-01 -2.99883604e-01
      -2.43755192e-01 3.85558046e-02 -1.19440228e-01 1.23174757e-01
      3.05985868e-01 -2.51908034e-01 1.78730905e-01 7.65252590e-01
      7.80815259e-02 1.54386267e-01 3.92363608e-01 -3.30440998e-01
      4.89662774e-02 -1.62796408e-01 -4.86472547e-02 -1.51435614e-01
      -2.76217043e-01 -3.96325476e-02 1.44861341e-01 2.93477923e-01
      5.23479640e-01 6.68491960e-01 2.31519327e-01 -5.33467114e-01
      -3.23002517e-01 4.90544617e-01 6.67019963e-01 1.47172481e-01
      1.08478338e-01 2.64261812e-01 -2.15768248e-01 -9.66864109e-01
      1.33023739e-01 1.87706083e-01 -3.95902842e-02 -2.91139424e-01
      -2.09262669e-01 -2.85190552e-01 9.11944881e-02 -9.26741362e-02
      2.15608984e-01 -4.81746316e-01 -7.87993968e-02 7.03354895e-01
      3.93136412e-01 -4.07375604e-01 2.62499731e-02 1.80037320e-01
      3.45060140e-01 -3.01018238e-01 2.37635627e-01 1.45125791e-01
      -3.36749524e-01 -1.19519167e-01 -3.99119973e-01 -3.13887239e-01
      2.07115918e-01 7.18906343e-01 7.13314593e-01 3.88043851e-01
      2.57928759e-01 -1.62375093e-01 -2.78479040e-01 -4.13682789e-01
      -1.33915171e-01 3.44487518e-01 9.93135199e-03 3.69844735e-01</_>
    <_>
      -8.71087760e-02 -5.32117844e-01 -2.41839401e-02 -2.33071536e-01
      5.18486738e-01 6.88836038e-01 3.08914214e-01 5.76581240e-01
      8.33417296e-01 5.02948388e-02 -4.12038028e-01 -5.50100446e-01
      8.73544365e-02 1.28524446e+00 4.58378881e-01 -1.46735236e-01
      3.61087807e-02 2.92900294e-01 -1.53305996e-02 -2.84972191e-01
      -5.84133327e-01 6.18965626e-01 1.31857181e+00 2.96734393e-01
      -5.85875452e-01 1.97369918e-01 3.07481885e-01 7.41479397e-02
      5.00292936e-03 -1.90038517e-01 7.26228237e-01 4.34277654e-01
      2.07054809e-01 1.79097444e-01 2.35016411e-03 1.78437331e-04
      -2.78242320e-01 -5.98136604e-01 -1.09068818e-01 5.15191071e-02
      1.29645646e-01 8.41382816e-02 9.82861817e-02 -3.18740636e-01
      -1.16645411e-01 1.34093523e-01 2.86869228e-01 4.54818189e-01
      6.81579888e-01 2.81086653e-01 -3.34073424e-01 -7.80088723e-01
      -1.06617773e+00 -5.47620237e-01 -2.12132961e-01 -1.05497217e+00
      -3.60539198e-01 -1.50892466e-01 4.91236508e-01 5.79123259e-01
      3.59730929e-01 6.08039618e-01 2.51014322e-01 -3.54279935e-01
      -2.94276208e-01 5.10606647e-01 4.50212598e-01 -9.77394134e-02
      2.21449196e-01 -3.93928260e-01 -2.27037951e-01 -3.49172622e-01
      1.00954652e-01 -3.84247869e-01 -1.81697890e-01 -2.36734644e-01
      -8.73968229e-02 9.20343474e-02 1.88576207e-01 2.09977522e-01
      2.82334685e-01 8.69805142e-02 1.54438078e-01 -1.68528467e-01
      -2.33431414e-01 -5.56371987e-01 -1.45528689e-01 -9.88446921e-03
      -1.83979973e-01 -1.36404976e-01 -5.73921688e-02 -1.57012671e-01
      -6.92440197e-02 -2.60191262e-01 -3.98627430e-01 1.07965030e-01
      3.25031698e-01 2.56143719e-01 -2.14968860e-01 -2.48940840e-01
      2.13335559e-01 3.81211847e-01 4.18624878e-01 -5.27338445e-01
      -3.74195874e-01 -4.26146448e-01 -2.17689887e-01 -5.56369960e-01
      6.72181174e-02 6.05902541e-03 -2.08049431e-01 -3.62013578e-01
      1.39774665e-01 -2.67357826e-01 -1.50767207e-01 -2.03140676e-01
      -3.28023642e-01 -2.40990773e-01 -4.85403925e-01 -3.69074285e-01
      -4.44285721e-01 -1.32946432e-01 1.54508114e-01 -8.25496018e-02
      3.62807751e-01 3.91651362e-01 3.12170297e-01 6.69071496e-01
      -5.42777777e-01 -5.62063158e-01 -5.82293928e-01 -1.24021888e-01
      -3.17876935e-01 1.68890618e-02 6.03476763e-01 2.46631578e-01
      -8.75163600e-02 1.45341530e-01 -3.25217217e-01 -1.42029926e-01
      1.32110521e-01 -8.25064331e-02 -1.03968726e-02 -1.00319058e-01</_>
    <_>
      2.96459883e-01 -1.37691855e-01 -1.56858847e-01 2.24079847e-01
      2.74498165e-01 5.15901089e-01 4.10300344e-01 5.68528295e-01
      6.22499466e-01 -2.52061427e-01 -2.13848844e-01 7.42991641e-02
      2.63430148e-01 1.22411323e+00 3.42874885e-01 -2.59540409e-01
      -2.78683126e-01 -1.48505885e-02 4.72486652e-02 -3.56665030e-02
      2.71395653e-01 2.99296409e-01 2.49033615e-01 -1.20889880e-01
      -5.08205175e-01 -2.22865671e-01 -1.00807995e-01 4.81576892e-04
      -3.00816000e-01 7.68989623e-02 3.58642638e-01 7.50034973e-02
      -4.04572301e-03 6.34777322e-02 5.18495202e-01 1.83862358e-01
      -1.20861679e-01 -8.02735329e-01 -3.65720749e-01 1.64513275e-01
      4.00446691e-02 6.08649731e-01 3.88284743e-01 4.52725083e-01
      3.06927115e-01 4.53528874e-02 8.74445289e-02 8.97258595e-02
      5.24275899e-01 2.08931491e-01 -4.32458781e-02 -1.57097816e-01
      -3.47659498e-01 -2.18021423e-01 3.72134626e-01 1.80525184e-01
      2.36783192e-01 1.88755482e-01 -9.86675266e-03 -1.70536116e-01
      -1.01681978e-01 1.72338977e-01 2.92663455e-01 -3.61530602e-01
      1.03606991e-01 2.69271970e-01 7.11776257e-01 4.67466205e-01
      1.60086006e-01 7.00215548e-02 1.86931029e-01 -9.82930809e-02
      3.70931923e-01 1.90939561e-01 -6.34314716e-02 -2.60053813e-01
      -1.45946383e-01 -3.05381298e-01 9.27308574e-02 -6.85035139e-02
      3.01802754e-01 9.55325887e-02 2.71992207e-01 2.69738048e-01
      -9.16593075e-02 -1.05179638e-01 2.22293869e-01 -3.95296738e-02
      -7.52755180e-02 -2.74687689e-02 -1.46591499e-01 -2.79106259e-01
      -4.75302599e-02 -8.34630281e-02 -1.42027035e-01 3.20716828e-01
      3.83688748e-01 5.57486892e-01 3.12032282e-01 -2.74381250e-01
      3.69826227e-01 3.98974538e-01 8.91189098e-01 1.49127558e-01
      -1.65454194e-01 -3.49034250e-01 -2.43757591e-01 -5.68803310e-01
      2.44403258e-01 6.65220171e-02 -1.01108442e-03 -9.95966122e-02
      -2.11520970e-01 -2.34659016e-01 -3.62996131e-01 -2.10375879e-02
      7.55860424e-03 -2.83541620e-01 3.35644156e-01 3.26610684e-01
      -2.01406237e-02 4.17850725e-02 4.69468623e-01 8.12428594e-02
      -1.86743334e-01 -2.64469802e-01 -1.20856740e-01 4.68006551e-01
      5.12891561e-02 -8.87767746e-05 5.92550188e-02 1.41558141e-01
      5.33020318e-01 2.67616332e-01 4.31939423e-01 7.90126920e-02
      1.00867279e-01 4.32623059e-01 1.66352332e-01 -7.43944570e-02
      -8.04653540e-02 -9.82296616e-02 -2.08327621e-01 4.29638743e-01</_>
    <_>
      -9.26616117e-02 -5.32197133e-02 1.57648832e-01 2.29803890e-01
      -6.85229897e-02 1.69122800e-01 1.49005800e-01 1.17825486e-01
      -2.00998098e-01 -2.82324813e-02 3.39269996e-01 3.20566982e-01
      -1.35376798e-02 -7.54977688e-02 -1.22171767e-01 8.45387671e-03
      7.28107942e-03 -3.36472481e-01 7.18385354e-02 4.45410460e-02
      1.20017424e-01 -3.12925965e-01 4.17720601e-02 3.50100577e-01
      1.38732031e-01 7.02626258e-02 3.73641998e-02 -3.66281599e-01
      3.00931570e-04 -6.80119023e-02 -2.44996145e-01 1.50813192e-01
      -1.82645857e-01 -2.03490347e-01 -1.96672976e-01 -3.99630696e-01
      1.54272038e-02 -8.84215534e-02 -2.29014188e-01 -3.98061454e-01
      -1.59902900e-01 2.67076585e-02 1.22520834e-01 2.00372875e-01
      5.16362369e-01 5.44056855e-02 2.37288430e-01 -9.72944498e-02
      -3.37660313e-01 4.74574938e-02 -4.93162088e-02 1.66041568e-01
      -1.33655980e-01 -2.29161829e-02 -1.07285306e-02 2.42806420e-01
      3.16923000e-02 5.85446432e-02 4.25552398e-01 -1.29932314e-01
      -5.02617434e-02 -1.53396919e-01 -7.39990622e-02 1.51950642e-01
      1.32544011e-01 -6.35646656e-02 -2.94074208e-01 5.04719317e-02
      -3.43171865e-01 -3.23138088e-01 -8.24734122e-02 1.41761184e-01
      5.89630544e-01 2.29040802e-01 6.79476932e-02 -4.05164123e-01
      -3.51645678e-01 -2.16878881e-03 1.18808389e-01 -2.86218375e-01
      5.65230250e-01 4.31641310e-01 5.43113053e-01 2.31562585e-01
      -3.25315297e-01 -3.43083858e-01 -3.36302698e-01 -5.35843194e-01
      -5.90472706e-02 1.57806367e-01 -9.14934278e-02 1.59781873e-01
      3.33196819e-01 4.52623904e-01 3.10142159e-01 -2.00753585e-01
      -2.90029138e-01 -1.97387367e-01 -3.13165605e-01 1.88869357e-01
      -2.87086785e-01 -4.67790306e-01 -7.04213977e-01 -2.05993786e-01
      1.25258863e-01 2.94767648e-01 3.89634728e-01 5.45738697e-01
      -1.03452280e-01 -1.61058560e-01 -7.24708065e-02 -3.55783314e-01
      1.22781478e-01 -1.90137446e-01 1.74149886e-01 3.37037146e-01
      -1.39994159e-01 4.97527152e-01 2.46199086e-01 1.72122210e-01
      -2.53807336e-01 -5.50780237e-01 3.39930467e-02 -2.66219050e-01
      -1.21068232e-01 3.76050442e-01 2.75191814e-02 1.51140362e-01
      3.70743930e-01 3.66206497e-01 -1.82321504e-01 -1.08129993e-01
      -2.31175512e-01 -2.83820808e-01 -1.55274481e-01 -1.37207404e-01
      -1.42069138e-03 -3.03343058e-01 2.64302045e-01 6.00421309e-01
      1.54899314e-01 1.32172734e-01 9.77754071e-02 -1.06745072e-01</_>
    <_>
      4.24030334e-01 -1.82576016e-01 1.62050739e-01 4.30070996e-01
      1.39670774e-01 6.36706352e-02 5.90127558e-02 2.19001696e-02
      3.28551114e-01 4.61900607e-02 4.15872663e-01 -1.78267971e-01
      1.50331795e-01 4.86969538e-02 5.70649952e-02 9.69465002e-02
      -3.12140817e-03 -3.31154138e-01 -2.21144721e-01 3.84474848e-03
      8.66174139e-03 6.53802827e-02 6.55776024e-01 4.12089735e-01
      3.66458505e-01 3.46679360e-01 -1.94408506e-01 -1.58858430e-02
      -9.98319611e-02 2.53779829e-01 -3.15198340e-02 2.96052277e-01
      3.69436480e-02 -1.08909681e-01 -1.28525764e-01 2.54249554e-02
      -3.33727062e-01 -2.96001673e-01 -1.95656583e-01 3.28914076e-01
      5.21405637e-01 6.30416274e-01 5.37315104e-03 9.90689546e-02
      1.13799818e-01 -2.27957383e-01 -8.67523476e-02 -1.27631441e-01
      -8.25104117e-02 4.37479883e-01 2.56436229e-01 3.22704539e-02
      2.85315573e-01 7.83934519e-02 -1.66641355e-01 -8.80442262e-02
      -1.12160794e-01 2.78849334e-01 4.05157894e-01 1.90281332e-01
      -3.98020707e-02 1.82966471e-01 -1.43312126e-01 3.24393779e-01
      5.56086779e-01 3.77400070e-01 1.32971197e-01 -2.66970277e-01
      -5.54661870e-01 -5.65542102e-01 -1.90999061e-01 4.40035164e-01
      2.74373919e-01 2.73685940e-02 -2.30504833e-02 -3.53674918e-01
      1.86365563e-02 6.28447890e-01 1.48316443e-01 9.16382000e-02
      2.69055795e-02 2.11061507e-01 -1.03742694e-02 -2.72707827e-02
      -4.81527239e-01 -4.25774634e-01 6.32542670e-02 -2.42988899e-01
      -2.22955290e-02 3.58719677e-01 5.77508956e-02 -1.84026539e-01
      2.24777833e-01 4.22772795e-01 2.67263681e-01 1.05110772e-01
      -2.16328174e-01 1.15096636e-01 3.77140194e-02 2.64229506e-01
      1.71653911e-01 -2.00332567e-01 -6.24087811e-01 -5.76855719e-01
      -1.06337227e-01 3.02982833e-02 2.96094924e-01 8.75754833e-01
      -1.04237139e-01 1.40446022e-01 -3.85702401e-02 -4.80999760e-02
      2.20137835e-01 -4.49632585e-01 -1.40274167e-02 2.09491834e-01
      -3.58247720e-02 3.50736290e-01 7.31799603e-02 -3.05533350e-01
      1.49877602e-02 -3.79199058e-01 -3.06050450e-01 -5.73207319e-01
      -5.97159266e-01 1.96892619e-01 3.29056047e-02 -1.02045462e-01
      -5.42532802e-02 2.62841642e-01 2.81898886e-01 1.96871340e-01
      5.74267916e-02 -2.82772362e-01 4.93268622e-03 1.66702688e-01
      -2.52286494e-01 -3.64549458e-02 -8.53563994e-02 1.18583895e-01
      1.33584261e-01 -8.56675953e-02 1.52446821e-01 2.91844189e-01</_>
    <_>
      -2.73289084e-01 4.18776929e-01 2.70498693e-01 2.15363994e-01
      -2.80025154e-02 -1.10807575e-01 -1.79792762e-01 -1.23362631e-01
      -4.50744629e-01 2.95690030e-01 1.65196642e-01 3.70266795e-01
      -2.45524824e-01 -7.78108060e-01 -4.78935957e-01 -6.97754100e-02
      -3.89937848e-01 1.48182794e-01 -5.18422425e-01 1.35678947e-01
      -2.38421068e-01 -4.03722286e-01 -2.75473922e-01 3.24264169e-01
      5.85755825e-01 2.01261967e-01 -9.27972645e-02 1.46761537e-01
      7.17294589e-02 3.93469274e-01 5.22287674e-02 1.95510477e-01
      -2.21445523e-02 -1.74040779e-01 -6.44712567e-01 9.77449492e-02
      5.89542150e-01 2.87149787e-01 -9.24985334e-02 -5.97861111e-01
      -5.46395242e-01 -7.91794062e-01 -4.09630865e-01 1.56518579e-01
      8.60687077e-01 3.46602142e-01 1.20814435e-01 -3.35093081e-01
      -4.05354679e-01 -4.14272904e-01 -4.64193046e-01 -3.46021876e-02
      5.36210120e-01 1.79848924e-01 -2.98415571e-01 -5.04764676e-01
      -3.12032640e-01 -2.81807091e-02 4.34716374e-01 6.49152219e-01
      4.72425848e-01 4.27610874e-01 1.06873356e-01 -4.08220530e-01
      2.15022326e-01 1.20582074e-01 6.55090250e-03 9.91785228e-01
      -2.11766228e-01 -5.95759675e-02 5.45647144e-01 -1.27832294e-01
      7.07944274e-01 9.66957271e-01 8.28647763e-02 -5.87091327e-01
      -5.49343944e-01 -4.81833458e-01 -6.22836590e-01 -2.59254992e-01
      3.14958662e-01 1.76794082e-01 1.57299042e-01 2.38625452e-01
      5.91161214e-02 -1.02795407e-01 -3.06929141e-01 -4.55959171e-01
      -4.35076028e-01 -4.52119589e-01 3.15518142e-03 -6.17279187e-02
      -3.68529633e-02 2.01806009e-01 6.73165083e-01 3.53910327e-01
      -8.98686573e-02 1.67055398e-01 1.89302176e-01 6.97158948e-02
      -6.94474876e-02 -4.40037936e-01 -9.00435895e-02 4.91880864e-01
      8.01841095e-02 1.49483427e-01 1.45847961e-01 -3.85753438e-02
      -2.76938438e-01 -9.96938050e-02 7.28324875e-02 8.00025687e-02
      1.66190833e-01 -8.77418220e-02 2.66138405e-01 8.86490196e-02
      -1.01182327e-01 -1.93643570e-01 -2.56702155e-01 2.94852674e-01
      8.13999400e-02 -1.44333839e-01 -1.34287700e-01 -1.01358116e-01
      -8.03620964e-02 2.12225132e-02 9.98921618e-02 3.40666529e-03
      -1.95034176e-01 1.79441154e-01 1.67917803e-01 -7.27176666e-02
      -2.15432748e-01 4.18312363e-02 1.13552948e-03 1.58361927e-01
      2.12180316e-01 6.14042357e-02 5.37905237e-03 2.07090035e-01
      3.27266842e-01 2.07429379e-01 9.38065127e-02 3.51138487e-02</_>
    <_>
      2.00418979e-01 1.42196834e-01 4.44698602e-01 -1.22175470e-01
      2.75154889e-01 3.97363156e-01 5.98847032e-01 2.04582870e-01
      -2.08400369e-01 4.73263383e-01 1.18908100e-01 -5.19202314e-02
      -1.16375603e-01 -2.47560386e-02 -3.45293164e-01 -1.79028749e-01
      -3.42197746e-01 -2.20045790e-01 2.78167780e-02 1.76363230e-01
      -4.68723595e-01 -1.58907473e-02 5.72754741e-01 5.28690994e-01
      4.60926861e-01 5.73122084e-01 3.58497500e-01 -4.39946890e-01
      1.67142022e-02 1.33436325e-03 3.79011035e-01 1.03783298e+00
      4.32375073e-01 -4.19138551e-01 -2.20743626e-01 -3.57623994e-01
      2.27809519e-01 -3.77528697e-01 -5.83919883e-01 -4.15083170e-01
      -1.68259367e-01 5.30793071e-01 3.13323557e-01 3.12815279e-01
      2.52324939e-01 1.63190231e-01 4.38837349e-01 -3.69879231e-02
      -1.77853122e-01 -1.97640255e-01 -4.49996948e-01 -3.32830012e-01
      -6.00204289e-01 -2.37900183e-01 -3.62383217e-01 -3.15742433e-01
      -3.05011600e-01 -1.84274971e-01 7.91077852e-01 4.67895895e-01
      1.69394433e-01 6.52688518e-02 -9.08294395e-02 2.13898808e-01
      1.38748080e-01 4.39585477e-01 -5.57514548e-01 -1.96885690e-01
      -3.75832438e-01 -1.06770241e+00 -3.09540510e-01 8.56635720e-02
      6.68595016e-01 5.13174355e-01 2.28199854e-01 -3.75369489e-01
      -2.81438082e-01 -1.37936890e-01 -3.29119802e-01 -4.36845809e-01
      6.65193647e-02 4.12457258e-01 1.15177907e-01 -2.41315275e-01
      -3.35498989e-01 -3.46245497e-01 -3.34219754e-01 -2.16632903e-01
      -2.83998579e-01 -5.13492785e-02 -3.52337599e-01 2.00395852e-01
      1.44853815e-01 2.59626985e-01 2.49235854e-01 3.73255670e-01
      -3.55214536e-01 -3.17451060e-01 -1.98144719e-01 3.07470053e-01
      -1.28442934e-02 -6.92100346e-01 -9.74688172e-01 -7.75904775e-01
      -1.45399943e-01 -2.73583293e-01 1.51320115e-01 1.99933335e-01
      -1.28170714e-01 1.40536010e-01 7.11511225e-02 1.42040834e-01
      3.26676041e-01 -5.43984830e-01 -3.78253818e-01 -3.49690199e-01
      -7.06523210e-02 1.76837757e-01 -5.22918880e-01 -5.49438238e-01
      -4.63172883e-01 -2.74907857e-01 -1.21430524e-01 1.71254069e-01
      1.01776958e-01 1.29673481e-01 5.75185239e-01 2.70936906e-01
      -2.20129728e-01 -6.57198811e-03 3.04698169e-01 1.95946675e-02
      -3.03990752e-01 -7.65353262e-01 1.43043846e-01 -1.37163430e-01
      4.22786802e-01 5.22315949e-02 3.12313557e-01 4.14805263e-01
      2.93398082e-01 3.06251850e-02 1.31191149e-01 3.13190892e-02</_>
    <_>
      -1.74726203e-01 9.74538997e-02 1.87361047e-01 8.17689374e-02
      2.22071379e-01 3.95291746e-01 3.93616080e-01 2.99586535e-01
      7.77664259e-02 -1.04370989e-01 3.10777545e-01 -6.23739474e-02
      -2.99130231e-01 2.35041752e-01 -8.98151472e-02 -3.08424324e-01
      -6.57442629e-01 -4.96425718e-01 -2.09986314e-01 5.52845299e-01
      3.67013097e-01 -7.16635883e-02 1.43045023e-01 3.43131900e-01
      9.80262756e-02 1.52083680e-01 1.46920234e-01 -6.52124584e-02
      -2.12778032e-01 2.98423737e-01 2.76871882e-02 3.92950833e-01
      3.35116446e-01 -4.54454422e-01 -5.64557016e-01 -2.85346415e-02
      1.61497653e+00 -2.07955912e-01 -7.61372566e-01 -7.04754591e-01
      -3.45771849e-01 3.81689191e-01 -2.29373068e-01 6.78104281e-01
      1.32714677e+00 5.44218183e-01 1.72376856e-01 -6.77287579e-01
      -4.89524156e-01 2.43927479e-01 -7.47006312e-02 7.71035105e-02
      -2.48978898e-01 3.78749549e-01 -1.91348400e-02 -2.25307822e-01
      -2.19697192e-01 -4.41859812e-01 1.61584631e-01 1.52183712e-01
      -5.46920486e-03 1.29559636e-01 -1.42697632e-01 -2.74679959e-01
      -4.97590378e-02 -2.19593681e-02 1.60083100e-01 4.23021406e-01
      -3.29270512e-01 -2.98835635e-02 2.35539824e-01 1.23445414e-01
      1.20932961e+00 9.60640728e-01 3.00678581e-01 -1.87449589e-01
      -3.00838441e-01 -3.31874907e-01 -6.92805529e-01 -5.37714601e-01
      5.05582631e-01 -3.72851118e-02 1.85048282e-01 3.43912095e-01
      -5.58857381e-01 -1.18613228e-01 -4.89006728e-01 -4.00826693e-01
      1.44041434e-01 2.83667088e-01 -1.89166278e-01 3.01176012e-02
      -2.89269924e-01 2.77857240e-02 7.57214963e-01 2.96412379e-01
      -3.84698287e-02 7.64777124e-01 1.24560989e-01 1.91463958e-02
      1.45543039e-01 -2.81807005e-01 -1.27349630e-01 5.31227887e-01
      2.66228437e-01 -1.43061012e-01 1.71884924e-01 -1.51668072e-01
      -4.30322707e-01 5.01180053e-01 3.77784789e-01 5.37448764e-01
      1.65099651e-02 -1.97373986e-01 -5.81980228e-01 1.32857025e-01
      -1.63492158e-01 -1.49277538e-01 -3.55089605e-02 1.34621978e-01
      2.30367377e-01 7.90915918e-03 -2.19399989e-01 -2.90993243e-01
      -3.14492792e-01 -5.98500311e-01 -4.53887060e-02 -3.08346897e-01
      6.42139494e-01 5.61942279e-01 6.05190158e-01 3.95907134e-01
      -9.23113897e-02 -6.58995986e-01 -5.12335837e-01 -3.09521437e-01
      4.50995825e-02 -2.49350667e-02 4.63916183e-01 2.84609020e-01
      4.03532714e-01 -2.85481036e-01 4.08196747e-01 1.69067800e-01</_>
    <_>
      3.45579326e-01 -2.04518825e-01 1.89661846e-01 8.14909711e-02
      -4.12728749e-02 -1.01238906e-01 6.03088960e-02 2.05268264e-01
      2.67997593e-01 -2.41969123e-01 -1.38769478e-01 -2.76281565e-01
      6.04469001e-01 5.56092203e-01 1.94527119e-01 4.90179241e-01
      2.65227050e-01 -5.00024892e-02 -2.42076501e-01 -9.35891047e-02
      1.30621955e-01 1.30207694e+00 1.08510101e+00 4.53999400e-01
      3.10656548e-01 1.19653575e-01 -3.61745358e-01 1.56822622e-01
      2.17243969e-01 9.51138437e-02 3.19139898e-01 4.17988807e-01
      2.51211375e-01 -1.65215969e-01 -3.58228534e-01 1.81831881e-01
      2.72914972e-02 5.33722825e-02 -2.83098936e-01 4.55137074e-01
      7.75305510e-01 1.62974656e-01 3.08710970e-02 4.25609462e-02
      -7.00155720e-02 -9.41723809e-02 -3.57906222e-01 -1.61555022e-01
      1.22802015e-02 3.51689458e-01 4.00086224e-01 3.39163452e-01
      2.90436983e-01 1.60377085e-01 -6.67433262e-01 -4.19663966e-01
      -2.62176335e-01 2.92453289e-01 3.51731002e-01 7.26011157e-01
      1.11824691e-01 -1.89689249e-01 -1.68431759e-01 1.42889783e-01
      -2.25130692e-02 4.17096257e-01 3.71668816e-01 1.50056006e-02
      -3.64141047e-01 -2.69976795e-01 -3.94382507e-01 2.54509002e-01
      -8.68345201e-02 -1.38476655e-01 -1.55163452e-01 3.50639671e-01
      3.85650039e-01 -4.61644551e-04 1.29688263e-01 4.81832810e-02
      -1.00543164e-01 1.26895487e-01 -2.02115579e-03 -1.21274710e-01
      3.85626070e-02 1.00855298e-01 3.07892382e-01 2.29700387e-01
      1.85025319e-01 -3.07626337e-01 2.24105082e-02 4.64507788e-02
      -4.36182141e-01 -4.55430686e-01 4.55389582e-02 3.69990677e-01
      2.12527588e-01 7.33621493e-02 1.23005576e-01 -2.16176286e-01
      4.14153188e-01 4.15747911e-01 -2.26564214e-01 -1.41784057e-01
      -1.90007940e-01 -2.24736184e-01 1.02956228e-01 6.67994842e-02
      1.80803522e-01 -3.24901678e-02 5.71163446e-02 2.02152818e-01
      -4.61104186e-03 1.83091193e-01 2.49211624e-01 1.86651740e-02
      2.47031167e-01 -2.00479180e-01 1.63322255e-01 -1.35536224e-01
      4.50724423e-01 2.11268634e-01 -2.31490642e-01 -2.12355703e-01
      -4.31636095e-01 9.17447135e-02 -1.34719104e-01 7.11278021e-02
      -2.13523105e-01 -6.31651342e-01 1.05710253e-01 2.66017944e-01
      4.75190915e-02 -3.56730185e-02 -5.68151101e-02 3.95978123e-01
      5.35887070e-02 -3.96911316e-02 -5.38998246e-01 -5.60284376e-01
      1.78554416e-01 1.10690795e-01 3.06826681e-01 1.17636122e-01</_>
    <_>
      2.13658020e-01 -8.35331529e-02 -2.58621246e-01 -1.64991349e-01
      -1.22439988e-01 -4.39975560e-01 -2.87660182e-01 8.24928191e-03
      1.32028446e-01 2.19970476e-02 -2.56427992e-02 -9.43810716e-02
      -1.26991838e-01 -3.82609129e-01 -2.98855096e-01 -1.21946402e-01
      -1.62544716e-02 3.68823498e-01 -2.61744291e-01 -6.81851208e-02
      -8.31006765e-02 5.43733165e-02 -3.01915016e-02 6.12894446e-02
      2.37599742e-02 -1.07725020e-02 -7.65831023e-02 1.89677387e-01
      -1.02227636e-01 1.21226810e-01 -1.05727993e-01 1.91839132e-02
      6.58098757e-02 -1.03134409e-01 1.66128322e-01 2.66921967e-01
      2.26952478e-01 2.17981249e-01 3.60687196e-01 2.66459018e-01
      -2.01910868e-01 -4.65816259e-01 -2.51895487e-01 -4.32438143e-02
      -4.72694309e-03 1.36904180e-01 -1.33545235e-01 -6.57691881e-02
      -7.27997422e-02 -3.10169876e-01 -1.12656325e-01 -4.23184223e-03
      3.55481446e-01 9.02521610e-02 -2.06024170e-01 -3.17124635e-01
      -9.09361802e-03 -2.11135477e-01 -3.07057351e-02 6.68717086e-01
      1.58238411e-01 1.57848805e-01 -6.92547811e-03 -5.16368926e-01
      -1.10149994e-01 1.86421424e-02 3.29965055e-01 4.61163849e-01
      3.97193968e-01 2.20660660e-02 2.77074248e-01 -2.69465744e-01
      -1.13497907e-02 1.18538149e-01 1.32512957e-01 1.31108284e-01
      6.19774014e-02 -3.01409602e-01 -2.63243943e-01 -1.84669234e-02
      -1.92310899e-01 -2.66039133e-01 -5.23610234e-01 -2.24958062e-02
      3.70081574e-01 1.16116904e-01 2.26935029e-01 7.34609216e-02
      2.30523989e-01 -2.76871651e-01 1.80393875e-01 -3.51254940e-01
      -1.28670081e-01 -1.84552521e-01 1.56923801e-01 2.58262455e-01
      3.54416907e-01 3.77589732e-01 1.93522394e-01 -2.85899073e-01
      2.19005376e-01 5.54016352e-01 3.42113763e-01 3.08413923e-01
      -3.78021016e-03 6.97764903e-02 -3.54970038e-01 -5.25468767e-01
      -3.48943211e-02 -7.02458248e-02 1.27873823e-01 3.02434534e-01
      2.31107801e-01 2.94492301e-02 -3.22091654e-02 -2.48005226e-01
      1.84625592e-02 -4.69803840e-01 -3.75505596e-01 -1.33236185e-01
      4.52665836e-01 3.28885704e-01 1.71773717e-01 7.78134391e-02
      1.24099784e-01 -4.77541894e-01 -6.58848807e-02 -2.55737633e-01
      -4.56276000e-01 2.79843528e-02 1.89030349e-01 7.15986490e-02
      7.47490525e-02 2.90109962e-01 2.14595467e-01 1.67626087e-02
      1.60339117e-01 1.52995512e-01 -3.15634310e-01 -3.85813832e-01
      -5.65856770e-02 1.29593641e-01 -2.17213333e-01 -5.24244718e-02</_>
    <_>
      -4.86947931e-02 -1.56894118e-01 -1.15002826e-01 -2.72070616e-01
      1.55312166e-01 2.09585652e-01 -1.69383101e-02 1.68747619e-01
      -1.29963700e-02 3.20329607e-01 -1.31753474e-01 -4.51727480e-01
      -1.09646291e-01 1.10301070e-01 -1.67525932e-01 -1.58341199e-01
      -2.66837794e-02 3.82217556e-01 -7.86255673e-02 -2.71431297e-01
      -6.40856862e-01 8.37302446e-01 9.93265033e-01 4.18372065e-01
      2.15458140e-01 4.78706449e-01 2.10689530e-01 -8.96394774e-02
      1.62095964e-01 5.98552860e-02 4.35979843e-01 6.38230979e-01
      9.62246776e-01 3.08978379e-01 4.14125733e-02 8.08041841e-02
      4.48781461e-01 1.92311287e-01 -3.46453577e-01 -1.06178269e-01
      -7.96321034e-03 1.11184329e-01 -1.81359619e-01 7.92091191e-02
      1.47792146e-01 -4.92196605e-02 -3.00332028e-02 2.98019424e-02
      -5.45524177e-04 -4.46022421e-01 -1.44210294e-01 -5.92833877e-01
      -2.02578809e-02 -6.20830394e-02 -5.45616090e-01 -8.82479787e-01
      -4.20830011e-01 -2.20403835e-01 5.28127789e-01 9.19114649e-01
      2.79313117e-01 3.02064538e-01 -4.18900520e-01 -2.27183804e-01
      1.18665524e-01 3.96968544e-01 3.00276786e-01 -1.44386902e-01
      3.41703631e-02 -1.45361582e-02 -8.06504861e-02 -1.50893077e-01
      -2.39918500e-01 -1.24299221e-01 -1.22598544e-01 1.97331116e-01
      1.46184832e-01 -3.06223541e-01 -4.38607574e-01 -1.17711641e-01
      -2.78260052e-01 -3.68713260e-01 -9.12702382e-01 -6.36210680e-01
      9.30014104e-02 5.30239820e-01 2.61558145e-01 2.52260804e-01
      -2.14748271e-02 -4.68396187e-01 3.33028436e-02 -1.18948907e-01
      -4.39103454e-01 -4.60150868e-01 -2.58086354e-01 4.15771633e-01
      4.08739150e-01 1.94834039e-01 1.55807227e-01 -1.71173573e-01
      3.41935337e-01 2.92759597e-01 -1.03871733e-01 -1.98850080e-01
      -4.01551962e-01 -5.36312163e-01 -7.46244490e-02 8.47010612e-02
      -4.95852269e-02 2.59995788e-01 3.21862817e-01 6.13227606e-01
      1.05792858e-01 -6.28890634e-01 -4.19134259e-01 -5.70445061e-01
      -8.43530744e-02 -1.25852421e-01 -7.05059052e-01 -7.34321415e-01
      -2.08139509e-01 6.08585715e-01 1.72428176e-01 3.96473855e-02
      1.33083522e-01 -4.35664803e-02 -7.56986365e-02 1.34229317e-01
      -5.60171425e-01 -9.22726452e-01 -2.00614538e-02 8.02253708e-02
      -9.86865070e-03 -2.33837292e-01 2.65241712e-01 -2.92275906e-01
      1.08675614e-01 -3.63602519e-01 -3.27846408e-01 -4.18473274e-01
      1.77598029e-01 -1.22091733e-01 -7.30090216e-02 -4.31677908e-01</_>
    <_>
      1.93076089e-01 -1.06496707e-01 -2.47760341e-01 4.24337015e-02
      8.32221434e-02 1.87651590e-02 6.09995145e-03 1.89485848e-01
      3.68090332e-01 1.48717090e-01 -2.07566425e-01 1.14958128e-03
      7.66386539e-02 1.30338445e-01 5.25681255e-03 -3.75081569e-01
      -2.72512466e-01 1.93220034e-01 -8.02535638e-02 -4.06971544e-01
      1.55385420e-01 3.32295179e-01 2.56046563e-01 8.82568136e-02
      -9.24184620e-02 -1.26370177e-01 -2.89196461e-01 3.82501073e-02
      -2.19671756e-01 2.47399285e-01 3.98023248e-01 -5.44096269e-02
      1.92807347e-01 1.31047815e-02 3.94505739e-01 4.12502550e-02
      4.76180971e-01 8.20913911e-02 -1.72617525e-01 -1.49894595e-01
      8.00295547e-02 2.13959828e-01 -3.23915319e-03 -1.09937273e-01
      -5.30851968e-02 7.74649903e-03 -7.31913745e-02 -2.28999123e-01
      -2.90154945e-02 -7.23835155e-02 -1.39004275e-01 -3.02341223e-01
      2.03041695e-02 1.22912064e-01 -1.28672406e-01 -6.01518154e-02
      2.20406920e-01 3.83833796e-02 -2.04242244e-01 8.54723155e-02
      -1.58761606e-01 1.53386399e-01 -1.52305871e-01 -1.21115632e-01
      -1.63298041e-01 -5.63124660e-03 2.24094853e-01 2.69968271e-01
      3.05414647e-01 3.23042184e-01 1.64367914e-01 7.06655756e-02
      1.72473297e-01 2.24304035e-01 3.13564420e-01 1.96835205e-01
      2.64025867e-01 -2.53905207e-01 -5.78652143e-01 -2.18948171e-01
      -1.64193287e-01 -2.81768143e-01 -4.64370370e-01 1.13712177e-01
      1.76583454e-01 4.42486733e-01 2.06201404e-01 3.16421062e-01
      -1.79648295e-01 -5.35860062e-01 6.18750304e-02 -2.63772845e-01
      -4.77698982e-01 -6.02693081e-01 -2.19959587e-01 4.91332829e-01
      8.62069249e-01 6.61558211e-01 3.02317411e-01 -2.53917240e-02
      3.06676745e-01 5.19284427e-01 8.31977904e-01 4.53324378e-01
      -8.57447758e-02 -3.64470661e-01 -6.23174369e-01 -4.94003236e-01
      5.95111586e-02 6.96825862e-01 1.68627307e-01 4.87923563e-01
      3.58493328e-01 -4.39013280e-02 -3.44012558e-01 -3.74738395e-01
      1.04041383e-01 -3.89314353e-01 -1.12621151e-01 3.75041515e-02
      4.05444592e-01 6.96931422e-01 1.08389966e-01 4.43694115e-01
      -1.84183627e-01 -3.44737649e-01 -1.34108454e-01 2.61075467e-01
      -4.38005507e-01 -1.13412984e-01 1.77043602e-01 9.14320797e-02
      7.33141363e-01 1.83574960e-01 6.66458905e-02 2.00896114e-01
      -3.03954870e-01 3.66663218e-01 1.34908371e-02 -8.70754048e-02
      -2.39521533e-01 -3.88067484e-01 -4.15286571e-01 1.26216456e-01</_>
    <_>
      -2.35430449e-01 1.81655120e-02 -5.69676794e-02 -1.68437630e-01
      -2.70796210e-01 -1.16750143e-01 -4.92351726e-02 -4.72847447e-02
      -1.58725351e-01 1.28286600e-01 1.07350186e-01 1.93417147e-02
      -1.35784209e-01 -2.56361872e-01 -1.68333992e-01 -8.47793296e-02
      -6.14059269e-02 1.18752785e-01 9.37255919e-02 1.27461944e-02
      -8.72331634e-02 -1.41665548e-01 -3.44981045e-01 -6.65855780e-02
      2.69835573e-02 2.88853236e-02 8.28059018e-02 3.06038745e-02
      -1.31437376e-01 -4.94520441e-02 -7.25687221e-02 -6.56949207e-02
      1.97178517e-02 2.17715412e-01 9.55185890e-02 8.30393881e-02
      2.49380663e-01 2.48421103e-01 9.45353359e-02 -2.00844944e-01
      -3.40870261e-01 -3.55084032e-01 -1.31502599e-01 -8.60103443e-02
      7.42186308e-02 1.53349459e-01 1.73155889e-01 1.14280712e-02
      -1.79026455e-01 -2.96210796e-01 -2.91332871e-01 -1.35880962e-01
      -7.40706921e-04 3.60319987e-02 3.95419635e-02 -2.79406253e-02
      -5.12096807e-02 -1.26549602e-01 -3.57907191e-02 1.12639025e-01
      1.77767739e-01 1.75357848e-01 1.09558277e-01 -2.42718920e-01
      -2.24112302e-01 -1.16998367e-01 1.17037661e-01 2.44014293e-01
      3.30782920e-01 2.32536867e-01 2.30546415e-01 -1.20118313e-01
      1.43738329e-01 1.61301970e-01 1.44867599e-01 -8.32122043e-02
      -8.26460347e-02 -2.84239411e-01 -1.60577789e-01 -2.18442976e-01
      5.59710786e-02 -1.49129048e-01 6.29459694e-02 1.32426977e-01
      1.91663355e-01 5.95596582e-02 1.81074012e-02 -1.05090030e-01
      -8.62877667e-02 -2.05370620e-01 7.33821541e-02 -2.62915213e-02
      -5.97164929e-02 2.74118949e-02 1.44130290e-01 1.37876801e-03
      -9.44312010e-03 2.61519980e-02 3.88606377e-02 -2.23416731e-01
      -3.02677322e-02 2.60584354e-02 2.55625159e-01 2.85676837e-01
      2.05546722e-01 1.07722335e-01 -4.21089679e-02 -2.15401888e-01
      -4.50234897e-02 -1.16641978e-02 1.44486979e-01 8.90918151e-02
      8.88862386e-02 -2.90085692e-02 -1.50224626e-01 -3.39153528e-01
      -4.96553518e-02 -1.81080550e-01 -1.50663391e-01 -1.52588414e-03
      1.03778072e-01 1.54099435e-01 1.95987105e-01 7.07235336e-02
      7.12263957e-02 -1.52054340e-01 7.41612464e-02 -3.78998592e-02
      -5.74440695e-02 6.06540311e-03 -4.71161492e-02 -2.16889940e-02
      -4.61360402e-02 8.68948027e-02 9.24890190e-02 -3.76720214e-03
      1.01190813e-01 1.72652543e-01 1.03592664e-01 5.55042550e-02
      2.58354936e-03 2.69161421e-03 -5.36842309e-02 -1.22457154e-01</_>
    <_>
      -4.00206506e-01 7.87133425e-02 -1.86993573e-02 -3.74435931e-01
      -3.92733753e-01 3.02817114e-03 -3.66367139e-02 -1.74283847e-01
      -2.04848692e-01 7.45215416e-01 -2.40171459e-02 4.78641614e-02
      -3.70098948e-01 -4.90851283e-01 -2.96224058e-01 -5.02865791e-01
      -7.46568441e-01 2.73925006e-01 1.90144509e-01 -3.70087653e-01
      -5.62284887e-01 -1.04625762e-01 -2.84396499e-01 -1.64424698e-03
      3.52585286e-01 1.37717992e-01 2.59482294e-01 -2.78142422e-01
      -3.91028762e-01 -1.41479909e-01 8.96675363e-02 4.85188127e-01
      2.32897058e-01 3.70136797e-01 -1.44515680e-02 -6.92601949e-02
      4.56560493e-01 2.47720927e-01 -2.27299947e-02 -3.81955564e-01
      -4.95486915e-01 -3.38580996e-01 -3.81250717e-02 -2.50403225e-01
      -1.54076759e-02 3.07357401e-01 5.17146170e-01 3.37541521e-01
      -1.47849098e-01 -6.91749692e-01 -7.43160069e-01 -6.81763947e-01
